svm_type c_svc
kernel_type rbf
gamma 0.000488281
nr_class 11
total_sv 300
rho -9.97401 -3.02635 11.5945 5.15761 -10.1058 1.30767 7.18772 0.639122 -1.97881 -42.501 -0.995822 -0.903528 4.59827 -5.7383 10.9021 2.112 0.190719 2.75092 -41.6595 2.62936 1.86624 -6.09092 1.31909 3.4956 2.8595 1.29423 -20.0589 5.21663 -7.9849 11.0183 -0.753656 -2.49501 5.4403 -48.906 -5.24995 -1.20431 0.229202 -1.75369 1.98892 -21.2601 5.08036 11.4222 6.33492 4.69153 -14.9364 2.74943 -1.36845 -3.55477 -62.4622 -3.90629 -0.842807 -26.1239 0.898126 -31.9253 -26.2736
label 7 10 9 8 6 3 4 5 2 1 0
nr_sv 32 37 25 34 22 22 37 19 22 21 29
SV
1197.544758002418 0 0 0 0 0 0 20.33994349770026 0 604.4588822900777 1:0.305963 2:0.401659 3:0.360706 4:0.255645 5:0.276364 6:0.313315 7:0.339362 8:0.247011 9:0.251112 10:0.27347 11:0.250194 12:0.214517 13:0.186986 14:0.260622 15:0.253478 16:0.204984 17:0.192516 18:0.232197 19:0.227619 20:0.189039 21:0.151398 22:0.252762 23:0.293187 24:0.263376 25:0.294559 26:0.252485 27:0.283968 28:0.263895 29:0.0139605 30:0.263895 31:0.187045 32:0.187752 33:0.231209 34:0.303996 35:0.217375 36:0.133282 37:0.139817 38:0.163304 39:0.183109 40:0.183498 41:0.108755 42:0.116165 43:0.150724 44:0.172812 45:0.18005 46:0.192976 47:0.194512 48:0.20153 49:0.192343 50:0.147042 51:0.233178 52:0.239914 53:0.307006 54:0.312011 55:0.358287 56:0.296975 57:0.301399 58:0.375468 59:0.342213 60:0.287542 61:0.286071 62:0.359044 63:0.380901 64:0.337219 65:0.377199 66:0.430692 67:0.352912 68:0.286071 69:0.240439 70:0.275794 71:0.282663 72:0.273298 73:0.281111 74:0.289193 75:0.286071 76:0.260124 77:0.340334 78:0.389892 79:0.301217 80:0.208639 81:0.256316 82:0.318503 83:0.437029 84:0.366287 85:0.389586 86:0.334719 87:0.301332 88:0.262303 89:0.337189 90:0.330775 91:0.31066 92:0.254975 93:0.278843 94:0.279719 95:0.21901 96:0.198374 97:0.233691 98:0.217915 99:0.23467 100:0.163501 101:0.153319 102:0.227619 103:0.227619 104:0.127312 105:0.227096 106:0.292446 107:0.269022 108:0.276686 109:0.288366 110:0.305187 111:0.276215 112:0.206996 113:0.253007 114:0.206488 115:0.180426 116:0.224382 117:0.278732 118:0.265908 119:0.160904 120:0.156673 121:0.155136 122:0.167263 123:0.175495 124:0.153508 125:0.11989 126:0.176102 127:0.166005 128:0.196752 129:0.202107 130:0.228808 131:0.215068 132:0.185578 133:0.165193 134:0.208309 135:0.260615 136:0.292219 137:0.3215 138:0.363774 139:0.305156 140:0.296975 141:0.0684762 142:0.375468 143:0.317454 144:0.320008 145:0.334719 146:0.384445 147:0.335912 148:0.331812 149:0.253169 150:0.180037 151:0.153823 152:0.133409 153:0.162296 154:0.179129 155:0.183015 156:0.132099 157:0.140829 158:0.188505 159:0.116068 160:0.238432 161:0.332163 162:0.334709 163:0.177123 164:0.530484 165:0.633012 166:0.749979 167:0.657905 168:0.607779 169:0.76173 170:0.813585 171:0.816794 172:0.833122 173:0.849991 174:0.817931 175:0.785689 176:0.869611 177:0.867357 178:0.777521 179:0.809201 180:0.760255 181:0.736399 182:0.677638 183:0.623529 184:0.516078 185:0.536117 186:0.522524 187:0.566584 188:0.336898 189:0.273856 190:0.37528 191:0.0212067 192:0.0236001 193:0.0983295 194:0.0696843 195:0.158893 196:0.287969 197:0.146434 198:-0.155818 199:-0.569021 200:0.106312 201:-0.115593 202:-0.166381 203:-0.32992 204:-0.175387 205:-0.14767 206:-0.115234 207:-0.284894 208:0.199716 209:0.112913 210:0.314021 211:0.252134 212:0.481123 213:0.283553 214:0.265765 215:0.16289 216:0.0750911 217:0.00580459 218:0.133973 219:0.233984 220:0.239967 221:0.185247 222:0.146368 223:0.074684 224:0.191828 225:0.208816 226:0.237169 227:0.237816 228:0.251234 229:0.263795 230:-0.0339046 231:-0.134478 232:-0.21374 233:-0.25051 234:-0.138508 235:0.00212577 236:0.25131 237:0.289237 238:0.273536 239:0.261947 240:0.251431 241:0.242509 242:0.196738 243:0.176206 244:0.145336 245:0.119851 246:0.0853458 247:0.049469 248:0.0415262 249:0.0410285 250:0.0769736 251:0.0921612 252:0.0959035 253:0.0889038 254:0.11014 255:0.120041 256:0.0483952 257:-0.00505398 258:-0.00462762 259:0.0681805 260:-0.0354405 261:-0.0473404 262:-0.0624023 263:-0.070706 264:-0.0844323 265:-0.106801 266:-0.170546 267:-0.167517 268:-0.244898 269:-0.276458 270:-0.290965 271:-0.200272 272:-0.198532 273:-0.225717 274:-0.183321 275:-0.155966 276:-0.138143 277:-0.124489 278:-0.119305 279:-0.112468 280:-0.0889818 281:-0.07019 282:-0.0462116 283:-0.020003 284:0.00815089 285:0.0434631 286:0.0546228 287:0.0651966 288:0.0772353 289:0.0786059 290:0.0254377 291:-0.0316668 292:-0.0803565 293:-0.0960412 294:-0.0994462 295:-0.0948314 296:-0.0853499 297:-0.00566133 298:0.069121 299:0.0789518 300:0.0788964 301:0.0960213 302:0.107071 303:0.120991 304:0.131071 305:0.147384 306:0.179984 307:0.0211529 308:-0.218745 309:-0.223274 310:0.133582 311:0.0607513 312:0.252868 313:0.268105 314:0.252812 315:0.253066 316:0.260911 317:0.250303 318:0.242397 319:0.22624 320:0.210672 321:0.189837 322:0.160476 323:0.136726 324:0.107239 325:0.0751315 326:0.0446141 327:0.0267061 328:0.00758984 329:-0.00258316 330:-0.00465715 331:0.015071 332:0.0357446 333:0.0917343 334:0.113741 335:0.117423 336:0.124352 337:0.117442 338:0.12906 339:0.106623 340:0.0352946 341:7.47035e-05 342:-0.00843213 343:-0.0328276 344:-0.040726 345:-0.0555128 346:-0.0681917 347:-0.0818011 348:-0.111699 349:-0.179815 350:-0.259316 351:-0.291675 352:-0.290969 353:-0.295569 354:-0.291105 355:-0.245863 356:-0.20234 357:-0.174028 358:-0.153582 359:-0.143 360:-0.125182 361:-0.123061 362:-0.0939297 363:-0.0837925 364:-0.0610824 365:-0.0326538 366:-0.00851395 367:0.0144393 368:0.0404863 369:0.0542698 370:0.0689427 371:0.0778947 372:0.0727805 373:0.0531164 374:0.0045549 375:-0.0479008 376:-0.0876754 377:-0.098765 378:-0.105048 379:-0.115083 380:-0.0550228 381:-0.00303623 382:0.0667513 383:0.0874593 384:0.0918748 385:0.108859 386:0.115893 387:0.12787 388:0.139748 389:0.156168 390:0.196544 391:0.254172 392:0.278035 393:0.296629 394:0.321632 395:0.3374 396:0.3278 397:0.308518 398:0.29767 399:0.27307 400:0.230962 401:0.207659 402:0.187733 403:0.185762 404:0.175291 405:0.158964 406:0.136424 407:0.120374 408:0.0871142 409:0.0527021 410:0.032973 411:0.0195152 412:-0.00922891 413:-0.00791371 414:0.00513209 415:0.0455675 416:0.105245 417:0.118437 418:0.134982 419:0.136259 420:0.135106 421:0.126308 422:0.137353 423:0.062415 424:0.00377151 425:-0.00261579 426:-0.0260214 427:-0.039699 428:-0.0532218 429:-0.0624086 430:-0.0763726 431:-0.0878262 432:-0.136941 433:-0.213516 434:-0.197842 435:-0.187204 436:-0.224824 437:-0.248852 438:-0.265347 439:-0.211035 440:-0.174047 441:-0.150976 442:-0.134741 443:-0.123659 444:-0.116936 445:-0.108748 446:-0.0900364 447:-0.0636161 448:-0.0387288 449:-0.0225021 450:0.00520873 451:0.0276573 452:0.0499365 453:0.0714388 454:0.0742047 455:0.0827545 456:0.0597339 457:0.0386093 458:-0.0248368 459:-0.0663808 460:-0.093896 461:-0.0970126 462:-0.106693 463:-0.0735497 464:-0.0259469 465:0.0359442 466:0.0824071 467:0.0827516 468:0.100104 469:0.106784 470:0.121056 471:0.129561 472:0.147385 473:0.158299 474:0.204782 475:0.249382 476:0.261665 477:0.279706 478:0.306583 479:0.298153 480:0.284071 481:0.265629 482:0.276641 483:0.253758 484:0.238039 485:0.226104 486:0.223026 487:0.204465 488:0.180489 489:0.152688 490:0.124556 491:0.10024 492:0.064001 493:0.0342904 494:0.0208874 495:-0.00888324 496:-0.0131999 497:-0.0105998 498:0.0153298 499:0.0635783 500:0.118577 501:0.130908 502:0.134022 503:0.12928 504:0.11698 505:0.135106 506:0.0739564 507:0.00373116 508:-0.00207629 509:-0.0144429 510:-0.0361717 511:-0.0474484 512:-0.0598307 513:-0.0735218 514:-0.0865318 515:-0.0989974 516:-0.137473 517:-0.175329 518:-0.187777 519:-0.209386 520:-0.233513 521:-0.26454 522:-0.213837 523:-0.175753 524:-0.148442 525:-0.12751 526:-0.116758 527:-0.1084 528:-0.104213 529:-0.0969611 530:-0.0684971 531:-0.0422493 532:-0.0214436 533:-0.000146132 534:0.0231281 535:0.0522098 536:0.0638483 537:0.0702507 538:0.0803205 539:0.068794 540:0.0515259 541:-0.00458863 542:-0.0574541 543:-0.0921546 544:-0.104706 545:-0.105475 546:-0.0936657 547:-0.0354076 548:0.0180028 549:0.0809238 550:0.0822842 551:0.0968386 552:0.104848 553:0.113627 554:0.123714 555:0.140477 556:0.154511 557:0.168099 558:0.211421 559:0.220188 560:0.229628 561:0.251908 562:0.258004 563:0.243385 564:0.243416 565:0.274633 566:0.251725 567:0.228704 568:0.220627 569:0.211095 570:0.204446 571:0.184531 572:0.16151 573:0.130143 574:0.107836 575:0.0693128 576:0.0450047 577:0.0244494 578:0.00839745 579:-0.0126577 580:-0.0151322 581:0.0110595 582:0.0398726 583:0.0704916 584:0.0908622 585:0.113646 586:0.134389 587:0.11914 588:0.127568 589:0.0870513 590:0.0157827 591:0.00334013 592:-0.00346886 593:-0.0289847 594:-0.0396953 595:-0.0566068 596:-0.0627493 597:-0.0808517 598:-0.0892082 599:-0.11934 600:-0.199106 601:-0.228286 602:-0.245186 603:-0.246413 604:-0.280339 605:-0.232755 606:-0.18517 607:-0.153837 608:-0.130567 609:-0.118967 610:-0.107188 611:-0.101868 612:-0.0830661 613:-0.0699005 614:-0.0461147 615:-0.0217387 616:-0.0107739 617:0.0170545 618:0.0388556 619:0.481027 620:0.261086 621:0.0747399 622:0.070416 623:0.048031 624:0.0180264 625:-0.0409247 626:-0.0737557 627:-0.0973258 628:-0.100345 629:-0.10347 630:-0.0468381 631:0.00641354 632:0.070195 633:0.0800716 634:0.0884551 635:0.105003 636:0.109924 637:0.120479 638:0.133359 639:0.152115 640:0.160634 641:0.184974 642:0.227749 643:0.255732 644:0.24227 645:0.242108 646:0.268752 647:0.251362 648:0.258039 649:0.255631 650:0.232829 651:0.212728 652:0.20482 653:0.201668 654:0.181345 655:0.510014 656:0.606785 657:0.113488 658:0.0851058 659:0.0529396 660:0.0272072 661:0.0138231 662:-0.0138376 663:-0.00853134 664:0.00909904 665:0.0154504 666:0.0865994 667:0.120352 668:0.0971961 669:0.150528 670:0.1384 671:0.134901 672:0.106636 673:0.0395912 674:-0.00399685 675:-0.00613887 676:-0.0201829 677:-0.0332779 678:-0.34097 679:0.382917 680:0.413451 681:-0.0879504 682:-0.0539024 683:0.0505211 684:0.169072 685:-0.271609 686:-0.256462 687:-0.275656 688:-0.239583 689:-0.18719 690:-0.153426 691:-0.134286 692:-0.115615 693:-0.104576 694:-0.416321 695:-0.0943396 696:-0.100837 697:-0.0637005 698:0.375321 699:-0.0529181 700:0.0051999 701:0.0296252 702:0.0497657 703:0.0709921 704:0.270619 705:0.0849347 706:0.0645862 707:0.0469808 708:-0.0159317 709:-0.0593687 710:-0.0842526 711:-0.0980226 712:-0.0953059 713:-0.0602128 714:-0.00726196 715:0.0493849 716:0.0782483 717:-0.0354654 718:0.0992498 719:0.103923 720:0.114226 721:0.127456 722:0.150205 723:0.0991746 724:0.199686 725:-0.16242 726:0.406855 727:0.514348 728:0.661476 729:0.416492 730:0.254167 731:0.280299 732:0.257663 733:0.235118 734:-0.165156 735:0.214382 736:0.206456 737:0.19091 738:0.171644 739:0.147941 740:0.124212 741:0.0986219 742:0.0690795 743:0.0372592 744:0.0500421 745:0.198378 746:0.0407203 747:0.056675 748:0.0545498 749:0.122015 750:0.232063 751:0.281917 752:0.241674 753:0.174906 754:0.138037 755:0.0917057 756:-0.255901 757:-0.00277961 758:-0.372282 759:-0.0457556 760:-0.0351603 761:-0.0446281 762:-0.108536 763:-0.069508 764:0.432587 765:-0.0809047 766:-0.0412886 767:0.14395 768:0.107081 769:0.362947 770:-0.139166 771:-0.159058 772:0.307117 773:0.458346 774:0.609004 775:-0.0701175 776:-0.104332 777:-0.0889681 778:-0.0819551 779:-0.0721618 780:-0.0547603 781:-0.0378663 782:-0.0222961 783:0.0883764 784:0.0185603 785:0.0449615 786:-0.0160388 787:0.163817 788:-0.406199 789:-0.0914809 790:0.0692127 791:0.0553864 792:0.0215921 793:0.0237324 794:0.0288975 795:0.0778649 796:0.0772603 797:0.0543776 798:0.11401 799:0.126179 800:0.46942 801:0.110509 802:0.108949 803:0.123505 804:0.1341 805:0.148913 806:0.164643 807:0.219965 808:0.231208 809:0.310452 810:0.259108 811:0.28528 812:0.288759 813:0.0751802 814:-0.344996 815:-0.0828229 816:0.51994 817:0.46168 818:0.00828434 819:0.50978 820:-0.324428 821:0.307333 822:0.152271 823:0.128988 824:0.114307 825:0.0880687 826:0.0445109 827:0.015359 828:0.184145 829:-0.0253785 830:-0.00730284 831:0.020306 832:0.499084 833:0.0760921 834:0.593804 835:0.587242 836:0.167746 837:0.169773 838:0.115389 839:-0.51231 840:0.0338549 841:0.056069 842:0.0198625 843:-0.142443 844:0.170068 845:0.018731 846:0.0144596 847:0.00692614 848:0.00661023 849:-0.198951 850:-0.0646371 851:0.241266 852:0.257732 853:-0.0988366 854:-0.127411 855:-0.0953168 856:-0.0569016 857:-0.0346462 858:-0.018088 859:-0.00510519 860:0.00960229 861:0.0194269 862:0.0320394 863:0.0340829 864:0.0620706 865:0.0772838 866:0.0884742 867:0.104219 868:0.117284 869:0.123871 870:0.602039 871:0.174572 872:0.133885 873:0.14477 874:0.0268355 875:-0.293105 876:0.128285 877:0.107367 878:0.0578359 879:0.052659 880:0.0431921 881:0.0410583 882:0.464955 883:0.150316 884:0.0436209 885:0.0560897 886:0.059909 887:0.064218 888:0.0682295 889:0.0820072 890:0.144561 891:0.353412 892:0.628906 893:0.276465 894:0.147149 895:0.266451 896:0.162492 897:0.187332 898:0.13791 899:0.120309 900:0.101901 901:0.0868801 902:0.0732543 903:0.0687677 904:0.0521815 905:0.037925 906:0.015812 907:-0.00596762 908:-0.0320307 909:-0.0559671 910:-0.0729582 911:-0.0761157 912:-0.147802 913:-0.116665 914:-0.120705 915:-0.0905079 916:-0.0656069 917:-0.486747 918:0.436473 919:0.300227 920:-0.0570073 921:0.0174293 922:0.100975 923:0.221264 924:0.306408 925:0.424469 926:0.500212 927:0.404341 928:0.349792 929:0.315567 930:0.217366 931:0.0462434 932:0.0104187 933:-0.0318969 934:-0.0774401 935:-0.139103 936:-0.13333 937:-0.116302 938:-0.116515 939:-0.0297813 940:-0.0101039 941:0.0285281 942:0.147056 943:0.158412 944:-0.084991 945:0.0587232 946:0.046497 947:0.068626 948:0.0720809 949:0.0769838 950:0.0112649 951:-0.438112 952:-0.730693 953:-0.207359 954:0.467357 955:0.437827 956:0.441856 957:0.377411 958:0.352159 959:0.33803 960:0.232691 961:0.184283 962:0.217375 963:0.210023 964:0.206009 965:0.263099 966:0.18884 967:0.169007 968:0.243641 969:0.281584 970:0.327367 971:0.323282 972:0.336299 973:0.29783 974:0.300512 975:0.386427 976:0.388695 977:0.260719 978:0.268168 979:0.350936 980:0.384646 981:0.334533 982:0.365105 983:0.426981 984:0.373817 985:0.281151 986:0.27436 987:0.258786 988:0.282663 989:0.268884 990:0.281614 991:0.276966 992:0.254123 993:0.241756 994:0.324313 995:0.360703 996:0.273679 997:0.228854 998:0.244906 999:0.322909 1000:0.305207 
3059.959778304378 0 0 0 0 254.9536812238125 0 36.70069014785533 0 2224.719937010747 1:0.356708 2:0.401659 3:0.360706 4:0.278577 5:0.271758 6:0.332513 7:0.334474 8:0.302639 9:0.274046 10:0.282325 11:0.280622 12:0.237993 13:0.240639 14:0.226456 15:0.240652 16:0.238787 17:0.176299 18:0.173089 19:0.235533 20:0.231576 21:0.15528 22:0.219238 23:0.293187 24:0.278098 25:0.242069 26:0.233192 27:0.303449 28:0.259716 29:0.387242 30:0.223151 31:0.148651 32:0.187752 33:0.245596 34:0.289987 35:0.235936 36:0.167476 37:0.147646 38:0.15146 39:0.164364 40:0.187135 41:0.160534 42:0.116165 43:0.150724 44:0.172812 45:0.190077 46:0.204116 47:0.247464 48:0.216828 49:0.203203 50:0.120289 51:0.222169 52:0.250908 53:0.293047 54:0.298453 55:0.347486 56:0.296975 57:0.345543 58:0.364048 59:0.346188 60:0.35013 61:0.310395 62:0.330561 63:0.396275 64:0.352894 65:0.373311 66:0.423455 67:0.37229 68:0.286071 69:0.220342 70:0.271629 71:0.302986 72:0.273298 73:0.281111 74:0.276966 75:0.257588 76:0.268329 77:0.319752 78:0.346515 79:0.29726 80:0.212714 81:0.272209 82:0.306445 83:0.345782 84:0.377988 85:0.385676 86:0.383576 87:0.318787 88:0.248 89:0.284519 90:0.316167 91:0.320034 92:0.268626 93:0.274251 94:0.283894 95:0.22814 96:0.249791 97:0.198838 98:0.247919 99:0.226219 100:0.163501 101:0.220496 102:0.262439 103:0.227619 104:0.146701 105:0.200699 106:0.277163 107:0.28028 108:0.287435 109:0.288366 110:0.297582 111:0.291721 112:0.231951 113:0.156572 114:0.190674 115:0.195078 116:0.227952 117:0.278732 118:0.292125 119:0.206297 120:0.164278 121:0.143287 122:0.17502 123:0.175495 124:0.188687 125:0.11989 126:0.157515 127:0.158808 128:0.167107 129:0.167772 130:0.243012 131:0.20034 132:0.203514 133:0.138283 134:0.185381 135:0.257138 136:0.270333 137:0.307992 138:0.311513 139:0.33446 140:0.318753 141:0.0504318 142:0.367789 143:0.32536 144:0.279828 145:0.290021 146:0.388264 147:0.354864 148:0.33578 149:0.249833 150:0.192514 151:0.147941 152:0.127886 153:0.164939 154:0.160017 155:0.189248 156:0.132099 157:0.137809 158:0.182137 159:0.12699 160:0.215444 161:0.267408 162:0.32331 163:0.224329 164:0.544915 165:0.619132 166:0.713963 167:0.650971 168:0.608787 169:0.763964 170:0.816453 171:0.819029 172:0.822218 173:0.851588 174:0.816136 175:0.790233 176:0.871611 177:0.867871 178:0.782111 179:0.812971 180:0.762578 181:0.73041 182:0.677638 183:0.634224 184:0.517033 185:0.524023 186:0.513161 187:0.570514 188:0.334691 189:0.270421 190:0.372469 191:0.0210502 192:0.0217984 193:0.0983295 194:0.0709622 195:0.160527 196:0.265861 197:0.141333 198:-0.148715 199:-0.567324 200:0.112748 201:-0.145609 202:-0.166185 203:-0.327913 204:-0.192261 205:-0.152209 206:-0.126416 207:-0.2885 208:0.193841 209:0.103334 210:0.305668 211:0.238021 212:0.475087 213:0.282923 214:0.266409 215:0.157185 216:0.0706773 217:0.00318749 218:0.130006 219:0.232004 220:0.23736 221:0.177382 222:0.142547 223:0.0706104 224:0.185433 225:0.202283 226:0.231277 227:0.237816 228:0.25502 229:0.265487 230:-0.0326167 231:-0.134918 232:-0.2149 233:-0.251065 234:-0.139145 235:0.00174447 236:0.246839 237:0.288769 238:0.281289 239:0.267905 240:0.252806 241:0.24615 242:0.200233 243:0.18134 244:0.147527 245:0.122444 246:0.0874992 247:0.049469 248:0.0436234 249:0.0385706 250:0.0812532 251:0.1025 252:0.102763 253:0.105224 254:0.119103 255:0.122447 256:0.0523148 257:-0.000126107 258:0.00259553 259:0.0717467 260:-0.0326289 261:-0.0414362 262:-0.0565032 263:-0.0604079 264:-0.0811212 265:-0.100538 266:-0.1648 267:-0.163555 268:-0.24864 269:-0.275602 270:-0.288352 271:-0.202306 272:-0.202034 273:-0.227135 274:-0.181947 275:-0.154648 276:-0.135608 277:-0.124883 278:-0.120106 279:-0.094171 280:-0.0982054 281:-0.0750083 282:-0.04764 283:-0.0217432 284:0.00473277 285:0.0421052 286:0.0566876 287:0.0638139 288:0.0740505 289:0.0778841 290:0.0244088 291:-0.0296609 292:-0.0843752 293:-0.103586 294:-0.11063 295:-0.103719 296:-0.0889287 297:-0.00284869 298:0.0645394 299:0.0742926 300:0.0750566 301:0.0922519 302:0.103009 303:0.116334 304:0.125463 305:0.138172 306:0.175781 307:0.0173735 308:-0.226709 309:-0.223516 310:0.139447 311:0.0632723 312:0.251165 313:0.271513 314:0.254929 315:0.253931 316:0.260482 317:0.251947 318:0.240336 319:0.222557 320:0.210672 321:0.192293 322:0.167019 323:0.139127 324:0.107622 325:0.076662 326:0.0517301 327:0.0281856 328:0.00873219 329:-0.00218727 330:-0.00426905 331:0.0195158 332:0.0381869 333:0.0925106 334:0.120944 335:0.125689 336:0.141465 337:0.119681 338:0.125621 339:0.103971 340:0.0382635 341:0.00334298 342:-0.00524404 343:-0.0303899 344:-0.0376273 345:-0.051023 346:-0.0598294 347:-0.0749475 348:-0.104612 349:-0.176379 350:-0.251224 351:-0.284168 352:-0.292654 353:-0.298546 354:-0.292434 355:-0.250727 356:-0.200307 357:-0.17253 358:-0.152865 359:-0.141215 360:-0.126253 361:-0.118817 362:-0.107007 363:-0.102959 364:-0.0610824 365:-0.0337043 366:-0.011244 367:0.0120899 368:0.0355322 369:0.0519573 370:0.0699397 371:0.0778947 372:0.0752431 373:0.0517158 374:0.0021822 375:-0.0525972 376:-0.0951989 377:-0.110209 378:-0.119431 379:-0.12184 380:-0.055709 381:-0.0060553 382:0.063112 383:0.0823286 384:0.0896731 385:0.106362 386:0.111849 387:0.123216 388:0.130309 389:0.152275 390:0.190892 391:0.249017 392:0.276305 393:0.292028 394:0.320191 395:0.338143 396:0.329332 397:0.312056 398:0.300888 399:0.275101 400:0.236976 401:0.208864 402:0.187733 403:0.180203 404:0.1713 405:0.16015 406:0.13918 407:0.121147 408:0.0889906 409:0.0589644 410:0.0358807 411:0.0180466 412:-0.00616561 413:-0.00518208 414:0.0059311 415:0.0491038 416:0.107121 417:0.122829 418:0.142631 419:0.14795 420:0.14028 421:0.129282 422:0.136207 423:0.0683719 424:0.00894549 425:0.00345723 426:-0.0214648 427:-0.0362461 428:-0.0473583 429:-0.0561704 430:-0.0664378 431:-0.0815224 432:-0.133469 433:-0.2042 434:-0.197842 435:-0.197975 436:-0.22893 437:-0.245634 438:-0.266242 439:-0.213927 440:-0.173287 441:-0.149897 442:-0.138599 443:-0.12296 444:-0.11344 445:-0.108748 446:-0.0854703 447:-0.0636161 448:-0.0428556 449:-0.0259089 450:0.00419949 451:0.0197601 452:0.0463458 453:0.0714388 454:0.0738778 455:0.0799869 456:0.0562353 457:0.0358419 458:-0.0251826 459:-0.070175 460:-0.099458 461:-0.10995 462:-0.110244 463:-0.0732108 464:-0.0236022 465:0.0329869 466:0.0788458 467:0.0796005 468:0.0988519 469:0.10429 470:0.116704 471:0.12361 472:0.140981 473:0.154287 474:0.20092 475:0.243978 476:0.25836 477:0.283458 478:0.311641 479:0.297757 480:0.286635 481:0.266073 482:0.275385 483:0.252158 484:0.239213 485:0.227678 486:0.218285 487:0.204853 488:0.185687 489:0.157824 490:0.125726 491:0.103283 492:0.0677117 493:0.0419395 494:0.0230781 495:-0.00888324 496:-0.0116575 497:-0.00980632 498:0.0193209 499:0.0663413 500:0.121271 501:0.135521 502:0.142402 503:0.142372 504:0.122983 505:0.135106 506:0.0739564 507:0.00976659 508:0.00402396 509:-0.00989425 510:-0.0330472 511:-0.0426517 512:-0.0557298 513:-0.0623875 514:-0.0807128 515:-0.0932031 516:-0.135003 517:-0.173633 518:-0.185171 519:-0.204447 520:-0.231247 521:-0.264096 522:-0.218485 523:-0.17731 524:-0.147347 525:-0.126113 526:-0.116402 527:-0.107349 528:-0.101789 529:-0.0892243 530:-0.0621818 531:-0.0467366 532:-0.0262049 533:-0.00315474 534:0.0184991 535:0.0492894 536:0.0645018 537:0.0689199 538:0.0775766 539:0.0691519 540:0.0494323 541:-0.00358243 542:-0.0615624 543:-0.0997956 544:-0.117348 545:-0.114694 546:-0.0968615 547:-0.0360869 548:0.0116599 549:0.078293 550:0.0768981 551:0.0930987 552:0.10267 553:0.109307 554:0.11782 555:0.132001 556:0.151572 557:0.162448 558:0.203349 559:0.219062 560:0.231931 561:0.251499 562:0.255467 563:0.245549 564:0.245604 565:0.276381 566:0.250518 567:0.23029 568:0.219434 569:0.207549 570:0.20404 571:0.187309 572:0.164686 573:0.134824 574:0.112067 575:0.0719258 576:0.0527006 577:0.0284606 578:0.00615306 579:-0.0122863 580:-0.0103856 581:0.0126569 582:0.0390761 583:0.068619 584:0.0934798 585:0.120795 586:0.149474 587:0.125169 588:0.127191 589:0.0847431 590:0.0203141 591:0.00226086 592:0.00113213 593:-0.0258493 594:-0.036945 595:-0.0524742 596:-0.0551089 597:-0.0726385 598:-0.0854199 599:-0.116512 600:-0.189149 601:-0.220182 602:-0.245186 603:-0.252928 604:-0.281287 605:-0.235787 606:-0.186761 607:-0.154573 608:-0.129161 609:-0.119663 610:-0.106492 611:-0.0959362 612:-0.0897121 613:-0.0815056 614:-0.051001 615:-0.0237916 616:-0.0127972 617:0.0147512 618:0.033982 619:0.479596 620:0.260294 621:0.0747399 622:0.07147 623:0.0448964 624:0.0152653 625:-0.0446929 626:-0.0797384 627:-0.105777 628:-0.114543 629:-0.113194 630:-0.0475303 631:0.0057366 632:0.0665315 633:0.0762451 634:0.085956 635:0.10314 636:0.107757 637:0.11708 638:0.125543 639:0.147277 640:0.153751 641:0.18053 642:0.225691 643:0.250135 644:0.241405 645:0.24389 646:0.270536 647:0.254017 648:0.259351 649:0.254803 650:0.232829 651:0.213112 652:0.203244 653:0.198495 654:0.181733 655:0.513483 656:0.608933 657:0.117744 658:0.0885135 659:0.0559038 660:0.031222 661:0.015293 662:-0.0127016 663:-0.00931699 664:0.00788584 665:0.0174069 666:0.0846392 667:0.124261 668:0.106555 669:0.160982 670:0.151121 671:0.143138 672:0.107018 673:0.0460662 674:0.00118671 675:-0.000454058 676:-0.015996 677:-0.0287842 678:-0.33669 679:0.386109 680:0.419986 681:-0.085002 682:-0.0505136 683:0.0578802 684:0.17142 685:-0.276618 686:-0.257834 687:-0.27379 688:-0.240017 689:-0.188849 690:-0.155691 691:-0.134633 692:-0.119807 693:-0.104218 694:-0.413615 695:-0.0936391 696:-0.0707581 697:-0.0728327 698:0.370955 699:-0.0549082 700:0.00286421 701:0.0224261 702:0.0465196 703:0.0706687 704:0.269015 705:0.081457 706:0.0624577 707:0.0431336 708:-0.0172988 709:-0.0628641 710:-0.0895512 711:-0.107571 712:-0.103557 713:-0.0641098 714:-0.00278493 715:0.0460059 716:0.0756517 717:-0.0368794 718:0.0970745 719:0.100814 720:0.110192 721:0.119693 722:0.141622 723:0.0951949 724:0.201452 725:-0.167895 726:0.404155 727:0.519384 728:0.66381 729:0.416126 730:0.25926 731:0.282135 732:0.25723 733:0.234706 734:-0.164062 735:0.212389 736:0.202477 737:0.193691 738:0.175664 739:0.152711 740:0.125373 741:0.099014 742:0.0713153 743:0.0449223 744:0.0536309 745:0.198987 746:0.038841 747:0.0551579 748:0.0592436 749:0.124653 750:0.233837 751:0.286153 752:0.249311 753:0.190244 754:0.142235 755:0.0934023 756:-0.255616 757:0.00139953 758:-0.36979 759:-0.0426755 760:-0.0334098 761:-0.039768 762:-0.103593 763:-0.0582066 764:0.433743 765:-0.0755703 766:-0.037787 767:0.145407 768:0.115539 769:0.363992 770:-0.140457 771:-0.160752 772:0.306004 773:0.458557 774:0.609114 775:-0.0714624 776:-0.107469 777:-0.0896649 778:-0.0826562 779:-0.0665084 780:-0.0656925 781:-0.0424084 782:-0.019552 783:0.0849885 784:0.014594 785:0.040076 786:-0.0184774 787:0.161978 788:-0.40659 789:-0.0899663 790:0.0666948 791:0.0535558 792:0.017408 793:0.0126227 794:0.0137577 795:0.0655603 796:0.0732075 797:0.0540121 798:0.111144 799:0.11933 800:0.466345 801:0.108196 802:0.106588 803:0.116416 804:0.126914 805:0.139718 806:0.162065 807:0.217675 808:0.21943 809:0.306713 810:0.258615 811:0.282918 812:0.287414 813:0.0759894 814:-0.347114 815:-0.0559562 816:0.507304 817:0.455115 818:0.00971289 819:0.506003 820:-0.324012 821:0.31171 822:0.153875 823:0.132142 824:0.117007 825:0.0895538 826:0.0555655 827:0.0186881 828:0.180022 829:-0.0222276 830:-0.00132594 831:0.0239178 832:0.501167 833:0.0310206 834:0.598774 835:0.596839 836:0.180507 837:0.177713 838:0.113329 839:-0.783905 840:-0.235967 841:-0.0646607 842:0.0575805 843:-0.133224 844:0.165746 845:0.0134993 846:0.0186269 847:0.00889072 848:0.00576913 849:-0.198951 850:-0.0603986 851:0.241266 852:0.250529 853:-0.103153 854:-0.121583 855:-0.0970718 856:-0.0589138 857:-0.0342624 858:-0.0198693 859:-0.00866611 860:0.0103102 861:0.0197916 862:0.0313289 863:0.0195568 864:0.0585128 865:0.0797179 866:0.0884742 867:0.103204 868:0.114291 869:0.124213 870:0.602951 871:0.176002 872:0.135308 873:0.144037 874:0.0268355 875:-0.29235 876:0.130837 877:0.111297 878:0.0548666 879:0.0513244 880:0.0427871 881:0.0451039 882:0.465738 883:0.149723 884:0.0436209 885:0.0574373 886:0.059909 887:0.064218 888:0.0660579 889:0.0823804 890:0.142382 891:0.352725 892:0.627653 893:0.275426 894:0.146651 895:0.266894 896:0.159898 897:0.190415 898:0.136997 899:0.118213 900:0.101901 901:0.0881147 902:0.0756975 903:0.0679483 904:0.0500968 905:0.0387704 906:0.0183891 907:-0.00596762 908:-0.0311772 909:-0.0547094 910:-0.0729582 911:-0.0797521 912:-0.147802 913:-0.115812 914:-0.125955 915:-0.0927256 916:-0.0672024 917:-0.485899 918:0.437883 919:0.29917 920:-0.050429 921:0.0191417 922:0.104041 923:0.223923 924:0.3043 925:0.431288 926:0.502551 927:0.405115 928:0.354366 929:0.317103 930:0.226838 931:0.0407483 932:0.0180565 933:-0.0283688 934:-0.0780802 935:-0.147583 936:-0.13158 937:-0.110242 938:-0.114353 939:-0.0359203 940:-0.0110467 941:0.0299055 942:0.1419 943:0.157383 944:-0.0910876 945:0.0561434 946:0.0802133 947:0.0628365 948:0.0734224 949:0.0746151 950:0.00836187 951:-0.439374 952:-0.726442 953:-0.198607 954:0.46266 955:0.436301 956:0.455484 957:0.389848 958:0.374578 959:0.33803 960:0.235988 961:0.162701 962:0.19116 963:0.194813 964:0.217323 965:0.241398 966:0.211046 967:0.133951 968:0.236374 969:0.299279 970:0.302846 971:0.299439 972:0.306122 973:0.327134 974:0.318753 975:0.336776 976:0.38492 977:0.30571 978:0.276119 979:0.314345 980:0.403962 981:0.346131 982:0.36887 983:0.423455 984:0.400631 985:0.292784 986:0.266401 987:0.250747 988:0.28681 989:0.289193 990:0.281614 991:0.276966 992:0.254123 993:0.278723 994:0.332558 995:0.333333 996:0.259093 997:0.228854 998:0.240996 999:0.307172 1000:0.313233 
235.1522348628857 0 0 0 0 0 72.11698694975851 5.083897399578633 0 0 1:0.658775 2:0.743778 3:0.743778 4:0.71452 5:0.704485 6:0.723849 7:0.856776 8:0.896319 9:0.897496 10:0.811783 11:0.750805 12:0.848126 13:0.799772 14:0.775734 15:0.756087 16:0.75688 17:0.705821 18:0.694775 19:0.662083 20:0.604115 21:0.554736 22:0.656 23:0.709233 24:0.69614 25:0.634109 26:0.576927 27:0.573005 28:0.591935 29:0.61555 30:0.591935 31:0.481 32:0.468019 33:0.495527 34:0.438707 35:0.364524 36:0.374004 37:0.372679 38:0.313861 39:0.339453 40:0.364411 41:0.353175 42:0.339673 43:0.376057 44:0.381564 45:0.35016 46:0.364048 47:0.452701 48:0.425321 49:0.301675 50:0.125561 51:0.268103 52:0.336066 53:0.353123 54:0.323657 55:0.381564 56:0.418334 57:0.41298 58:0.44241 59:0.417553 60:0.472705 61:0.462162 62:0.543451 63:0.567163 64:0.480105 65:0.500243 66:0.558916 67:0.580661 68:0.563825 69:0.522403 70:0.525455 71:0.507051 72:0.499843 73:0.557973 74:0.618485 75:0.604366 76:0.726097 77:0.825895 78:0.793403 79:0.700663 80:0.651997 81:0.691728 82:0.726195 83:0.741326 84:0.694946 85:0.728957 86:0.74657 87:0.748909 88:0.728 89:0.723849 90:0.830651 91:0.918279 92:0.875983 93:0.832166 94:0.753461 95:0.828866 96:0.844793 97:0.789544 98:0.732808 99:0.777898 100:0.699735 101:0.714545 102:0.642695 103:0.642695 104:0.546147 105:0.611607 106:0.722739 107:0.706522 108:0.665308 109:0.626292 110:0.562012 111:0.592287 112:0.604351 113:0.61555 114:0.564521 115:0.486428 116:0.504649 117:0.513042 118:0.458042 119:0.358702 120:0.39066 121:0.352746 122:0.339698 123:0.352258 124:0.385369 125:0.358886 126:0.388715 127:0.369198 128:0.364048 129:0.371245 130:0.440044 131:0.437878 132:0.347914 133:0.197407 134:0.225162 135:0.347914 136:0.402207 137:0.359945 138:0.410506 139:0.41298 140:0.418334 141:0.129858 142:0.461705 143:0.425907 144:0.46966 145:0.543451 146:0.578376 147:0.499903 148:0.453626 149:0.368412 150:0.368791 151:0.337656 152:0.36128 153:0.3536 154:0.308315 155:0.366887 156:0.327721 157:0.357245 158:0.445016 159:0.482784 160:0.612339 161:0.733762 162:0.766313 163:0.675005 164:0.803828 165:0.804615 166:0.881481 167:0.775922 168:0.685921 169:0.808966 170:0.880663 171:0.889621 172:0.892296 173:0.926285 174:0.917179 175:0.912308 176:0.934446 177:0.923786 178:0.871339 179:0.894952 180:0.862058 181:0.835763 182:0.789221 183:0.740808 184:0.650031 185:0.627637 186:0.621793 187:0.652352 188:0.45113 189:0.370582 190:0.438816 191:0.209223 192:0.671664 193:0.771371 194:0.807591 195:0.740472 196:0.40705 197:0.216268 198:-0.288509 199:-0.769764 200:-0.0432965 201:-0.110757 202:-0.269228 203:-0.552708 204:-0.373111 205:-0.419816 206:-0.462978 207:-0.726844 208:-0.230882 209:-0.446791 210:-0.130714 211:-0.286878 212:0.114581 213:-0.197706 214:-0.184438 215:-0.319036 216:-0.41779 217:-0.430831 218:-0.304652 219:-0.086908 220:-0.115166 221:-0.177253 222:-0.235654 223:-0.285262 224:-0.221024 225:-0.20044 226:-0.155816 227:-0.0743811 228:0.0182303 229:0.162285 230:-0.0303821 231:-0.102673 232:-0.155169 233:-0.13717 234:0.0299319 235:0.233883 236:0.555573 237:0.622207 238:0.636756 239:0.641987 240:0.670637 241:0.684363 242:0.644543 243:0.687544 244:0.769963 245:0.808748 246:0.834011 247:0.816466 248:0.804898 249:0.79616 250:0.801027 251:0.801964 252:0.793771 253:0.796069 254:0.821904 255:0.804081 256:0.674673 257:0.587746 258:0.553347 259:0.558456 260:0.484814 261:0.444986 262:0.398614 263:0.367533 264:0.343035 265:0.332586 266:0.278519 267:0.239324 268:0.136983 269:0.0569671 270:-0.0565043 271:-0.105953 272:-0.190078 273:-0.266559 274:-0.295475 275:-0.329781 276:-0.348283 277:-0.359138 278:-0.370216 279:-0.369886 280:-0.371926 281:-0.369462 282:-0.357945 283:-0.334085 284:-0.332363 285:-0.357306 286:-0.417217 287:-0.459868 288:-0.509454 289:-0.53723 290:-0.570344 291:-0.613191 292:-0.671241 293:-0.699407 294:-0.72037 295:-0.731405 296:-0.698151 297:-0.550285 298:-0.453201 299:-0.403159 300:-0.380217 301:-0.349662 302:-0.324557 303:-0.282175 304:-0.241613 305:-0.212629 306:-0.165059 307:-0.196632 308:-0.45084 309:-0.439733 310:-0.132701 311:-0.142876 312:0.140041 313:0.271273 314:0.322887 315:0.36551 316:0.427587 317:0.471111 318:0.503008 319:0.511676 320:0.513153 321:0.514267 322:0.506052 323:0.498912 324:0.486645 325:0.4616 326:0.479323 327:0.52957 328:0.584069 329:0.642435 330:0.70084 331:0.755763 332:0.781745 333:0.816571 334:0.813503 335:0.80928 336:0.819007 337:0.815284 338:0.798064 339:0.722725 340:0.619763 341:0.570343 342:0.533724 343:0.494869 344:0.462948 345:0.420708 346:0.377368 347:0.353034 348:0.315287 349:0.248302 350:0.177297 351:0.120742 352:0.0586951 353:-0.0196448 354:-0.139187 355:-0.211226 356:-0.215948 357:-0.244039 358:-0.279542 359:-0.306166 360:-0.323407 361:-0.334035 362:-0.337554 363:-0.334024 364:-0.325182 365:-0.327054 366:-0.316346 367:-0.29827 368:-0.32958 369:-0.386725 370:-0.43254 371:-0.482544 372:-0.524257 373:-0.552784 374:-0.583893 375:-0.642133 376:-0.690695 377:-0.715362 378:-0.736914 379:-0.740275 380:-0.614383 381:-0.511836 382:-0.424062 383:-0.381433 384:-0.359046 385:-0.334966 386:-0.30127 387:-0.256367 388:-0.222239 389:-0.198605 390:-0.148806 391:-0.0910818 392:-0.0544336 393:0.00662156 394:0.0897569 395:0.198696 396:0.300708 397:0.360507 398:0.390116 399:0.421296 400:0.45281 401:0.467511 402:0.487972 403:0.494955 404:0.496424 405:0.494925 406:0.477326 407:0.477673 408:0.45977 409:0.449269 410:0.49219 411:0.560593 412:0.60944 413:0.670516 414:0.721945 415:0.765211 416:0.795559 417:0.796765 418:0.80441 419:0.811188 420:0.819519 421:0.797366 422:0.767416 423:0.651375 424:0.584338 425:0.554163 426:0.508454 427:0.47506 428:0.433289 429:0.38979 430:0.36045 431:0.344365 432:0.300576 433:0.234036 434:0.22886 435:0.205415 436:0.106188 437:-0.0490844 438:-0.199725 439:-0.214581 440:-0.221835 441:-0.260178 442:-0.286718 443:-0.308959 444:-0.322355 445:-0.329344 446:-0.322332 447:-0.318366 448:-0.317943 449:-0.319223 450:-0.296693 451:-0.322467 452:-0.362249 453:-0.403924 454:-0.457254 455:-0.504449 456:-0.546744 457:-0.57034 458:-0.623428 459:-0.677687 460:-0.708414 461:-0.727366 462:-0.738136 463:-0.659521 464:-0.541351 465:-0.454719 466:-0.391098 467:-0.372859 468:-0.345436 469:-0.316857 470:-0.273426 471:-0.233961 472:-0.209182 473:-0.192198 474:-0.152628 475:-0.106728 476:-0.0628316 477:0.0201824 478:0.110339 479:0.219336 480:0.313537 481:0.343847 482:0.397345 483:0.431337 484:0.458397 485:0.48563 486:0.499423 487:0.503411 488:0.504426 489:0.488579 490:0.481052 491:0.476111 492:0.44725 493:0.477155 494:0.550215 495:0.598051 496:0.650514 497:0.706014 498:0.746229 499:0.791265 500:0.850343 501:0.849132 502:0.843855 503:0.831806 504:0.81426 505:0.807459 506:0.683929 507:0.597806 508:0.555747 509:0.519793 510:0.48582 511:0.446503 512:0.399993 513:0.362247 514:0.345356 515:0.344177 516:0.317499 517:0.269231 518:0.223457 519:0.15198 520:0.0161982 521:-0.153832 522:-0.199741 523:-0.204829 524:-0.240386 525:-0.265213 526:-0.291682 527:-0.309074 528:-0.317788 529:-0.323485 530:-0.318214 531:-0.311592 532:-0.31527 533:-0.303224 534:-0.305396 535:-0.335584 536:-0.397793 537:-0.446798 538:-0.496689 539:-0.538558 540:-0.564835 541:-0.606905 542:-0.670778 543:-0.708414 544:-0.729911 545:-0.741212 546:-0.706683 547:-0.570685 548:-0.481732 549:-0.403135 550:-0.379883 551:-0.348485 552:-0.32564 553:-0.290139 554:-0.24727 555:-0.21404 556:-0.193704 557:-0.197075 558:-0.158493 559:-0.127286 560:-0.0581647 561:0.015455 562:0.140151 563:0.243981 564:0.312054 565:0.380723 566:0.412506 567:0.441815 568:0.466855 569:0.484671 570:0.498427 571:0.503411 572:0.498926 573:0.484291 574:0.481188 575:0.450552 576:0.478893 577:0.533642 578:0.585834 579:0.631606 580:0.696972 581:0.744035 582:0.771935 583:0.769307 584:0.781037 585:0.813037 586:0.839961 587:0.81971 588:0.808505 589:0.719522 590:0.614755 591:0.570101 592:0.542582 593:0.497942 594:0.463535 595:0.416822 596:0.381249 597:0.355875 598:0.34772 599:0.340077 600:0.269561 601:0.222024 602:0.148791 603:0.0542234 604:-0.114835 605:-0.198003 606:-0.20334 607:-0.225944 608:-0.255403 609:-0.288077 610:-0.306122 611:-0.314252 612:-0.319438 613:-0.323485 614:-0.316539 615:-0.311168 616:-0.315988 617:-0.295397 618:-0.324218 619:0.239858 620:-0.133571 621:-0.479463 622:-0.525409 623:-0.560905 624:-0.587767 625:-0.649082 626:-0.693751 627:-0.72015 628:-0.737208 629:-0.737962 630:-0.611043 631:-0.506045 632:-0.421894 633:-0.38291 634:-0.361037 635:-0.332362 636:-0.297876 637:-0.252097 638:-0.204913 639:-0.0980088 640:-0.119107 641:-0.246259 642:-0.230774 643:-0.169346 644:-0.090901 645:0.0330337 646:0.203248 647:0.282566 648:0.341136 649:0.390558 650:0.431036 651:0.447083 652:0.479207 653:0.493465 654:0.493444 655:0.705249 656:0.768745 657:0.485898 658:0.470623 659:0.465355 660:0.511316 661:0.574924 662:0.621321 663:0.689226 664:0.741011 665:0.73928 666:0.820476 667:0.845434 668:0.785816 669:0.866886 670:0.86162 671:0.853155 672:0.765547 673:0.650349 674:0.589132 675:0.552008 676:0.513232 677:0.482415 678:-0.00597703 679:0.645749 680:0.647663 681:0.303106 682:0.262888 683:0.333111 684:0.438462 685:0.112623 686:0.0805904 687:-0.0423792 688:-0.121715 689:-0.148887 690:-0.170282 691:-0.222251 692:-0.252978 693:-0.280467 694:-0.543642 695:-0.310643 696:-0.318692 697:-0.308274 698:0.212557 699:-0.335505 700:-0.285705 701:-0.310006 702:-0.361061 703:-0.409902 704:-0.152212 705:-0.507067 706:-0.549006 707:-0.570078 708:-0.630258 709:-0.68835 710:-0.713878 711:-0.729758 712:-0.736161 713:-0.659404 714:-0.532802 715:-0.447635 716:-0.396268 717:-0.437214 718:-0.33393 719:-0.304866 720:-0.245503 721:-0.199281 722:-0.16905 723:-0.101867 724:-0.0752511 725:-0.378164 726:0.184372 727:0.357771 728:0.581066 729:0.370487 730:0.304794 731:0.365357 732:0.375526 733:0.408357 734:-0.0211405 735:0.459696 736:0.474031 737:0.48296 738:0.485405 739:0.472544 740:0.468151 741:0.460196 742:0.436472 743:0.461587 744:0.551214 745:0.670381 746:0.666702 747:0.717034 748:0.743448 749:0.795062 750:0.871018 751:0.911672 752:0.890814 753:0.876575 754:0.825792 755:0.793243 756:0.204221 757:0.577479 758:-0.031362 759:0.45445 760:0.444312 761:0.344218 762:0.131798 763:0.117824 764:0.533669 765:0.132568 766:0.204682 767:-1 768:-0.829947 769:0.528406 770:0.125492 771:-0.0545541 772:0.338392 773:0.504302 774:0.653751 775:0.0617031 776:0.0278445 777:0.0382083 778:0.0516107 779:0.0723611 780:0.08173 781:0.0950009 782:0.102896 783:0.194677 784:0.119006 785:0.131717 786:0.0579647 787:0.234865 788:-0.365554 789:-0.0294736 790:0.139712 791:0.123755 792:0.0871177 793:0.0750561 794:0.0593236 795:0.0804072 796:0.0741794 797:0.0548711 798:0.111586 799:0.0995515 800:0.445628 801:0.0667781 802:0.0676926 803:0.071302 804:0.0688425 805:0.0719813 806:0.0818619 807:0.121139 808:0.10087 809:0.162711 810:0.107116 811:0.143291 812:0.168 813:-0.0340785 814:-0.414946 815:-0.174218 816:0.488698 817:0.425225 818:-0.0345354 819:0.468899 820:-0.373951 821:0.227713 822:0.056036 823:0.0462179 824:0.0365275 825:0.0238855 826:0.00523491 827:-0.0122002 828:0.161653 829:-0.0492926 830:-0.0179103 831:0.0140469 832:0.499373 833:0.0421527 834:0.590465 835:0.610923 836:0.235874 837:0.262311 838:0.206653 839:-0.0319837 840:0.0749527 841:0.0858287 842:0.0910193 843:-0.115881 844:0.199274 845:0.0610047 846:0.0600481 847:0.0552387 848:0.0552219 849:-0.150423 850:-0.0231184 851:0.281459 852:0.302386 853:-0.0407935 854:-0.0707979 855:-0.0441767 856:-0.00933494 857:0.00824178 858:0.0168576 859:0.0273246 860:0.0352689 861:0.0487816 862:0.0652722 863:0.0547946 864:0.0955246 865:0.10644 866:0.11339 867:0.125865 868:0.131043 869:0.138365 870:0.610018 871:0.192261 872:0.148989 873:0.162531 874:0.0442348 875:-0.278273 876:0.154435 877:0.134144 878:0.0789049 879:0.0722704 880:0.0646971 881:0.0647298 882:0.472486 883:0.154894 884:0.0487649 885:0.0653329 886:0.072393 887:0.0713594 888:0.0756167 889:0.0867618 890:0.149045 891:0.355887 892:0.631498 893:0.279687 894:0.163727 895:0.274578 896:0.185172 897:0.206433 898:0.151817 899:0.134831 900:0.125079 901:0.115254 902:0.104828 903:0.0951991 904:0.0714544 905:0.0622256 906:0.044575 907:0.02553 908:0.00191506 909:-0.0116709 910:-0.026412 911:-0.0339876 912:-0.108472 913:-0.0707477 914:-0.0758288 915:-0.047466 916:-0.0444301 917:-0.470954 918:0.463292 919:0.330103 920:-0.000461881 921:0.0732146 922:0.159885 923:0.29079 924:0.400374 925:0.539684 926:0.601347 927:0.488605 928:0.44174 929:0.418188 930:0.323538 931:0.134972 932:0.107869 933:0.0604817 934:0.00532911 935:-0.0828005 936:-0.0801592 937:-0.0709064 938:-0.0537552 939:0.03178 940:0.0434373 941:0.0784172 942:0.216444 943:0.235111 944:-0.0109532 945:0.131657 946:0.137178 947:0.134449 948:0.128769 949:0.118133 950:0.0420078 951:-0.430464 952:-0.694411 953:-0.164266 954:0.588292 955:0.498035 956:0.54637 957:0.499873 958:0.515988 959:0.515516 960:0.423738 961:0.387567 962:0.383276 963:0.390601 964:0.428404 965:0.38403 966:0.249573 967:0.205458 968:0.317805 969:0.432637 970:0.388223 971:0.369215 972:0.36048 973:0.394759 974:0.363797 975:0.433723 976:0.419647 977:0.389925 978:0.432881 979:0.523077 980:0.509412 981:0.453309 982:0.529179 983:0.631472 984:0.59858 985:0.579259 986:0.554943 987:0.490055 988:0.527375 989:0.517356 990:0.583819 991:0.598384 992:0.631501 993:0.702794 994:0.77611 995:0.736889 996:0.643946 997:0.668656 998:0.648487 999:0.694744 1000:0.688825 
54.84602657488362 0 0 0 0 214.4019037472865 17.5173087943927 162.3482144453293 0 0 1:0.658775 2:0.743778 3:0.743778 4:0.71452 5:0.728 6:0.723849 7:0.785164 8:0.873121 9:0.943131 10:0.834033 11:0.750805 12:0.82465 13:0.889041 14:0.839904 15:0.756087 16:0.777898 17:0.726195 18:0.714545 19:0.681274 20:0.681274 21:0.573758 22:0.637333 23:0.72729 24:0.714447 25:0.671602 26:0.59622 27:0.553524 28:0.591935 29:0.61555 30:0.591935 31:0.519394 32:0.486428 33:0.477635 34:0.526358 35:0.439342 36:0.39285 37:0.372679 38:0.353006 39:0.320514 40:0.383172 41:0.373153 42:0.339673 43:0.35764 44:0.399814 45:0.367102 46:0.382553 47:0.433955 48:0.444543 49:0.337567 50:0.125561 51:0.23109 52:0.336066 53:0.42221 54:0.340518 55:0.345251 56:0.327501 57:0.41298 58:0.423312 59:0.398271 60:0.414117 61:0.441996 62:0.502911 63:0.547847 64:0.499799 65:0.500243 66:0.558916 67:0.60024 68:0.523077 69:0.5425 70:0.545862 71:0.486935 72:0.520134 73:0.537664 74:0.578075 75:0.604366 76:0.664458 77:0.805313 78:0.793403 79:0.720051 80:0.651997 81:0.711695 82:0.705821 83:0.741326 84:0.694946 85:0.708788 86:0.726195 87:0.726978 88:0.751758 89:0.723849 90:0.758108 91:0.847855 92:0.921101 93:0.876937 94:0.774995 95:0.760272 96:0.891666 97:0.811439 98:0.796978 99:0.777898 100:0.741114 101:0.655437 102:0.662083 103:0.662083 104:0.526956 105:0.592585 106:0.722739 107:0.725349 108:0.701631 109:0.607539 110:0.581123 111:0.573005 112:0.604351 113:0.636383 114:0.564521 115:0.504649 116:0.504649 117:0.513042 118:0.439479 119:0.358702 120:0.333528 121:0.372427 122:0.339698 123:0.333138 124:0.385369 125:0.358886 126:0.388715 127:0.387284 128:0.382553 129:0.390363 130:0.386689 131:0.437878 132:0.383602 133:0.197407 134:0.186949 135:0.329978 136:0.420384 137:0.410685 138:0.340765 139:0.357941 140:0.400093 141:0.114898 142:0.423312 143:0.366511 144:0.46966 145:0.441996 146:0.519494 147:0.518662 148:0.47287 149:0.368412 150:0.337599 151:0.322877 152:0.36128 153:0.3536 154:0.321847 155:0.366887 156:0.31272 157:0.342596 158:0.445016 159:0.428545 160:0.631398 161:0.695728 162:0.766313 163:0.675005 164:0.815691 165:0.804615 166:0.881481 167:0.775922 168:0.685921 169:0.806159 170:0.880663 171:0.889621 172:0.892296 173:0.9183 174:0.90816 175:0.916852 176:0.936934 177:0.926278 178:0.863648 179:0.891821 180:0.869774 181:0.844288 182:0.789221 183:0.74972 184:0.645104 185:0.646255 186:0.626427 187:0.656282 188:0.45113 189:0.366265 190:0.441598 191:0.0396007 192:0.63244 193:1 194:0.894309 195:0.967604 196:0.496921 197:0.251874 198:-0.169101 199:-0.714544 200:-0.0284484 201:-0.0908392 202:-0.235991 203:-0.524096 204:-0.358436 205:-0.410085 206:-0.455524 207:-0.722348 208:-0.228088 209:-0.452106 210:-0.13489 211:-0.293448 212:0.10787 213:-0.219802 214:-0.205398 215:-0.329718 216:-0.425134 217:-0.437391 218:-0.306314 219:-0.0918701 220:-0.126734 221:-0.194562 222:-0.251275 223:-0.298858 224:-0.232996 225:-0.218847 226:-0.176805 227:-0.112426 228:-0.0258881 229:0.100859 230:-0.0518807 231:-0.113688 232:-0.16904 233:-0.162901 234:0.0187473 235:0.213407 236:0.53989 237:0.613079 238:0.62536 239:0.641987 240:0.656746 241:0.670772 242:0.635783 243:0.661941 244:0.730658 245:0.776278 246:0.801819 247:0.807957 248:0.804898 249:0.792063 250:0.802958 251:0.813461 252:0.803282 253:0.803674 254:0.839432 255:0.828157 256:0.694191 257:0.599115 258:0.569585 259:0.571427 260:0.491816 261:0.462343 262:0.419421 263:0.394141 264:0.365083 265:0.348232 266:0.292894 267:0.259074 268:0.166212 269:0.0869475 270:0.00675729 271:-0.0404527 272:-0.150884 273:-0.235543 274:-0.249994 275:-0.298717 276:-0.325014 277:-0.34699 278:-0.358182 279:-0.359954 280:-0.368091 281:-0.358301 282:-0.347214 283:-0.332345 284:-0.31182 285:-0.323305 286:-0.384757 287:-0.44083 288:-0.489909 289:-0.530012 290:-0.568606 291:-0.609831 292:-0.672924 293:-0.70799 294:-0.727348 295:-0.740293 296:-0.716082 297:-0.580214 298:-0.467288 299:-0.411458 300:-0.388191 301:-0.352803 302:-0.332363 303:-0.299263 304:-0.264939 305:-0.233282 306:-0.181225 307:-0.201886 308:-0.457663 309:-0.452733 310:-0.16746 311:-0.173421 312:0.0632798 313:0.21579 314:0.299427 315:0.343847 316:0.394024 317:0.448476 318:0.476297 319:0.503494 320:0.502973 321:0.504025 322:0.504003 323:0.488895 324:0.47877 325:0.457754 326:0.443743 327:0.486969 328:0.557601 329:0.621176 330:0.690851 331:0.751731 332:0.779737 333:0.816571 334:0.821094 335:0.816814 336:0.822738 337:0.822765 338:0.826683 339:0.745583 340:0.634646 341:0.579457 342:0.546114 343:0.500121 344:0.473324 345:0.434513 346:0.401742 347:0.376432 348:0.333951 349:0.257903 350:0.195535 351:0.14371 352:0.0882372 353:0.0231031 354:-0.0810006 355:-0.167042 356:-0.193669 357:-0.210272 358:-0.254394 359:-0.290154 360:-0.307466 361:-0.323407 362:-0.3305 363:-0.326933 364:-0.319882 365:-0.313149 366:-0.312934 367:-0.293245 368:-0.308107 369:-0.35705 370:-0.410725 371:-0.458561 372:-0.515467 373:-0.552784 374:-0.585591 375:-0.643819 376:-0.700948 377:-0.720569 378:-0.743935 379:-0.758068 380:-0.641868 381:-0.526897 382:-0.433981 383:-0.392645 384:-0.368463 385:-0.339656 386:-0.318368 387:-0.279637 388:-0.245838 389:-0.214789 390:-0.162103 391:-0.103099 392:-0.0701083 393:-0.0270025 394:0.0626894 395:0.133547 396:0.24124 397:0.327135 398:0.371981 399:0.390616 400:0.418736 401:0.453541 402:0.472037 403:0.485018 404:0.486417 405:0.488935 406:0.47143 407:0.469926 408:0.454102 409:0.429011 410:0.459422 411:0.531184 412:0.582748 413:0.650893 414:0.715942 415:0.761271 416:0.793702 417:0.802241 418:0.815341 419:0.818502 420:0.826904 421:0.817858 422:0.790186 423:0.66995 424:0.593587 425:0.56309 426:0.51371 427:0.483701 428:0.448814 429:0.415753 430:0.385278 431:0.364757 432:0.308271 433:0.246195 434:0.252221 435:0.236807 436:0.144917 437:0.0243249 438:-0.139198 439:-0.189843 440:-0.195204 441:-0.229804 442:-0.267445 443:-0.291457 444:-0.311848 445:-0.32053 446:-0.315303 447:-0.314894 448:-0.307608 449:-0.312392 450:-0.29334 451:-0.291214 452:-0.324738 453:-0.377516 454:-0.43709 455:-0.494052 456:-0.541514 457:-0.566881 458:-0.621751 459:-0.684588 460:-0.715362 461:-0.732591 462:-0.752285 463:-0.682162 464:-0.563229 465:-0.466261 466:-0.400805 467:-0.379177 468:-0.348567 469:-0.330818 470:-0.293598 471:-0.257394 472:-0.223579 473:-0.208951 474:-0.161413 475:-0.119343 476:-0.0866646 477:-0.00986994 478:0.069497 479:0.16641 480:0.271097 481:0.324337 482:0.369865 483:0.395288 484:0.442588 485:0.463954 486:0.489535 487:0.495425 488:0.494418 489:0.484616 490:0.471374 491:0.468482 492:0.436155 493:0.453462 494:0.517297 495:0.567702 496:0.631193 497:0.694092 498:0.746229 499:0.789309 500:0.842597 501:0.862616 502:0.855302 503:0.837423 504:0.827402 505:0.836756 506:0.704796 507:0.607216 508:0.570116 509:0.528532 510:0.489282 511:0.461947 512:0.42225 513:0.390074 514:0.367144 515:0.353828 516:0.329871 517:0.292592 518:0.251743 519:0.181131 520:0.0846345 521:-0.083043 522:-0.165969 523:-0.181441 524:-0.202313 525:-0.240725 526:-0.272543 527:-0.296903 528:-0.309074 529:-0.312942 530:-0.31645 531:-0.302953 532:-0.30505 533:-0.30154 534:-0.285596 535:-0.304804 536:-0.366694 537:-0.426802 538:-0.481228 539:-0.53156 540:-0.561345 541:-0.603522 542:-0.674201 543:-0.718827 544:-0.736914 545:-0.750086 546:-0.722643 547:-0.599596 548:-0.495102 549:-0.411365 550:-0.384637 551:-0.354734 552:-0.336512 553:-0.307132 554:-0.27047 555:-0.231314 556:-0.21002 557:-0.205886 558:-0.167675 559:-0.144071 560:-0.0946776 561:-0.0164765 562:0.0645709 563:0.185758 564:0.288073 565:0.356951 566:0.373867 567:0.419966 568:0.445116 569:0.472868 570:0.486529 571:0.491442 572:0.496951 573:0.476489 574:0.471565 575:0.446833 576:0.442323 577:0.489911 578:0.561678 579:0.614423 580:0.683097 581:0.740041 582:0.767953 583:0.765543 584:0.788488 585:0.820571 586:0.849406 587:0.832884 588:0.837567 589:0.74071 590:0.626055 591:0.577358 592:0.547889 593:0.501434 594:0.475577 595:0.435709 596:0.409021 597:0.373747 598:0.360921 599:0.346168 600:0.286843 601:0.242261 602:0.174417 603:0.10066 604:-0.0554353 605:-0.156922 606:-0.185415 607:-0.192769 608:-0.228997 609:-0.267137 610:-0.29218 611:-0.305515 612:-0.312452 613:-0.314705 614:-0.313049 615:-0.302588 616:-0.310921 617:-0.288775 618:-0.306354 619:0.257779 620:-0.117832 621:-0.457458 622:-0.51494 623:-0.55915 624:-0.586043 625:-0.650799 626:-0.70431 627:-0.727178 628:-0.747862 629:-0.754182 630:-0.638766 631:-0.521284 632:-0.43188 633:-0.394095 634:-0.367301 635:-0.338587 636:-0.317954 637:-0.276808 638:-0.234561 639:-0.16572 640:-0.0692532 641:-0.183208 642:-0.257452 643:-0.201631 644:-0.13204 645:-0.0374547 646:0.134016 647:0.24267 648:0.315082 649:0.357378 650:0.397099 651:0.425365 652:0.459469 653:0.483538 654:0.483477 655:0.70178 656:0.764266 657:0.478179 658:0.466828 659:0.441396 660:0.476677 661:0.547316 662:0.598386 663:0.669544 664:0.734987 665:0.737323 666:0.814555 667:0.851278 668:0.797054 669:0.868826 670:0.875111 671:0.874733 672:0.792991 673:0.667492 674:0.592834 675:0.560871 676:0.518474 677:0.492782 678:0.00827542 679:0.661729 680:0.664001 681:0.336332 682:0.285454 683:0.324742 684:0.435527 685:0.133102 686:0.101 687:0.0159998 688:-0.0726636 689:-0.126333 690:-0.141931 691:-0.179437 692:-0.237232 693:-0.256022 694:-0.537998 695:-0.300118 696:-0.308074 697:-0.308274 698:0.220873 699:-0.327204 700:-0.285705 701:-0.278933 702:-0.322041 703:-0.3833 704:-0.136139 705:-0.494886 706:-0.545488 707:-0.566588 708:-0.62684 709:-0.693602 710:-0.72093 711:-0.738582 712:-0.750512 713:-0.685958 714:-0.555187 715:-0.459487 716:-0.404391 717:-0.445669 718:-0.340169 719:-0.317319 720:-0.281177 721:-0.222586 722:-0.184963 723:-0.109204 724:-0.0811378 725:-0.389381 726:0.166394 727:0.343193 728:0.563607 729:0.329353 730:0.263145 731:0.351742 732:0.354368 733:0.372126 734:-0.0306132 735:0.439821 736:0.458075 737:0.474966 738:0.477387 739:0.470567 740:0.456417 741:0.448729 742:0.429019 743:0.437869 744:0.515454 745:0.652065 746:0.647986 747:0.70375 748:0.743448 749:0.791288 750:0.872792 751:0.922278 752:0.898096 753:0.882329 754:0.837234 755:0.820497 756:0.218863 757:0.586965 758:-0.0222701 759:0.46642 760:0.465246 761:0.404846 762:0.212517 763:0.101929 764:0.531749 765:0.128758 766:0.196859 767:0.0482538 768:-0.63739 769:0.0837372 770:-0.259079 771:0.0366373 772:0.350802 773:0.501659 774:0.651605 775:0.0650654 776:0.0330799 777:0.0364574 778:0.049849 779:0.0723611 780:0.0834979 781:0.0950009 782:0.106326 783:0.196221 784:0.127278 785:0.138236 786:0.0594966 787:0.234865 788:-0.364594 789:-0.0309882 790:0.141513 791:0.127417 792:0.0871177 793:0.0750561 794:0.0593236 795:0.0784344 796:0.0741794 797:0.0513069 798:0.11478 799:0.104446 800:0.446594 801:0.0667781 802:0.0660038 803:0.0746738 804:0.0671423 805:0.0666775 806:0.0781654 807:0.126872 808:0.105228 809:0.167355 810:0.104571 811:0.147991 812:0.168 813:-0.0340785 814:-0.412599 815:-0.175769 816:0.486273 817:0.425225 818:-0.0381129 819:0.470895 820:-0.372916 821:0.226042 822:0.0580311 823:0.0422544 824:0.034582 825:0.0238855 826:-0.00214113 827:-0.0140539 828:0.161653 829:-0.0512518 830:-0.0199094 831:0.016058 832:0.499373 833:0.0421527 834:0.591031 835:0.610923 836:0.235874 837:0.264408 838:0.208712 839:-0.0337309 840:0.070965 841:0.0820383 842:0.0928749 843:-0.114897 844:0.20072 845:0.0610047 846:0.0657272 847:0.0572033 848:0.0552219 849:-0.154168 850:-0.0246344 851:0.277133 852:0.298155 853:-0.0407935 854:-0.0780707 855:-0.0507689 856:-0.00933494 857:0.0101031 858:0.0222381 859:0.0255441 860:0.0370478 861:0.0469948 862:0.0635049 863:0.0578177 864:0.0937639 865:0.108176 866:0.115117 867:0.127534 868:0.131043 869:0.138365 870:0.610018 871:0.194039 872:0.148989 873:0.162531 874:0.0459331 875:-0.278273 876:0.154435 877:0.131978 878:0.0789049 879:0.0722704 880:0.058764 881:0.0647298 882:0.474454 883:0.15637 884:0.0487649 885:0.0653329 886:0.072393 887:0.0696009 888:0.068378 889:0.0848363 890:0.151768 891:0.357604 892:0.631498 893:0.279687 894:0.171401 895:0.272377 896:0.182551 897:0.208994 898:0.154088 899:0.134831 900:0.120978 901:0.111153 902:0.106853 903:0.0972581 904:0.0735391 905:0.0622256 906:0.0403162 907:0.0233979 908:0.00191506 909:-0.0200058 910:-0.0344863 911:-0.0339876 912:-0.108472 913:-0.0728926 914:-0.0758288 915:-0.047466 916:-0.0455799 917:-0.470954 918:0.461882 919:0.330103 920:-0.000461881 921:0.0732146 922:0.16292 923:0.277492 924:0.393289 925:0.539684 926:0.613162 927:0.499952 928:0.44174 929:0.42587 930:0.327856 931:0.134972 932:0.0963926 933:0.0569896 934:-0.000944196 935:-0.0801723 936:-0.0845322 937:-0.0729125 938:-0.0617473 939:0.0289818 940:0.045782 941:0.080705 942:0.212756 943:0.245136 944:-0.0159649 945:0.127372 946:0.140981 947:0.130836 948:0.13214 949:0.121109 950:0.0444147 951:-0.430464 952:-0.690117 953:-0.15989 954:0.588292 955:0.505513 956:0.53655 957:0.51231 958:0.530071 959:0.515516 960:0.423738 961:0.369489 962:0.364715 963:0.37149 964:0.409481 965:0.456552 966:0.323781 967:0.186137 968:0.317805 969:0.397063 970:0.388223 971:0.317847 972:0.341716 973:0.41298 974:0.418334 975:0.433723 976:0.474946 977:0.44626 978:0.432881 979:0.563825 980:0.567163 981:0.492302 982:0.509759 983:0.558916 984:0.617902 985:0.560134 986:0.554943 987:0.510048 988:0.486935 989:0.497254 990:0.563644 991:0.598384 992:0.590275 993:0.702794 994:0.796829 995:0.736889 996:0.625806 997:0.668656 998:0.648487 999:0.714516 1000:0.668656 
0 0 0 0 0 994.693817567151 319.8731888740953 126.4767994529613 367.2154839487638 0 1:0.303167 2:0.378137 3:0.353565 4:0.206739 5:0.197333 6:0.15112 7:0.187828 8:0.146645 9:0.179265 10:0.150641 11:0.130039 12:0.0897113 13:0.15274 14:0.171923 15:0.220652 16:0.244204 17:0.242412 18:0.245108 19:0.275101 20:0.25967 21:0.197981 22:0.212952 23:0.287044 24:0.253374 25:0.22438 26:0.192046 27:0.242421 28:0.216047 29:0.124141 30:0.109904 31:0.0458752 32:0.0786137 33:0.145624 34:0.206646 35:0.173555 36:0.0812124 37:0.0272006 38:0.0663455 39:0.0936322 40:0.135828 41:0.0979513 42:0.140084 43:0.239805 44:0.352142 45:0.316103 46:0.319486 47:0.380616 48:0.428655 49:0.38395 50:0.304433 51:0.367752 52:0.393832 53:0.445887 54:0.452112 55:0.446555 56:0.410517 57:0.38687 58:0.399685 59:0.358911 60:0.355129 61:0.339917 62:0.364241 63:0.428008 64:0.424638 65:0.435125 66:0.507701 67:0.474778 68:0.396674 69:0.321645 70:0.382613 71:0.462049 72:0.466583 73:0.464304 74:0.48855 75:0.469854 76:0.446303 77:0.501418 78:0.521033 79:0.499258 80:0.384882 81:0.400774 82:0.421206 83:0.442334 84:0.331787 85:0.334431 86:0.323701 87:0.258812 88:0.187636 89:0.160719 90:0.15796 91:0.147699 92:0.138825 93:0.167949 94:0.165019 95:0.0876741 96:0.101758 97:0.160858 98:0.206307 99:0.235753 100:0.235013 101:0.23724 102:0.251954 103:0.25967 104:0.197942 105:0.197981 106:0.263055 107:0.251165 108:0.259637 109:0.233448 110:0.256825 111:0.250174 112:0.141303 113:0.107388 114:0.108566 115:0.0712877 116:0.107918 117:0.20324 118:0.210985 119:0.0865366 120:0.0511846 121:0.0581384 122:0.0867144 123:0.142132 124:0.138917 125:0.117145 126:0.258606 127:0.260681 128:0.363671 129:0.393679 130:0.421834 131:0.422583 132:0.376098 133:0.346494 134:0.354889 135:0.426061 136:0.459705 137:0.484804 138:0.455275 139:0.438339 140:0.395998 141:0.0903763 142:0.384328 143:0.362051 144:0.341123 145:0.339917 146:0.408963 147:0.423903 148:0.387164 149:0.328886 150:0.274734 151:0.231187 152:0.211585 153:0.255374 154:0.280692 155:0.314842 156:0.273534 157:0.286113 158:0.364846 159:0.294335 160:0.358483 161:0.42481 162:0.520047 163:0.363325 164:0.617196 165:0.664574 166:0.768406 167:0.669367 168:0.594277 169:0.752936 170:0.812335 171:0.807396 172:0.812951 173:0.819809 174:0.78494 175:0.762127 176:0.861737 177:0.852453 178:0.756293 179:0.795048 180:0.75435 181:0.722979 182:0.676025 183:0.638931 184:0.531062 185:0.533594 186:0.524626 187:0.577077 188:0.340519 189:0.26725 190:0.373759 191:0.0201817 192:0.0209721 193:0.0950234 194:0.0668471 195:0.154186 196:0.26782 197:0.130297 198:-0.174354 199:-0.58207 200:-0.323675 201:-0.335503 202:-0.364927 203:-0.594242 204:-0.321214 205:-0.236913 206:-0.172314 207:-0.315983 208:0.199788 209:0.149142 210:0.354185 211:0.304721 212:0.523911 213:0.369142 214:0.372956 215:0.29862 216:0.236599 217:0.168098 218:0.313214 219:0.382773 220:0.42114 221:0.377681 222:0.356822 223:0.265189 224:0.393053 225:0.393812 226:0.418737 227:0.41588 228:0.426138 229:0.444799 230:0.0684918 231:-0.0258471 232:-0.104574 233:-0.133675 234:-0.0125827 235:0.133676 236:0.389822 237:0.413709 238:0.386304 239:0.365637 240:0.347865 241:0.328718 242:0.265988 243:0.236915 244:0.189581 245:0.14033 246:0.072601 247:0.00494037 248:-0.0227158 249:-0.034348 250:-0.00650902 251:-0.00391403 252:-0.00220221 253:-0.00407512 254:0.00419237 255:-0.00673349 256:-0.0987501 257:-0.169013 258:-0.183119 259:-0.112186 260:-0.258148 261:-0.277178 262:-0.294119 263:-0.293721 264:-0.30554 265:-0.317321 266:-0.366518 267:-0.333226 268:-0.415568 269:-0.445966 270:-0.462746 271:-0.365542 272:-0.386625 273:-0.423694 274:-0.368319 275:-0.340484 276:-0.318709 277:-0.284569 278:-0.256364 279:-0.221659 280:-0.198741 281:-0.172747 282:-0.135174 283:-0.0948124 284:-0.0523585 285:-0.000304668 286:0.0287594 287:0.0649484 288:0.111813 289:0.137278 290:0.093449 291:0.0461201 292:0.00829498 293:0.00230386 294:-0.00185203 295:0.00167553 296:0.0240881 297:0.125072 298:0.223525 299:0.241107 300:0.250039 301:0.304704 302:0.31552 303:0.322884 304:0.326583 305:0.330247 306:0.350057 307:0.118373 308:-0.126357 309:-0.123923 310:0.296189 311:0.222589 312:0.450403 313:0.48077 314:0.473708 315:0.465169 316:0.449747 317:0.416315 318:0.387099 319:0.346914 320:0.317938 321:0.288339 322:0.256945 323:0.227842 324:0.191133 325:0.145377 326:0.105417 327:0.0709002 328:0.029643 329:-0.00826414 330:-0.0404641 331:-0.040148 332:-0.0332609 333:0.0129286 334:0.014493 335:0.0181703 336:0.0311331 337:0.0200138 338:0.0139384 339:-0.0342084 340:-0.119244 341:-0.177103 342:-0.197598 343:-0.236837 344:-0.259903 345:-0.278448 346:-0.283991 347:-0.292199 348:-0.311963 349:-0.369154 350:-0.441157 351:-0.476187 352:-0.485013 353:-0.496372 354:-0.505815 355:-0.476828 356:-0.41331 357:-0.36151 358:-0.321633 359:-0.297677 360:-0.261818 361:-0.236319 362:-0.207955 363:-0.170349 364:-0.133759 365:-0.0986379 366:-0.0689254 367:-0.0347092 368:0.000617143 369:0.0279874 370:0.0676878 371:0.108825 372:0.130462 373:0.124405 374:0.0824385 375:0.0408994 376:0.0135774 377:-0.00113727 378:-0.0137729 379:-0.0168099 380:0.0560785 381:0.12536 382:0.214946 383:0.248265 384:0.264584 385:0.296532 386:0.311252 387:0.326191 388:0.329231 389:0.344222 390:0.370555 391:0.419216 392:0.436958 393:0.455601 394:0.488822 395:0.517312 396:0.523216 397:0.524999 398:0.518996 399:0.487911 400:0.433125 401:0.399255 402:0.36398 403:0.335023 404:0.297322 405:0.258896 406:0.22102 407:0.192824 408:0.145397 409:0.0973875 410:0.0585648 411:0.0284396 412:-0.0175018 413:-0.0544921 414:-0.0659797 415:-0.0356255 416:0.0182427 417:0.019632 418:0.0279628 419:0.0329683 420:0.0326644 421:0.0147163 422:0.000845161 423:-0.091743 424:-0.170097 425:-0.187221 426:-0.223196 427:-0.255741 428:-0.273209 429:-0.282447 430:-0.287346 431:-0.293156 432:-0.331827 433:-0.39901 434:-0.391889 435:-0.393859 436:-0.433397 437:-0.463442 438:-0.489826 439:-0.428593 440:-0.365335 441:-0.320269 442:-0.288512 443:-0.261057 444:-0.236598 445:-0.215666 446:-0.176307 447:-0.141761 448:-0.110631 449:-0.0868988 450:-0.0451509 451:-0.0153315 452:0.0222961 453:0.0672291 454:0.0995131 455:0.133779 456:0.126759 457:0.114923 458:0.0616987 459:0.0353919 460:0.0071968 461:-0.00115417 462:-0.00930245 463:0.0338712 464:0.0987363 465:0.172691 466:0.236819 467:0.260213 468:0.289314 469:0.306342 470:0.324333 471:0.328636 472:0.338132 473:0.341924 474:0.381026 475:0.415532 476:0.431238 477:0.457923 478:0.494165 479:0.497353 480:0.511696 481:0.499839 482:0.491609 483:0.440093 484:0.40854 485:0.376403 486:0.351772 487:0.319452 488:0.278945 489:0.237723 490:0.200587 491:0.170084 492:0.11847 493:0.0737486 494:0.0454916 495:-0.0057377 496:-0.0443656 497:-0.0657349 498:-0.0577171 499:-0.0217709 500:0.0211759 501:0.0193489 502:0.0276717 503:0.0309014 504:0.0114777 505:0.00905909 506:-0.0750639 507:-0.162619 508:-0.183926 509:-0.207063 510:-0.251391 511:-0.267322 512:-0.280507 513:-0.284984 514:-0.296666 515:-0.301283 516:-0.337767 517:-0.368071 518:-0.38081 519:-0.409813 520:-0.444614 521:-0.486869 522:-0.436679 523:-0.37715 524:-0.32563 525:-0.284148 526:-0.260746 527:-0.23708 528:-0.216195 529:-0.181903 530:-0.148167 531:-0.118745 532:-0.0904921 533:-0.055109 534:-0.0180261 535:0.0299254 536:0.0551018 537:0.0850089 538:0.126105 539:0.133919 540:0.124677 541:0.0761504 542:0.0376327 543:0.0106619 544:-0.00396847 545:-0.0117961 546:0.0103407 547:0.0820489 548:0.150998 549:0.230899 550:0.243657 551:0.270793 552:0.303004 553:0.317369 554:0.323112 555:0.332186 556:0.340175 557:0.349431 558:0.383151 559:0.391844 560:0.409279 561:0.438757 562:0.460533 563:0.469121 564:0.481663 565:0.498279 566:0.448646 567:0.404811 568:0.376744 569:0.348507 570:0.324312 571:0.286753 572:0.2507 573:0.212303 574:0.179818 575:0.126781 576:0.090824 577:0.0540573 578:0.0140655 579:-0.0339462 580:-0.0633481 581:-0.0568333 582:-0.0421802 583:-0.0213994 584:-0.017989 585:0.00460519 586:0.0296282 587:0.0161781 588:0.00796493 589:-0.0530988 590:-0.14002 591:-0.177176 592:-0.195479 593:-0.235566 594:-0.258615 595:-0.27804 596:-0.278849 597:-0.288688 598:-0.290683 599:-0.317394 600:-0.392592 601:-0.424674 602:-0.455704 603:-0.463164 604:-0.506823 605:-0.454409 606:-0.393772 607:-0.337284 608:-0.29383 609:-0.26996 610:-0.242714 611:-0.217627 612:-0.188274 613:-0.155904 614:-0.126066 615:-0.0925695 616:-0.0711457 617:-0.028825 618:0.00710246 619:0.470685 620:0.264296 621:0.113414 622:0.13332 623:0.122294 624:0.097114 625:0.0502314 626:0.0340397 627:0.00659531 628:-0.00508131 629:-0.00497283 630:0.0652255 631:0.139406 632:0.215066 633:0.23889 634:0.257515 635:0.295698 636:0.317369 637:0.328079 638:0.333221 639:0.342469 640:0.341918 641:0.365352 642:0.415356 643:0.449551 644:0.440674 645:0.452829 646:0.493121 647:0.489061 648:0.485678 649:0.460165 650:0.410613 651:0.374364 652:0.346579 653:0.323765 654:0.286753 655:0.562561 656:0.643585 657:0.185888 658:0.144586 659:0.0973077 660:0.0575702 661:0.0268075 662:-0.0435694 663:-0.0591755 664:-0.0578534 665:-0.0683569 666:-0.0048397 667:0.0117969 668:-0.0180852 669:0.0299868 670:0.0283426 671:0.0161029 672:-0.0363886 673:-0.120295 674:-0.174485 675:-0.192975 676:-0.238866 677:-0.25743 678:-0.499316 679:0.245297 680:0.297403 681:-0.28793 682:-0.231311 683:-0.0891137 684:0.0515661 685:-0.426192 686:-0.366667 687:-0.404444 688:-0.374091 689:-0.340487 690:-0.312078 691:-0.279384 692:-0.262472 693:-0.241394 694:-0.497586 695:-0.204386 696:-0.179659 697:-0.159445 698:0.32983 699:-0.104986 700:-0.0509931 701:-0.0105057 702:0.0300226 703:0.0584651 704:0.286226 705:0.142503 706:0.13232 707:0.116284 708:0.0687044 709:0.0468209 710:0.0242685 711:0.0122698 712:0.0135338 713:0.0595422 714:0.14397 715:0.21667 716:0.251939 717:0.126928 718:0.300533 719:0.323251 720:0.348539 721:0.369275 722:0.449655 723:0.219068 724:0.362203 725:-0.217932 726:0.311367 727:0.424026 728:0.599855 729:0.3082 730:0.125218 731:0.156094 732:0.142185 733:0.125725 734:-0.238652 735:0.100463 736:0.0882158 737:0.0816143 738:0.072437 739:0.0572768 740:0.0386672 741:0.0167996 742:-0.010682 743:-0.0309045 744:-0.00492548 745:0.15512 746:-0.009751 747:0.0085382 748:0.00490437 749:0.0769912 750:0.193274 751:0.246296 752:0.219937 753:0.176536 754:0.144637 755:0.0993729 756:-0.253186 757:0.0155503 758:-0.355856 759:-0.0118217 760:0.0040099 761:-0.00225269 762:-0.0583502 763:0.00229644 764:0.476062 765:0.0195691 766:0.0721425 767:0.170655 768:0.228804 769:0.435279 770:0.00323795 771:-0.0219346 772:0.33273 773:0.490462 774:0.640447 775:0.0283212 776:-0.00407 777:0.0084957 778:0.0168081 779:0.0284389 780:0.0408154 781:0.0526909 782:0.0657449 783:0.16417 784:0.0971066 785:0.115726 786:0.0380804 787:0.209962 788:-0.377636 789:-0.0479274 790:0.118485 791:0.101825 792:0.0695832 793:0.0615296 794:0.0478275 795:0.0700347 796:0.0684725 797:0.0473405 798:0.110587 799:0.107018 800:0.45369 801:0.074984 802:0.0733624 803:0.0776653 804:0.0800957 805:0.0786608 806:0.0918138 807:0.129885 808:0.10125 809:0.160782 810:0.097401 811:0.135699 812:0.151186 813:-0.045075 814:-0.4171 815:-0.181126 816:0.484046 817:0.41885 818:-0.0453044 819:0.459931 820:-0.379405 821:0.221958 822:0.0511615 823:0.0378661 824:0.0252318 825:0.00933903 826:-0.0213452 827:-0.0373572 828:0.143694 829:-0.0730047 830:-0.0462445 831:-0.0140469 832:0.484751 833:0.0167273 834:0.580404 835:0.59309 836:0.197507 837:0.220044 838:0.161473 839:-0.0766077 840:0.0172733 841:0.023141 842:0.0314317 843:-0.144933 844:0.159197 845:0.00316957 846:0.00321755 847:-0.00117273 848:0.00126166 849:-0.198471 850:-0.059718 851:0.244514 852:0.255302 853:-0.097066 854:-0.120462 855:-0.0965093 856:-0.0592042 857:-0.0367762 858:-0.0215587 859:-0.00926565 860:0.00544554 861:0.0141942 862:0.0239499 863:0.0196343 864:0.0508164 865:0.065489 866:0.0785889 867:0.0975945 868:0.1114 869:0.115616 870:0.598576 871:0.169293 872:0.127209 873:0.14047 874:0.0228669 875:-0.292286 876:0.14076 877:0.120141 878:0.0652155 879:0.0633808 880:0.0539851 881:0.0624718 882:0.474233 883:0.164066 884:0.0570703 885:0.0720364 886:0.0771513 887:0.0818381 888:0.0820944 889:0.0924791 890:0.157188 891:0.359137 892:0.632097 893:0.277781 894:0.154456 895:0.268253 896:0.16629 897:0.199744 898:0.1458 899:0.129709 900:0.111871 901:0.0976146 902:0.08641 903:0.0824246 904:0.0676679 905:0.0541399 906:0.0376955 907:0.0151773 908:-0.0148061 909:-0.0433689 910:-0.0615591 911:-0.062686 912:-0.129493 913:-0.101148 914:-0.10787 915:-0.0810939 916:-0.0602687 917:-0.484834 918:0.437393 919:0.296823 920:-0.0519406 921:0.0136271 922:0.095656 923:0.198145 924:0.283189 925:0.401831 926:0.487025 927:0.387922 928:0.328642 929:0.295003 930:0.198687 931:0.028344 932:0.00681524 933:-0.0281888 934:-0.0703986 935:-0.140024 936:-0.130145 937:-0.112145 938:-0.114736 939:-0.03632 940:-0.0104423 941:0.0259367 942:0.139191 943:0.148644 944:-0.0978559 945:0.0452995 946:0.0444192 947:0.045763 948:0.0480711 949:0.0605242 950:0.00220833 951:-0.442174 952:-0.752733 953:-0.224552 954:0.411588 955:0.403945 956:0.416905 957:0.343401 958:0.336064 959:0.39772 960:0.294638 961:0.261022 962:0.308075 963:0.325468 964:0.363246 965:0.438004 966:0.397419 967:0.337317 968:0.393832 969:0.464198 970:0.478611 971:0.457749 972:0.435729 973:0.408848 974:0.366961 975:0.486455 976:0.489289 977:0.366853 978:0.328917 979:0.404782 980:0.46664 981:0.417516 982:0.462796 983:0.52236 984:0.494085 985:0.401617 986:0.387001 987:0.409049 988:0.478225 989:0.472386 990:0.461522 991:0.44814 992:0.412262 993:0.394665 994:0.511416 995:0.529518 996:0.424404 997:0.406874 998:0.358716 999:0.434278 1000:0.382795 
1097.96514475508 0 1193.704765427769 0 92.764225764485 1185.672687730961 0 310.9689885080416 391.8295624462328 993.8959787659245 1:0.318749 2:0.361756 3:0.328993 4:0.243243 5:0.225697 6:0.199114 7:0.168765 8:0.155876 9:0.161011 10:0.212623 11:0.138701 12:0.0990538 13:0.143836 14:0.180683 15:0.212174 16:0.227302 17:0.242412 18:0.23724 19:0.25967 20:0.267385 21:0.213121 22:0.212952 23:0.272524 24:0.268095 25:0.231878 26:0.192046 27:0.219163 28:0.232344 29:0.174613 30:0.118053 31:0.0612325 32:0.0639617 33:0.124043 34:0.199641 35:0.166093 36:0.111716 37:0.0741744 38:0.0741744 39:0.108706 40:0.158227 41:0.137703 42:0.109499 43:0.239805 44:0.388454 45:0.322846 46:0.356307 47:0.365543 48:0.421006 49:0.391128 50:0.289201 51:0.375154 52:0.408367 53:0.45967 54:0.459065 55:0.439292 56:0.417962 57:0.408848 58:0.407364 59:0.366663 60:0.362927 61:0.339917 62:0.331809 63:0.404947 64:0.432476 65:0.450287 66:0.507701 67:0.466986 68:0.388565 69:0.353635 70:0.382613 71:0.413521 72:0.458425 73:0.480468 74:0.528961 75:0.486071 76:0.446303 77:0.427491 78:0.481691 79:0.468394 80:0.345151 81:0.416667 82:0.413098 83:0.425782 84:0.387067 85:0.326405 86:0.339917 87:0.311178 88:0.235152 89:0.199114 90:0.138648 91:0.166446 92:0.156872 93:0.158994 94:0.165019 95:0.105935 96:0.111085 97:0.169571 98:0.189225 99:0.210401 100:0.218462 101:0.252976 102:0.25967 103:0.267385 104:0.22109 105:0.220691 106:0.247771 107:0.266304 108:0.266864 109:0.218523 110:0.218799 111:0.242421 112:0.183108 113:0.124141 114:0.0848454 115:0.0712877 116:0.12257 117:0.196119 118:0.181131 119:0.139463 120:0.0968119 121:0.034642 122:0.094471 123:0.119305 124:0.154507 125:0.0942065 126:0.199241 127:0.231891 128:0.253021 129:0.370854 130:0.400528 131:0.400491 132:0.397511 133:0.338833 134:0.354889 135:0.390373 136:0.452471 137:0.471123 138:0.448319 139:0.431013 140:0.410517 141:0.108421 142:0.392006 143:0.362051 144:0.357114 145:0.339917 146:0.401125 147:0.423903 148:0.410376 149:0.296364 150:0.262097 151:0.24295 152:0.228155 153:0.222817 154:0.226144 155:0.326996 156:0.279504 157:0.280224 158:0.326639 159:0.287116 160:0.389331 161:0.44763 162:0.489387 163:0.355457 164:0.631505 165:0.685262 166:0.768406 167:0.688683 168:0.596242 169:0.756288 170:0.8109 171:0.810352 172:0.81444 173:0.823003 174:0.78494 175:0.763954 176:0.857736 177:0.852453 178:0.759353 179:0.793802 180:0.75435 181:0.719525 182:0.670472 183:0.635366 184:0.533023 185:0.533594 186:0.524626 187:0.584978 188:0.351552 189:0.265532 190:0.374878 191:0.0204869 192:0.0191704 193:0.0931726 194:0.0651578 195:0.156346 196:0.27058 197:0.128267 198:-0.173065 199:-0.580374 200:0.105882 201:-0.217564 202:-0.623543 203:-0.754474 204:-0.336622 205:-0.265454 206:-0.200644 207:-0.344157 208:0.179641 209:0.120805 210:0.343054 211:0.287668 212:0.513615 213:0.357157 214:0.361345 215:0.285805 216:0.218249 217:0.153671 218:0.299973 219:0.376821 220:0.414194 221:0.373894 222:0.351259 223:0.270638 224:0.398652 225:0.394629 226:0.418737 227:0.420944 228:0.426977 229:0.440569 230:0.064628 231:-0.0262869 232:-0.102728 233:-0.128251 234:-0.00684321 235:0.139624 236:0.392505 237:0.421924 238:0.399078 239:0.372041 240:0.352487 241:0.338668 242:0.279116 243:0.253146 244:0.203555 245:0.155047 246:0.0897625 247:0.0151476 248:-0.0127008 249:-0.0269742 250:0.00593176 251:0.0114086 252:0.00617789 253:0.00275241 254:0.0143339 255:0.00288872 256:-0.0854515 257:-0.15386 258:-0.16653 259:-0.0992146 260:-0.238557 261:-0.268837 262:-0.289268 263:-0.293721 264:-0.307008 265:-0.322783 266:-0.376389 267:-0.336399 268:-0.416402 269:-0.449388 270:-0.464488 271:-0.361455 272:-0.385755 273:-0.42846 274:-0.36648 275:-0.336939 276:-0.318709 277:-0.290259 278:-0.26197 279:-0.231998 280:-0.209499 281:-0.177946 282:-0.140887 283:-0.104525 284:-0.0639976 285:-0.0152769 286:0.0164402 287:0.052487 288:0.0983093 289:0.127154 290:0.0878967 291:0.0407537 292:-0.00176891 293:-0.0025149 294:-0.00952858 295:-0.00544547 296:0.0176279 297:0.114507 298:0.215769 299:0.2265 300:0.237277 301:0.276385 302:0.313025 303:0.324744 304:0.327205 305:0.328977 306:0.357818 307:0.121743 308:-0.125449 309:-0.125339 310:0.295458 311:0.222589 312:0.444443 313:0.472226 314:0.474559 315:0.475579 316:0.458981 317:0.427843 318:0.396963 319:0.356727 320:0.327722 321:0.296546 322:0.261857 323:0.231865 324:0.198223 325:0.156875 326:0.115889 327:0.0753386 328:0.0417441 329:0.0110749 330:-0.0269012 331:-0.0312584 332:-0.0275898 333:0.0175865 334:0.0296753 335:0.0234306 336:0.0430305 337:0.0334647 338:0.0238623 339:-0.0227796 340:-0.105865 341:-0.158129 342:-0.183451 343:-0.22352 344:-0.252289 345:-0.272226 346:-0.281905 347:-0.289325 348:-0.317942 349:-0.373768 350:-0.439539 351:-0.471162 352:-0.485013 353:-0.495518 354:-0.50224 355:-0.471534 356:-0.416566 357:-0.365256 358:-0.326655 359:-0.303361 360:-0.268909 361:-0.242684 362:-0.215009 363:-0.177459 364:-0.143653 365:-0.107665 366:-0.0764331 367:-0.0414144 368:-0.00995037 369:0.0194122 370:0.0576141 371:0.0937544 372:0.122733 373:0.118803 374:0.077035 375:0.0301477 376:0.00264198 377:-0.00739227 378:-0.0200758 379:-0.0267721 380:0.0464711 381:0.111963 382:0.193128 383:0.236102 384:0.253286 385:0.280284 386:0.303785 387:0.320616 388:0.327346 389:0.344868 390:0.375867 391:0.422647 392:0.435567 393:0.453482 394:0.488822 395:0.514338 396:0.517833 397:0.521843 398:0.523019 399:0.493649 400:0.441131 401:0.408813 402:0.371957 403:0.342191 404:0.307718 405:0.270876 406:0.231243 407:0.199025 408:0.15296 409:0.108441 410:0.0731221 411:0.0387385 412:-0.00835089 413:-0.0395886 414:-0.0547731 415:-0.0277447 416:0.0234686 417:0.0313122 418:0.0345104 419:0.0432001 420:0.0415223 421:0.0236566 422:0.0114728 423:-0.0761179 424:-0.152339 425:-0.172935 426:-0.213383 427:-0.245365 428:-0.266992 429:-0.279682 430:-0.283805 431:-0.298359 432:-0.336444 433:-0.400629 434:-0.388474 435:-0.392964 436:-0.434307 437:-0.457945 438:-0.48356 439:-0.429416 440:-0.371413 441:-0.325978 442:-0.296929 443:-0.270157 444:-0.245007 445:-0.222011 446:-0.182617 447:-0.149417 448:-0.117509 449:-0.0937123 450:-0.0531736 451:-0.0232288 452:0.0151146 453:0.0527063 454:0.0766478 455:0.119923 456:0.119084 457:0.109388 458:0.0529155 459:0.0188563 460:0.000941804 461:-0.0116401 462:-0.0206248 463:0.024808 464:0.0893057 465:0.162788 466:0.221282 467:0.243795 468:0.276772 469:0.300132 470:0.316264 471:0.326765 472:0.336855 473:0.348628 474:0.38453 475:0.414813 476:0.426092 477:0.457173 478:0.493389 479:0.494101 480:0.505742 481:0.502458 482:0.496698 483:0.446511 484:0.415666 485:0.385061 486:0.355723 487:0.325845 488:0.290937 489:0.249573 490:0.208321 491:0.176171 492:0.12661 493:0.090502 494:0.0579247 495:0.00564061 496:-0.0258362 497:-0.056193 498:-0.0457234 499:-0.00995271 500:0.032784 501:0.0339763 502:0.03531 503:0.037649 504:0.0212524 505:0.0184382 506:-0.0614053 507:-0.149063 508:-0.168143 509:-0.19587 510:-0.233354 511:-0.259784 512:-0.275722 513:-0.283594 514:-0.297391 515:-0.305911 516:-0.341905 517:-0.365526 518:-0.379073 519:-0.410709 520:-0.441882 521:-0.479549 522:-0.432463 523:-0.381042 524:-0.328544 525:-0.291152 526:-0.269798 527:-0.24403 528:-0.220365 529:-0.19385 530:-0.160834 531:-0.122897 532:-0.0938931 533:-0.0651836 534:-0.0318962 535:0.0130836 536:0.0426689 537:0.0683398 538:0.108234 539:0.123432 540:0.119774 541:0.071397 542:0.0252728 543:0.00581075 544:-0.0109716 545:-0.0174764 546:0.00255114 547:0.0745598 548:0.140312 549:0.216396 550:0.229721 551:0.259558 552:0.298665 553:0.313034 554:0.325584 555:0.329034 556:0.345401 557:0.354378 558:0.383884 559:0.387376 560:0.408511 561:0.43796 562:0.45634 563:0.461369 564:0.480792 565:0.506048 566:0.455954 567:0.415939 568:0.38544 569:0.353221 570:0.331438 571:0.297128 572:0.26025 573:0.218565 574:0.186725 575:0.137958 576:0.103987 577:0.0642625 578:0.0289203 579:-0.0117976 580:-0.0498793 581:-0.0488254 582:-0.033399 583:-0.0123454 584:-0.000831144 585:0.00988477 586:0.0394399 587:0.0267131 588:0.0164754 589:-0.0423074 590:-0.12872 591:-0.15974 592:-0.179901 593:-0.220245 594:-0.251034 595:-0.27185 596:-0.27677 597:-0.287261 598:-0.297467 599:-0.321469 600:-0.390866 601:-0.420161 602:-0.454773 603:-0.462236 604:-0.503028 605:-0.447503 606:-0.394567 607:-0.340982 608:-0.298751 609:-0.275552 610:-0.247606 611:-0.222505 612:-0.19947 613:-0.167851 614:-0.135158 615:-0.0994298 616:-0.0799308 617:-0.03941 618:-0.00848303 619:0.465308 620:0.256426 621:0.0958095 622:0.123547 623:0.116007 624:0.0929987 625:0.0420114 626:0.0248856 627:0.00165784 628:-0.0100445 629:-0.0143465 630:0.056227 631:0.125832 632:0.201741 633:0.224843 634:0.246878 635:0.278917 636:0.301911 637:0.325597 638:0.330728 639:0.344401 640:0.347428 641:0.368315 642:0.412898 643:0.446951 644:0.441538 645:0.45019 646:0.486855 647:0.486406 648:0.491747 649:0.46596 650:0.420998 651:0.383848 652:0.352882 653:0.330906 654:0.297925 655:0.569959 656:0.646449 657:0.19052 658:0.156687 659:0.111317 660:0.0714259 661:0.0415446 662:-0.0145035 663:-0.0583898 664:-0.0522398 665:-0.0620436 666:-0.0048397 667:0.0250396 668:-0.0135783 669:0.0408173 670:0.0344964 671:0.0239585 672:-0.0222749 673:-0.108105 674:-0.160396 675:-0.173105 676:-0.219292 677:-0.26157 678:-0.494099 679:0.251292 680:0.2951 681:-0.296057 682:-0.239571 683:-0.0904486 684:0.0527401 685:-0.445319 686:-0.383914 687:-0.393227 688:-0.365167 689:-0.328181 690:-0.306021 691:-0.285795 692:-0.261774 693:-0.246276 694:-0.498939 695:-0.214911 696:-0.185312 697:-0.15664 698:0.320672 699:-0.11628 700:-0.0503282 701:-0.0255569 702:0.0215826 703:0.0544653 704:0.267479 705:0.12927 706:0.131617 707:0.111382 708:0.0577503 709:0.0321222 710:0.0200369 711:0.000967477 712:0.0020489 713:0.0467999 714:0.128124 715:0.203812 716:0.242185 717:0.116222 718:0.28241 719:0.31641 720:0.337373 721:0.358092 722:0.421021 723:0.266416 724:0.385206 725:-0.15313 726:0.282008 727:0.430908 728:0.602179 729:0.303915 730:0.122422 731:0.158835 732:0.139649 733:0.124921 734:-0.237558 735:0.102843 736:0.0898073 737:0.0784045 738:0.0692381 739:0.0556869 740:0.0402291 741:0.0175642 742:-0.00993675 743:-0.029428 744:-0.0106566 745:0.150245 746:-0.0112467 747:0.0047456 748:0.00490437 749:0.0747381 750:0.193274 751:0.249844 752:0.222135 753:0.178068 754:0.149206 755:0.101907 756:-0.250261 757:0.0140341 758:-0.355856 759:-0.0131868 760:0.00679628 761:-0.000177377 762:-0.0583502 763:0.00300165 764:0.476453 765:0.018045 766:0.0698014 767:0.170655 768:0.228804 769:0.434447 770:0.00494443 771:-0.0193936 772:0.33273 773:0.490041 774:0.640875 775:0.0289936 776:-0.0054685 777:0.00710208 778:0.0196124 779:0.034817 780:0.0401118 781:0.0533883 782:0.066431 783:0.16417 784:0.0977846 785:0.113775 786:0.0380804 787:0.211801 788:-0.377636 789:-0.0491329 790:0.118485 791:0.102554 792:0.0627524 793:0.0615296 794:0.0445608 795:0.0692415 796:0.0676661 797:0.0459148 798:0.110587 799:0.107018 800:0.452921 801:0.0743255 802:0.0733624 803:0.079014 804:0.0814804 805:0.0765248 806:0.0992256 807:0.132174 808:0.10648 809:0.159853 810:0.097401 811:0.134759 812:0.148473 813:-0.0483116 814:-0.416149 815:-0.180502 816:0.483561 817:0.419287 818:-0.0438759 819:0.461916 820:-0.380654 821:0.219942 822:0.0535679 823:0.0386548 824:0.0236833 825:0.0100816 826:-0.0205906 827:-0.0425399 828:0.142593 829:-0.0706416 830:-0.045449 831:-0.0116459 832:0.485167 833:0.0174836 834:0.582438 835:0.59309 836:0.201641 837:0.225052 838:0.16639 839:-0.0745039 840:0.0140994 841:0.023141 842:0.033647 843:-0.143758 844:0.159772 845:0.00465889 846:0.00321755 847:-0.000390911 848:-0.000420553 849:-0.200718 850:-0.0603213 851:0.24509 852:0.256148 853:-0.097066 854:-0.117548 855:-0.0938769 856:-0.0616313 857:-0.0345311 858:-0.0208425 859:-0.0128266 860:0.0040297 861:0.0156163 862:0.0282315 863:0.0196343 864:0.0508164 865:0.0682811 866:0.0779017 867:0.0948931 868:0.108084 869:0.116966 870:0.599184 871:0.165003 872:0.127209 873:0.137541 874:0.0235428 875:-0.29478 876:0.135657 877:0.116657 878:0.066067 879:0.0607342 880:0.0539851 881:0.0595364 882:0.475408 883:0.164066 884:0.0584033 885:0.0679935 886:0.0757818 887:0.0818381 888:0.0813705 889:0.0924791 890:0.150637 891:0.360854 892:0.632526 893:0.278616 894:0.156498 895:0.268839 896:0.165247 897:0.199744 898:0.146713 899:0.126338 900:0.111871 901:0.101716 902:0.08641 903:0.0758693 904:0.0643281 905:0.0592125 906:0.0368437 907:0.0117484 908:-0.013099 909:-0.0383595 910:-0.0567062 911:-0.0610744 912:-0.131073 913:-0.100294 914:-0.10612 915:-0.0775637 916:-0.0607262 917:-0.483147 918:0.435149 919:0.297522 920:-0.0573992 921:0.014759 922:0.0968761 923:0.200805 924:0.284606 925:0.40639 926:0.482307 927:0.386412 928:0.330167 929:0.29193 930:0.198687 931:0.0235762 932:0.00376013 933:-0.0281888 934:-0.0691504 935:-0.140024 936:-0.130145 937:-0.108112 938:-0.109399 939:-0.0385758 940:-0.0123278 941:0.023182 942:0.133283 943:0.144634 944:-0.101886 945:0.0435942 946:0.0474772 947:0.0486393 948:0.0534372 949:0.0557867 950:-0.00362265 951:-0.442498 952:-0.739018 953:-0.217585 954:0.397495 955:0.403945 956:0.416905 957:0.363198 958:0.352878 959:0.354338 960:0.31494 961:0.253828 962:0.270762 963:0.317668 964:0.34803 965:0.452471 966:0.390017 967:0.321781 968:0.357496 969:0.435738 970:0.471631 971:0.450912 972:0.420447 973:0.4235 974:0.38148 975:0.451119 976:0.489289 977:0.397039 978:0.328917 979:0.372349 980:0.443382 981:0.433313 982:0.439612 983:0.529597 984:0.509661 985:0.393927 986:0.363126 987:0.376688 988:0.437785 989:0.44814 990:0.477745 991:0.48855 992:0.436998 993:0.427431 994:0.469979 995:0.459395 996:0.417111 997:0.342663 998:0.358716 999:0.410673 1000:0.390821 
2032.79027835661 0 5852.438205709814 380.9533928556375 8.753336028989818 5523.079717063095 0 0 0 4041.89666352074 1:0.202477 2:0.255907 3:0.338024 4:0.262431 5:0.212364 6:0.277135 7:0.246242 8:0.240147 9:0.28528 10:0.381996 11:0.339034 12:0.300994 13:0.340868 14:0.369689 15:0.310652 16:0.270423 17:0.263617 18:0.277386 19:0.310713 20:0.256702 21:0.29736 22:0.380952 23:0.37137 24:0.313013 25:0.367814 26:0.354267 27:0.351953 28:0.339323 29:0.35567 30:0.380067 31:0.319748 32:0.31793 33:0.445356 34:0.400449 35:0.290088 36:0.286963 37:0.365051 38:0.357222 39:0.347377 40:0.360965 41:0.37356 42:0.34379 43:0.343357 44:0.309125 45:0.266142 46:0.279645 47:0.309692 48:0.329803 49:0.341432 50:0.202304 51:0.242479 52:0.241778 53:0.31213 54:0.310273 55:0.305587 56:0.284132 57:0.343665 58:0.388856 59:0.340225 60:0.293341 61:0.320374 62:0.328482 63:0.324924 64:0.288183 65:0.428322 66:0.446836 67:0.315753 68:0.255509 69:0.246386 70:0.253306 71:0.211738 72:0.201757 73:0.198011 74:0.214175 75:0.247401 76:0.245819 77:0.313452 78:0.265611 79:0.125334 80:0.0951508 81:0.178688 82:0.198753 83:0.186207 84:0.206497 85:0.206627 86:0.316424 87:0.277162 88:0.236121 89:0.305932 90:0.265412 91:0.237832 92:0.284359 93:0.361727 94:0.359042 95:0.298841 96:0.322014 97:0.37109 98:0.344065 99:0.312893 100:0.23183 101:0.26165 102:0.345534 103:0.252745 104:0.276091 105:0.346467 106:0.386304 107:0.278339 108:0.361564 109:0.391121 110:0.360374 111:0.359706 112:0.34222 113:0.393471 114:0.386518 115:0.347234 116:0.431577 117:0.405502 118:0.357382 119:0.279699 120:0.352832 121:0.396325 122:0.359387 123:0.348746 124:0.381771 125:0.355357 126:0.337127 127:0.347975 128:0.268505 129:0.268826 130:0.337157 131:0.294184 132:0.330344 133:0.259085 134:0.244758 135:0.237372 136:0.282945 137:0.333276 138:0.320253 139:0.288626 140:0.320428 141:0.066934 142:0.36582 143:0.319278 144:0.297868 145:0.365073 146:0.296021 147:0.265906 148:0.326059 149:0.284023 150:0.162761 151:0.119891 152:0.154086 153:0.163548 154:0.125977 155:0.123646 156:0.0618399 157:0.0595786 158:0.142297 159:0.106997 160:0.251793 161:0.242637 162:0.183176 163:0.0647569 164:0.474347 165:0.582 166:0.673842 167:0.606042 168:0.568884 169:0.745231 170:0.804575 171:0.812701 172:0.825456 173:0.842374 174:0.796811 175:0.784284 176:0.874869 177:0.876145 178:0.79247 179:0.821981 180:0.784466 181:0.757295 182:0.697525 183:0.644462 184:0.538152 185:0.547736 186:0.533225 187:0.58595 188:0.372769 189:0.29839 190:0.380041 191:0.0234208 192:0.0295331 193:0.104657 194:0.075402 195:0.172128 196:0.296039 197:0.165487 198:-0.125818 199:-0.364927 200:0.214557 201:0.044386 202:0.00591936 203:-0.11346 204:-0.0685024 205:-0.0442118 206:-0.0239348 207:-0.193945 208:0.269254 209:0.171891 210:0.339491 211:0.240474 212:0.457071 213:0.243335 214:0.213986 215:0.0918537 216:-0.0072687 217:-0.0811972 218:0.0364518 219:0.158993 220:0.148684 221:0.0727191 222:0.00805061 223:-0.067616 224:0.0128512 225:0.0114654 226:0.0244191 227:0.022442 228:0.0560891 229:0.0648968 230:-0.130984 231:-0.231925 232:-0.306089 233:-0.360923 234:-0.272494 235:-0.150739 236:0.0603139 237:0.0928858 238:0.0872088 239:0.088512 240:0.0928422 241:0.104578 242:0.0866687 243:0.0987635 244:0.071332 245:0.0477742 246:0.0168978 247:-0.00644206 248:-0.00508244 249:-0.00021008 250:0.0479916 251:0.0873545 252:0.107129 253:0.138467 254:0.178954 255:0.194922 256:0.136086 257:0.086461 258:0.0969399 259:0.169079 260:0.080856 261:0.0730024 262:0.0633973 263:0.0745564 264:0.0781488 265:0.076269 266:0.0319077 267:0.040765 268:-0.0208367 269:-0.0479313 270:-0.0778372 271:0.00379375 272:0.0103727 273:-0.00730801 274:0.00975757 275:0.038642 276:0.0444589 277:0.044438 278:0.053774 279:0.0670004 280:0.0621564 281:0.0620388 282:0.069853 283:0.0800387 284:0.0908167 285:0.114686 286:0.124513 287:0.136686 288:0.141386 289:0.13589 290:0.0751601 291:0.0127045 292:-0.0496668 293:-0.0845395 294:-0.115712 295:-0.1416 296:-0.146116 297:-0.0650151 298:-0.00398636 299:0.00272072 300:-0.00808 301:0.00146585 302:0.00567827 303:0.0168258 304:0.0179483 305:0.0140451 306:0.0356593 307:-0.0767458 308:-0.333931 309:-0.345623 310:-0.0528781 311:-0.115531 312:0.0535209 313:0.0698396 314:0.0577991 315:0.0707714 316:0.0904133 317:0.0804978 318:0.0725192 319:0.0555974 320:0.0385297 321:0.0203281 322:0.00758795 323:0.000615789 324:-0.0141401 325:-0.0266266 326:-0.0376132 327:-0.0431319 328:-0.0580274 329:-0.0692703 330:-0.06232 331:-0.0323954 332:-0.00689227 333:0.0553869 334:0.0923069 335:0.119099 336:0.163565 337:0.180028 338:0.20136 339:0.181086 340:0.120957 341:0.0936222 342:0.096811 343:0.080057 344:0.07529 345:0.0658359 346:0.0677995 347:0.0770662 348:0.0623543 349:0.00483016 350:-0.0479915 351:-0.0596651 352:-0.0607266 353:-0.0803191 354:-0.0661961 355:-0.0313451 356:-0.00726051 357:-0.00917149 358:0.00541774 359:0.0169232 360:0.0279926 361:0.0368611 362:0.0521289 363:0.0723001 364:0.0793329 365:0.0916585 366:0.0989736 367:0.103013 368:0.110976 369:0.117064 370:0.134903 371:0.140772 372:0.129114 373:0.10239 374:0.0476619 375:-0.0134611 376:-0.0714561 377:-0.102763 378:-0.145576 379:-0.175038 380:-0.115676 381:-0.0755798 382:-0.013093 383:-0.00107367 384:-0.00433902 385:0.00583475 386:0.010006 387:0.0166538 388:0.0121699 389:0.0139637 390:0.0450904 391:0.0904132 392:0.100227 393:0.106081 394:0.129831 395:0.159641 396:0.141892 397:0.126133 398:0.119359 399:0.113326 400:0.0816125 401:0.063855 402:0.0488462 403:0.0360325 404:0.0172006 405:0.00301553 406:-0.00880379 407:-0.0117878 408:-0.0298376 409:-0.0395926 410:-0.0436719 411:-0.055326 412:-0.0795286 413:-0.072067 414:-0.0503068 415:-0.0035767 416:0.06317 417:0.089414 418:0.126774 419:0.155077 420:0.187289 421:0.196858 422:0.20584 423:0.144004 424:0.0946479 425:0.101888 426:0.0852222 427:0.0780522 428:0.0680219 429:0.0661834 430:0.0752647 431:0.082206 432:0.0447264 433:-0.00787418 434:0.028375 435:0.0534148 436:0.0169029 437:-0.0164789 438:-0.038756 439:-0.00802094 440:0.00229881 441:0.00609321 442:0.0213995 443:0.0329076 444:0.0401083 445:0.0522967 446:0.0730484 447:0.0808689 448:0.0926775 449:0.0947082 450:0.107262 451:0.108718 452:0.117292 453:0.138964 454:0.139566 455:0.138711 456:0.107999 457:0.0810413 458:0.0134774 459:-0.0427685 460:-0.089578 461:-0.128291 462:-0.159953 463:-0.135066 464:-0.0900988 465:-0.038158 466:0.000712263 467:-0.00893607 468:0.00303493 469:0.00579742 470:0.0157167 471:0.0141077 472:0.0128492 473:0.00977366 474:0.0445999 475:0.071613 476:0.0688978 477:0.0814799 478:0.115038 479:0.0984533 480:0.0814129 481:0.0603616 482:0.0941337 483:0.0817356 484:0.0662429 485:0.0571769 486:0.0479201 487:0.0283485 488:0.0108156 489:0.000819001 490:-0.0127511 491:-0.021519 492:-0.0315887 493:-0.0387866 494:-0.044031 495:-0.0773473 496:-0.07828 497:-0.0561117 498:-0.0244581 499:0.0267523 500:0.0878135 501:0.121465 502:0.144493 503:0.180002 504:0.187058 505:0.210679 506:0.156491 507:0.0950531 508:0.095344 509:0.0934537 510:0.0791163 511:0.0717831 512:0.0635636 513:0.0692997 514:0.0770504 515:0.0815749 516:0.0610465 517:0.0479298 518:0.0512484 519:0.038041 520:-0.00475317 521:-0.0304717 522:-0.00545916 523:0.0103572 524:0.010182 525:0.030113 526:0.041432 527:0.0466534 528:0.0539597 529:0.0704763 530:0.0848882 531:0.0938706 532:0.100678 533:0.110158 534:0.113022 535:0.121718 536:0.128157 537:0.133395 538:0.138892 539:0.119656 540:0.0943464 541:0.0345318 542:-0.0291704 543:-0.0836606 544:-0.117869 545:-0.153857 546:-0.156618 547:-0.0957904 548:-0.054299 549:0.00236945 550:-0.00658663 551:0.00239739 552:0.0041011 553:0.0102607 554:0.0149117 555:0.0137268 556:0.0124494 557:0.0106517 558:0.0333694 559:0.0267824 560:0.0275963 561:0.0454049 562:0.0553465 563:0.0347882 564:0.035603 565:0.0820412 566:0.081556 567:0.0584346 568:0.0482103 569:0.0421182 570:0.0305553 571:0.013582 572:0.00141523 573:-0.011893 574:-0.0184187 575:-0.0355528 576:-0.0348934 577:-0.0413336 578:-0.0601516 579:-0.0781456 580:-0.0684192 581:-0.0347554 582:0.00258329 583:0.0356078 584:0.0686601 585:0.113068 586:0.170024 587:0.181022 588:0.201762 589:0.168924 590:0.107105 591:0.0936631 592:0.101086 593:0.0818413 594:0.0771957 595:0.0644673 596:0.0720778 597:0.0772298 598:0.0850141 599:0.0741403 600:0.0232563 601:0.0196963 602:0.00994966 603:-0.00935624 604:-0.0411569 605:-0.0151067 606:0.00938086 607:0.0118322 608:0.0248373 609:0.0371899 610:0.0463865 611:0.054628 612:0.0682514 613:0.0824232 614:0.0921311 615:0.10522 616:0.103554 617:0.112489 618:0.112425 619:0.517146 620:0.314187 621:0.140894 622:0.126763 623:0.096483 624:0.0600939 625:-0.00515283 626:-0.0549429 627:-0.0971637 628:-0.139232 629:-0.165284 630:-0.108017 631:-0.0639358 632:-0.00851133 633:-0.00345862 634:-0.00526261 635:0.0056597 636:0.00902654 637:0.0156439 638:0.0139368 639:0.0139187 640:0.007464 641:0.0126861 642:0.0223926 643:0.0282409 644:0.01259 645:0.0304172 646:0.0505118 647:0.0410312 648:0.0585215 649:0.0825355 650:0.0625083 651:0.042679 652:0.0388994 653:0.0294258 654:0.00759773 655:0.415801 656:0.540529 657:-0.0142702 658:-0.0262646 659:-0.0350036 660:-0.0393636 661:-0.048197 662:-0.0790791 663:-0.0732567 664:-0.0457214 665:-0.0288838 666:0.0485082 667:0.0936668 668:0.0932454 669:0.163873 670:0.193665 671:0.210423 672:0.180919 673:0.128896 674:0.0903705 675:0.096551 676:0.0876201 677:0.0840351 678:-0.257012 679:0.456945 680:0.495436 681:0.0801826 682:0.124142 683:0.219147 684:0.326194 685:-0.0247659 686:-0.0142724 687:-0.0446751 688:-0.0133412 689:0.0139647 690:0.022894 691:0.0200004 692:0.0346452 693:0.0461186 694:-0.319986 695:0.058777 696:0.0695622 697:0.0828817 698:0.457571 699:0.0678358 700:0.113579 701:0.114793 702:0.121464 703:0.141303 704:0.323775 705:0.142218 706:0.113019 707:0.086634 708:0.0170885 709:-0.0374819 710:-0.0805635 711:-0.122942 712:-0.150047 713:-0.129416 714:-0.0718088 715:-0.0242246 716:-0.000915477 717:-0.114519 718:0.00662199 719:0.00627447 720:0.0126194 721:0.0123288 722:0.0138934 723:0.00268706 724:0.0597949 725:-0.290404 726:0.245807 727:0.374236 728:0.565365 729:0.24639 730:0.0410917 731:0.0763333 732:0.0821591 733:0.0746973 734:-0.2743 735:0.0556477 736:0.0464492 737:0.032568 738:0.0188552 739:0.00998777 740:-0.00232283 741:-0.0164272 742:-0.0277847 743:-0.0392217 744:-0.014868 745:0.142056 746:-0.0257821 747:0.00140034 748:0.00851495 749:0.0819596 750:0.200424 751:0.272541 752:0.247672 753:0.221115 754:0.196946 755:0.163653 756:-0.197756 757:0.0862458 758:-0.313283 759:0.0569561 760:0.0790816 761:0.0719442 762:0.00858637 763:0.0744083 764:0.516471 765:0.0948171 766:0.144915 767:0.185789 768:0.292044 769:0.475311 770:0.0716942 771:0.0506884 772:0.347555 773:0.50716 774:0.65397 775:0.0691347 776:0.0362714 777:0.0403166 778:0.0509276 779:0.0720531 780:0.0863483 781:0.0929266 782:0.100856 783:0.172553 784:0.102802 785:0.120678 786:0.0500547 787:0.224143 788:-0.377401 789:-0.0511885 790:0.113174 791:0.100798 792:0.0510368 793:0.0282819 794:0.00783164 795:0.0129249 796:-0.00573792 797:-0.0229209 798:0.0348425 799:0.0333509 800:0.409841 801:0.00710836 802:-0.013735 803:0.0632095 804:0.0661432 805:0.0624598 806:0.0681945 807:0.115446 808:0.0965348 809:0.156685 810:0.0914263 811:0.125431 812:0.149934 813:-0.0567353 814:-0.425272 815:-0.187619 816:0.481434 817:0.412767 818:-0.0526425 819:0.456786 820:-0.386033 821:0.204521 822:0.0275295 823:0.0114761 824:-0.00182638 825:-0.0155079 826:-0.0404173 827:-0.0528108 828:0.129138 829:-0.104089 830:-0.0768431 831:-0.0372156 832:0.473323 833:-0.0070497 834:0.57603 835:0.587334 836:0.194723 837:0.221392 838:0.168933 839:-0.0706174 840:0.0261032 841:0.0277867 842:0.0422245 843:-0.138616 844:0.173947 845:0.0218815 846:0.019189 847:0.0161276 848:0.0173505 849:-0.192019 850:-0.0578463 851:0.247453 852:0.261746 853:-0.0920862 854:-0.115506 855:-0.0828074 856:-0.0453471 857:-0.0295802 858:-0.0143235 859:0.00392428 860:0.0172079 861:0.0249515 862:0.0400379 863:0.0375555 864:0.0735789 865:0.0917812 866:0.100351 867:0.114801 868:0.127403 869:0.131049 870:0.608201 871:0.195854 872:0.151871 873:0.160729 874:0.0445987 875:-0.276994 876:0.153628 877:0.133742 878:0.0699969 879:0.0630415 880:0.0505022 881:0.0515204 882:0.471723 883:0.160552 884:0.0477908 885:0.056919 886:0.0600846 887:0.0650793 888:0.0665961 889:0.0760541 890:0.141963 891:0.354011 892:0.628585 893:0.27594 894:0.143822 895:0.267698 896:0.155431 897:0.181452 898:0.132174 899:0.124739 900:0.103752 901:0.0858548 902:0.0758854 903:0.0685576 904:0.0477994 905:0.0309231 906:0.0100463 907:-0.0130672 908:-0.0442214 909:-0.0615947 910:-0.0739701 911:-0.0795661 912:-0.158292 913:-0.136122 914:-0.136703 915:-0.10223 916:-0.0744295 917:-0.493756 918:0.428185 919:0.286399 920:-0.0551038 921:0.0239308 922:0.103696 923:0.220923 924:0.29329 925:0.418741 926:0.506099 927:0.420605 928:0.369261 929:0.330536 930:0.235825 931:0.0616376 932:0.0253417 933:-0.0203046 934:-0.0665258 935:-0.136204 936:-0.121736 937:-0.111256 938:-0.0953854 939:-0.0139055 940:0.00145033 941:0.031026 942:0.16064 943:0.185966 944:-0.0714027 945:0.0745081 946:0.0905242 947:0.094181 948:0.0952307 949:0.0980291 950:0.0333234 951:-0.43235 952:-0.710624 953:-0.179896 954:0.586124 955:0.521996 956:0.542562 957:0.502538 958:0.530359 959:0.525016 960:0.40708 961:0.337392 962:0.30884 963:0.280421 964:0.314475 965:0.362701 966:0.346176 967:0.236929 968:0.281841 969:0.279759 970:0.318597 971:0.325035 972:0.277686 973:0.284869 974:0.327687 975:0.373924 976:0.379447 977:0.273794 978:0.265926 979:0.352807 980:0.324924 981:0.269946 982:0.366888 983:0.468733 984:0.363959 985:0.260055 986:0.288236 987:0.248686 988:0.219826 989:0.201948 990:0.210483 991:0.181846 992:0.157082 993:0.215081 994:0.334672 995:0.2728 996:0.12576 997:0.102284 998:0.142416 999:0.198628 1000:0.146532 
