svm_type c_svc
kernel_type rbf
gamma 0.000488281
nr_class 11
total_sv 301
rho -10.476 -3.13882 12.9233 4.63153 -8.70198 4.03087 6.28634 0.865379 -2.05064 -41.8331 -1.07276 -1.03277 4.61743 -5.65366 9.5215 -0.256013 2.17463 2.40794 -41.0798 2.94213 1.96255 -4.79517 1.39176 0.702254 2.83427 1.19815 -20.804 4.5974 -8.10073 11.1189 -2.66472 -1.50874 5.21477 -50.7904 -4.48625 -1.29165 -2.56694 -1.86753 2.0736 -21.157 5.56912 6.83165 6.24498 4.65585 -15.1206 2.80557 -0.447417 -4.27787 -66.2539 4.35944 -0.0848186 -27.4128 0.647145 -32.4 -25.623
label 7 10 9 8 6 3 4 5 2 1 0
nr_sv 34 36 23 35 22 21 36 22 21 21 30
SV
1075.982919667099 0 0 0 0 0 0 0 0 1256.236597753194 1:0.305963 2:0.373534 3:0.346985 4:0.255645 5:0.26138 6:0.297823 7:0.331551 8:0.247011 9:0.236927 10:0.27347 11:0.236735 12:0.200568 13:0.186986 14:0.260622 15:0.253478 16:0.204984 17:0.192516 18:0.232197 19:0.227619 20:0.189039 21:0.151398 22:0.241295 23:0.293187 24:0.263376 25:0.294559 26:0.252485 27:0.283968 28:0.263895 29:0.0139605 30:0.263895 31:0.187045 32:0.187752 33:0.231209 34:0.303996 35:0.217375 36:0.133282 37:0.139817 38:0.163304 39:0.183109 40:0.183498 41:0.108755 42:0.116165 43:0.150724 44:0.172812 45:0.18005 46:0.192976 47:0.194512 48:0.20153 49:0.192343 50:0.146625 51:0.233178 52:0.239914 53:0.307006 54:0.312011 55:0.358287 56:0.296975 57:0.301399 58:0.363244 59:0.342213 60:0.287542 61:0.281665 62:0.359044 63:0.380901 64:0.337219 65:0.352596 66:0.430692 67:0.352912 68:0.286071 69:0.240439 70:0.275492 71:0.282663 72:0.273298 73:0.281111 74:0.289193 75:0.285774 76:0.242629 77:0.312679 78:0.37765 79:0.301217 80:0.196692 81:0.241243 82:0.292176 83:0.437029 84:0.359829 85:0.375713 86:0.334719 87:0.301332 88:0.23301 89:0.321416 90:0.322914 91:0.31066 92:0.254975 93:0.264616 94:0.279719 95:0.21901 96:0.186597 97:0.233691 98:0.217915 99:0.23467 100:0.163501 101:0.153319 102:0.227619 103:0.227619 104:0.127312 105:0.204305 106:0.268218 107:0.269022 108:0.276686 109:0.288366 110:0.305187 111:0.276215 112:0.206996 113:0.253007 114:0.206488 115:0.180426 116:0.224382 117:0.278732 118:0.265908 119:0.160904 120:0.156673 121:0.155136 122:0.167263 123:0.175495 124:0.153508 125:0.11989 126:0.176102 127:0.166005 128:0.196752 129:0.202107 130:0.228808 131:0.215068 132:0.185578 133:0.165193 134:0.208309 135:0.260615 136:0.292219 137:0.3215 138:0.363774 139:0.305156 140:0.296975 141:0.0542551 142:0.375468 143:0.317454 144:0.320008 145:0.334719 146:0.384445 147:0.335912 148:0.318632 149:0.228064 150:0.180037 151:0.153823 152:0.133409 153:0.162296 154:0.179129 155:0.183015 156:0.132099 157:0.140829 158:0.188505 159:0.116068 160:0.22348 161:0.319217 162:0.334709 163:0.177123 164:0.530484 165:0.633012 166:0.749979 167:0.657905 168:0.607779 169:0.76173 170:0.813585 171:0.816794 172:0.833122 173:0.849991 174:0.817931 175:0.785689 176:0.869611 177:0.867357 178:0.777521 179:0.809201 180:0.760255 181:0.736399 182:0.677638 183:0.623529 184:0.516078 185:0.536117 186:0.522524 187:0.566584 188:0.336898 189:0.273856 190:0.37528 191:0.0212067 192:0.0236001 193:0.0983295 194:0.0696843 195:0.158893 196:0.287969 197:0.146434 198:-0.155818 199:-0.542155 200:0.106312 201:-0.115593 202:-0.123178 203:-0.241641 204:-0.175387 205:-0.2747 206:-0.115234 207:-0.182113 208:0.226564 209:0.0463951 210:0.314021 211:0.252134 212:0.481123 213:0.242893 214:0.102997 215:0.16289 216:0.0750911 217:0.0434132 218:0.133041 219:0.233984 220:0.239967 221:0.185247 222:0.136502 223:0.074684 224:0.168515 225:0.208816 226:0.237169 227:0.237816 228:0.251234 229:0.263795 230:-0.0339046 231:-0.134478 232:-0.21374 233:-0.25051 234:-0.138508 235:0.00212577 236:0.25131 237:0.289237 238:0.273536 239:0.261947 240:0.251431 241:0.242509 242:0.196738 243:0.176206 244:0.145336 245:0.119851 246:0.0853458 247:0.049469 248:0.0415262 249:0.0410285 250:0.0769736 251:0.0921612 252:0.0959035 253:0.0889038 254:0.11014 255:0.120041 256:0.0483952 257:-0.00505398 258:-0.00462762 259:0.0681805 260:-0.0354405 261:-0.0473404 262:-0.0605649 263:-0.0650383 264:-0.0716404 265:-0.0855909 266:-0.13894 267:-0.167517 268:-0.244898 269:-0.276458 270:-0.290965 271:-0.200272 272:-0.198532 273:-0.225717 274:-0.183321 275:-0.155966 276:-0.138143 277:-0.124489 278:-0.119305 279:-0.112468 280:-0.0889818 281:-0.07019 282:-0.0462116 283:-0.020003 284:0.00815089 285:0.0434631 286:0.0546228 287:0.0651966 288:0.0772353 289:0.0786059 290:0.0254377 291:-0.0316668 292:-0.0803565 293:-0.0960412 294:-0.0994462 295:-0.0948314 296:-0.0853499 297:-0.00566133 298:0.069121 299:0.0789518 300:0.0788964 301:0.0943026 302:0.107071 303:0.120119 304:0.129317 305:0.141042 306:0.167724 307:0.0211529 308:-0.218745 309:-0.223274 310:0.133582 311:0.0607513 312:0.252868 313:0.268105 314:0.252812 315:0.253066 316:0.260911 317:0.250303 318:0.242397 319:0.22624 320:0.210672 321:0.189837 322:0.160476 323:0.136726 324:0.107239 325:0.0751315 326:0.0446141 327:0.0267061 328:0.00758984 329:-0.00258316 330:-0.00465715 331:0.015071 332:0.0357446 333:0.0917343 334:0.113741 335:0.117423 336:0.124352 337:0.117442 338:0.12906 339:0.106623 340:0.0352946 341:7.47035e-05 342:-0.00843213 343:-0.0301226 344:-0.040726 345:-0.0545994 346:-0.0654088 347:-0.0721616 348:-0.0953564 349:-0.154362 350:-0.224583 351:-0.291675 352:-0.290969 353:-0.295569 354:-0.291105 355:-0.245863 356:-0.20234 357:-0.174028 358:-0.153582 359:-0.143 360:-0.125182 361:-0.123061 362:-0.0939297 363:-0.0837925 364:-0.0610824 365:-0.0326538 366:-0.00851395 367:0.0144393 368:0.0404863 369:0.0542698 370:0.0689427 371:0.0778947 372:0.0727805 373:0.0531164 374:0.0045549 375:-0.0479008 376:-0.0876754 377:-0.098765 378:-0.105048 379:-0.115083 380:-0.0550228 381:-0.00303623 382:0.0667513 383:0.0874593 384:0.0918748 385:0.108859 386:0.115893 387:0.12787 388:0.135286 389:0.146897 390:0.176977 391:0.231943 392:0.278035 393:0.296629 394:0.321632 395:0.3374 396:0.3278 397:0.308518 398:0.29767 399:0.27307 400:0.230962 401:0.207659 402:0.187733 403:0.185762 404:0.175291 405:0.158964 406:0.136424 407:0.120374 408:0.0871142 409:0.0527021 410:0.032973 411:0.0195152 412:-0.00922891 413:-0.00791371 414:0.00513209 415:0.0455675 416:0.105245 417:0.118437 418:0.134982 419:0.136259 420:0.135106 421:0.126308 422:0.137353 423:0.062415 424:0.00377151 425:-0.00261579 426:-0.023332 427:-0.039699 428:-0.0505038 429:-0.0624086 430:-0.0716236 431:-0.0748666 432:-0.114394 433:-0.17888 434:-0.197842 435:-0.187204 436:-0.224824 437:-0.248852 438:-0.265347 439:-0.211035 440:-0.174047 441:-0.150976 442:-0.134741 443:-0.123659 444:-0.116936 445:-0.108748 446:-0.0900364 447:-0.0636161 448:-0.0387288 449:-0.0225021 450:0.00520873 451:0.0276573 452:0.0499365 453:0.0714388 454:0.0742047 455:0.0827545 456:0.0597339 457:0.0386093 458:-0.0248368 459:-0.0663808 460:-0.093896 461:-0.0970126 462:-0.106693 463:-0.0735497 464:-0.0259469 465:0.0359442 466:0.0824071 467:0.0827516 468:0.0983847 469:0.106784 470:0.117586 471:0.125169 472:0.138287 473:0.143931 474:0.178921 475:0.242132 476:0.261665 477:0.279706 478:0.306583 479:0.298153 480:0.284071 481:0.265629 482:0.276641 483:0.253758 484:0.238039 485:0.226104 486:0.223026 487:0.204465 488:0.180489 489:0.152688 490:0.124556 491:0.10024 492:0.064001 493:0.0342904 494:0.0208874 495:-0.00888324 496:-0.0131999 497:-0.0105998 498:0.0153298 499:0.0635783 500:0.118577 501:0.130908 502:0.134022 503:0.12928 504:0.11698 505:0.135106 506:0.0739564 507:0.00373116 508:-0.00207629 509:-0.0144429 510:-0.0361717 511:-0.0474484 512:-0.0598307 513:-0.0688661 514:-0.0728985 515:-0.0792026 516:-0.112242 517:-0.175329 518:-0.187777 519:-0.209386 520:-0.233513 521:-0.26454 522:-0.213837 523:-0.175753 524:-0.148442 525:-0.12751 526:-0.116758 527:-0.1084 528:-0.104213 529:-0.0969611 530:-0.0684971 531:-0.0422493 532:-0.0214436 533:-0.000146132 534:0.0231281 535:0.0522098 536:0.0638483 537:0.0702507 538:0.0803205 539:0.068794 540:0.0515259 541:-0.00458863 542:-0.0574541 543:-0.0921546 544:-0.104706 545:-0.105475 546:-0.0936657 547:-0.0354076 548:0.0180028 549:0.0809238 550:0.0822842 551:0.0934221 552:0.104848 553:0.113627 554:0.123714 555:0.135128 556:0.14425 557:0.146866 558:0.197675 559:0.220188 560:0.229628 561:0.251908 562:0.258004 563:0.243385 564:0.243416 565:0.274633 566:0.251725 567:0.228704 568:0.220627 569:0.211095 570:0.204446 571:0.184531 572:0.16151 573:0.130143 574:0.107836 575:0.0693128 576:0.0450047 577:0.0244494 578:0.00839745 579:-0.0126577 580:-0.0151322 581:0.0110595 582:0.0398726 583:0.0704916 584:0.0908622 585:0.113646 586:0.134389 587:0.11914 588:0.127568 589:0.0870513 590:0.0157827 591:0.00334013 592:-0.00346886 593:-0.0272005 594:-0.0396953 595:-0.0538917 596:-0.060902 597:-0.073176 598:-0.0720108 599:-0.0927136 600:-0.163275 601:-0.228286 602:-0.245186 603:-0.239223 604:-0.264741 605:-0.232755 606:-0.18517 607:-0.153837 608:-0.130567 609:-0.118967 610:-0.107188 611:-0.101868 612:-0.0830661 613:-0.0699005 614:-0.0461147 615:-0.0217387 616:-0.0107739 617:0.0170545 618:0.0388556 619:0.481027 620:0.0651511 621:0.0747399 622:0.070416 623:0.048031 624:0.0180264 625:-0.0409247 626:-0.0737557 627:-0.0973258 628:-0.100345 629:-0.10347 630:-0.0468381 631:0.00641354 632:0.070195 633:0.0800716 634:0.0884551 635:0.10415 636:0.109924 637:0.119621 638:0.127207 639:0.139258 640:0.140053 641:0.159174 642:0.193478 643:0.248182 644:0.24227 645:0.232613 646:0.265553 647:0.251362 648:0.258039 649:0.255631 650:0.232829 651:0.212728 652:0.20482 653:0.201668 654:0.181345 655:0.510014 656:0.606785 657:0.113488 658:0.0851058 659:0.0529396 660:0.0272072 661:0.0138231 662:-0.0138376 663:-0.00853134 664:0.00909904 665:0.0154504 666:0.0865994 667:0.120352 668:0.0971961 669:0.150528 670:0.1384 671:0.134901 672:0.106636 673:0.0395912 674:-0.00399685 675:-0.00613887 676:-0.0184062 677:-0.0332779 678:-0.050262 679:0.382917 680:0.413451 681:-0.0740755 682:-0.0539024 683:0.0505211 684:0.169072 685:-0.271609 686:-0.256462 687:-0.259466 688:-0.239583 689:-0.18719 690:-0.153426 691:-0.134286 692:-0.115615 693:-0.104576 694:-0.416321 695:-0.0943396 696:-0.100837 697:-0.0637005 698:0.375321 699:-0.0256119 700:0.0051999 701:0.0296252 702:0.0497657 703:0.0709921 704:0.270619 705:0.0849347 706:0.0645862 707:0.0469808 708:-0.0159317 709:-0.0593687 710:-0.0842526 711:-0.0980226 712:-0.0953059 713:-0.0602128 714:-0.00726196 715:0.0493849 716:0.0782483 717:-0.0354654 718:0.0949676 719:0.103923 720:0.114226 721:0.127456 722:0.142936 723:0.0991746 724:0.199686 725:-0.16242 726:0.406855 727:0.514348 728:0.660668 729:0.39898 730:0.254167 731:0.280299 732:0.257663 733:0.235118 734:-0.165156 735:0.214382 736:0.206456 737:0.19091 738:0.171644 739:0.147941 740:0.124212 741:0.0986219 742:0.0690795 743:0.0372592 744:0.0500421 745:0.198378 746:0.0407203 747:0.056675 748:0.0545498 749:0.122015 750:0.232063 751:0.281917 752:0.241674 753:0.174906 754:0.138037 755:0.0917057 756:-0.255901 757:-0.00277961 758:-0.372282 759:-0.0457556 760:-0.0351603 761:-0.0446281 762:-0.105803 763:-0.0638715 764:0.432587 765:-0.0793756 766:-0.0412886 767:0.14395 768:0.107081 769:0.362947 770:-0.139166 771:-0.159058 772:0.307117 773:0.458346 774:0.609004 775:-0.0701175 776:-0.104332 777:-0.0889681 778:-0.0819551 779:-0.0721618 780:-0.0547603 781:-0.0378663 782:-0.0222961 783:0.0883764 784:0.0185603 785:0.0449615 786:-0.0160388 787:0.163817 788:-0.406199 789:-0.0914809 790:0.0692127 791:0.0553864 792:0.0215921 793:0.0237324 794:0.0288975 795:0.0778649 796:0.0772603 797:0.0543776 798:0.11401 799:0.126179 800:0.46942 801:0.105953 802:0.108014 803:0.11972 804:0.129271 805:0.137853 806:0.148693 807:0.193724 808:0.19344 809:0.277767 810:0.259108 811:0.28528 812:0.280061 813:0.0751802 814:-0.344996 815:-0.0828229 816:0.512809 817:0.46168 818:0.00828434 819:0.50978 820:-0.324428 821:0.307333 822:0.152271 823:0.128988 824:0.114307 825:0.0880687 826:0.0445109 827:0.015359 828:0.184145 829:-0.0253785 830:-0.00730284 831:0.020306 832:0.499084 833:0.0643425 834:0.593804 835:0.587242 836:0.167746 837:0.169773 838:0.115389 839:-0.51231 840:0.0338549 841:0.056069 842:0.0198625 843:-0.142443 844:0.170068 845:0.0214682 846:0.0181801 847:0.0175028 848:0.0230758 849:-0.172561 850:-0.0646371 851:0.241266 852:0.257732 853:-0.0988366 854:-0.127411 855:-0.0953168 856:-0.0569016 857:-0.0346462 858:-0.018088 859:-0.00510519 860:0.00960229 861:0.0194269 862:0.0320394 863:0.0340829 864:0.0620706 865:0.0772838 866:0.0884742 867:0.104219 868:0.117284 869:0.123871 870:0.602039 871:0.174572 872:0.133885 873:0.190619 874:0.0268355 875:-0.135999 876:0.128285 877:0.107367 878:0.0578359 879:0.052659 880:0.0431921 881:0.0410583 882:0.464955 883:0.150316 884:0.0410146 885:0.0507705 886:0.0553875 887:0.0595696 888:0.0595859 889:0.0636383 890:0.144561 891:0.353412 892:0.628906 893:0.276465 894:0.147149 895:0.266451 896:0.141623 897:0.187332 898:0.13791 899:0.120309 900:0.101901 901:0.0868801 902:0.0732543 903:0.0687677 904:0.0521815 905:0.037925 906:0.015812 907:-0.00596762 908:-0.0320307 909:-0.0559671 910:-0.0729582 911:-0.0761157 912:-0.147802 913:-0.116665 914:-0.120705 915:-0.0905079 916:-0.0656069 917:-0.0535792 918:0.436473 919:0.300227 920:-0.0570073 921:0.0174293 922:0.100975 923:0.221264 924:0.306408 925:0.424469 926:0.500212 927:0.404341 928:0.349792 929:0.315567 930:0.217366 931:0.0462434 932:0.0104187 933:-0.0318969 934:-0.0774401 935:-0.139103 936:-0.13333 937:-0.116302 938:-0.116515 939:-0.0297813 940:-0.0101039 941:0.0285281 942:0.147056 943:0.158412 944:-0.084991 945:0.0587232 946:0.046497 947:0.068626 948:0.0720809 949:0.0769838 950:0.0112649 951:-0.438112 952:-0.730693 953:-0.207359 954:0.467357 955:0.437827 956:0.441856 957:0.377411 958:0.352159 959:0.33803 960:0.232691 961:0.184283 962:0.217375 963:0.210023 964:0.206009 965:0.263099 966:0.18884 967:0.169007 968:0.243641 969:0.281584 970:0.327367 971:0.323282 972:0.336299 973:0.29783 974:0.300512 975:0.386427 976:0.388695 977:0.260719 978:0.268168 979:0.350936 980:0.384646 981:0.334533 982:0.352269 983:0.394035 984:0.373817 985:0.281151 986:0.254976 987:0.258786 988:0.282663 989:0.268884 990:0.281614 991:0.276966 992:0.254123 993:0.241756 994:0.287639 995:0.348003 996:0.273679 997:0.204559 998:0.244906 999:0.309959 1000:0.304992 
3211.911447773109 0 83.1296540925932 0 0 248.4735642359788 0 90.60331001504028 0 2066.325181897534 1:0.356708 2:0.373534 3:0.346985 4:0.278577 5:0.256828 6:0.316794 7:0.326692 8:0.302639 9:0.259602 10:0.282325 11:0.266835 12:0.223775 13:0.240639 14:0.226456 15:0.240652 16:0.238787 17:0.176299 18:0.173089 19:0.235533 20:0.231576 21:0.15528 22:0.208078 23:0.293187 24:0.278098 25:0.242069 26:0.233192 27:0.303449 28:0.259716 29:0.387242 30:0.223151 31:0.148651 32:0.187752 33:0.245596 34:0.289987 35:0.235936 36:0.167476 37:0.147646 38:0.15146 39:0.164364 40:0.187135 41:0.160534 42:0.116165 43:0.150724 44:0.172812 45:0.190077 46:0.204116 47:0.247464 48:0.216828 49:0.203203 50:0.119859 51:0.222169 52:0.250908 53:0.293047 54:0.298453 55:0.347486 56:0.296975 57:0.345543 58:0.351601 59:0.346188 60:0.35013 61:0.30614 62:0.330561 63:0.396275 64:0.352894 65:0.348555 66:0.423455 67:0.37229 68:0.286071 69:0.220342 70:0.271326 71:0.302986 72:0.273298 73:0.281111 74:0.276966 75:0.25728 76:0.250992 77:0.291883 78:0.333402 79:0.29726 80:0.200726 81:0.257458 82:0.280359 83:0.345782 84:0.37165 85:0.371842 86:0.383576 87:0.318787 88:0.219039 89:0.269366 90:0.308393 91:0.320034 92:0.268626 93:0.260075 94:0.283894 95:0.22814 96:0.237509 97:0.198838 98:0.247919 99:0.226219 100:0.163501 101:0.220496 102:0.262439 103:0.227619 104:0.146701 105:0.178398 106:0.253221 107:0.28028 108:0.287435 109:0.288366 110:0.297582 111:0.291721 112:0.231951 113:0.156572 114:0.190674 115:0.195078 116:0.227952 117:0.278732 118:0.292125 119:0.206297 120:0.164278 121:0.143287 122:0.17502 123:0.175495 124:0.188687 125:0.11989 126:0.157515 127:0.158808 128:0.167107 129:0.167772 130:0.243012 131:0.20034 132:0.203514 133:0.138283 134:0.185381 135:0.257138 136:0.270333 137:0.307992 138:0.311513 139:0.33446 140:0.318753 141:0.0359352 142:0.367789 143:0.32536 144:0.279828 145:0.290021 146:0.388264 147:0.354864 148:0.322679 149:0.224616 150:0.192514 151:0.147941 152:0.127886 153:0.164939 154:0.160017 155:0.189248 156:0.132099 157:0.137809 158:0.182137 159:0.12699 160:0.20004 161:0.253206 162:0.32331 163:0.224329 164:0.544915 165:0.619132 166:0.713963 167:0.650971 168:0.608787 169:0.763964 170:0.816453 171:0.819029 172:0.822218 173:0.851588 174:0.816136 175:0.790233 176:0.871611 177:0.867871 178:0.782111 179:0.812971 180:0.762578 181:0.73041 182:0.677638 183:0.634224 184:0.517033 185:0.524023 186:0.513161 187:0.570514 188:0.334691 189:0.270421 190:0.372469 191:0.0210502 192:0.0217984 193:0.0983295 194:0.0709622 195:0.160527 196:0.265861 197:0.141333 198:-0.148715 199:-0.540487 200:0.112748 201:-0.145609 202:-0.122989 203:-0.239767 204:-0.192261 205:-0.279742 206:-0.126416 207:-0.186237 208:0.220886 209:0.0360981 210:0.305668 211:0.238021 212:0.475087 213:0.242227 214:0.103784 215:0.157185 216:0.0706773 217:0.0406982 218:0.129077 219:0.232004 220:0.23736 221:0.177382 222:0.132714 223:0.0706104 224:0.162245 225:0.202283 226:0.231277 227:0.237816 228:0.25502 229:0.265487 230:-0.0326167 231:-0.134918 232:-0.2149 233:-0.251065 234:-0.139145 235:0.00174447 236:0.246839 237:0.288769 238:0.281289 239:0.267905 240:0.252806 241:0.24615 242:0.200233 243:0.18134 244:0.147527 245:0.122444 246:0.0874992 247:0.049469 248:0.0436234 249:0.0385706 250:0.0812532 251:0.1025 252:0.102763 253:0.105224 254:0.119103 255:0.122447 256:0.0523148 257:-0.000126107 258:0.00259553 259:0.0717467 260:-0.0326289 261:-0.0414362 262:-0.0546761 263:-0.0547948 264:-0.0683684 265:-0.0794486 266:-0.133349 267:-0.163555 268:-0.24864 269:-0.275602 270:-0.288352 271:-0.202306 272:-0.202034 273:-0.227135 274:-0.181947 275:-0.154648 276:-0.135608 277:-0.124883 278:-0.120106 279:-0.094171 280:-0.0982054 281:-0.0750083 282:-0.04764 283:-0.0217432 284:0.00473277 285:0.0421052 286:0.0566876 287:0.0638139 288:0.0740505 289:0.0778841 290:0.0244088 291:-0.0296609 292:-0.0843752 293:-0.103586 294:-0.11063 295:-0.103719 296:-0.0889287 297:-0.00284869 298:0.0645394 299:0.0742926 300:0.0750566 301:0.0905392 302:0.103009 303:0.115465 304:0.123717 305:0.131882 306:0.163565 307:0.0173735 308:-0.226709 309:-0.223516 310:0.139447 311:0.0632723 312:0.251165 313:0.271513 314:0.254929 315:0.253931 316:0.260482 317:0.251947 318:0.240336 319:0.222557 320:0.210672 321:0.192293 322:0.167019 323:0.139127 324:0.107622 325:0.076662 326:0.0517301 327:0.0281856 328:0.00873219 329:-0.00218727 330:-0.00426905 331:0.0195158 332:0.0381869 333:0.0925106 334:0.120944 335:0.125689 336:0.141465 337:0.119681 338:0.125621 339:0.103971 340:0.0382635 341:0.00334298 342:-0.00524404 343:-0.0276914 344:-0.0376273 345:-0.0501135 346:-0.0570682 347:-0.065369 348:-0.0883731 349:-0.151 350:-0.216714 351:-0.284168 352:-0.292654 353:-0.298546 354:-0.292434 355:-0.250727 356:-0.200307 357:-0.17253 358:-0.152865 359:-0.141215 360:-0.126253 361:-0.118817 362:-0.107007 363:-0.102959 364:-0.0610824 365:-0.0337043 366:-0.011244 367:0.0120899 368:0.0355322 369:0.0519573 370:0.0699397 371:0.0778947 372:0.0752431 373:0.0517158 374:0.0021822 375:-0.0525972 376:-0.0951989 377:-0.110209 378:-0.119431 379:-0.12184 380:-0.055709 381:-0.0060553 382:0.063112 383:0.0823286 384:0.0896731 385:0.106362 386:0.111849 387:0.123216 388:0.125883 389:0.143036 390:0.171417 391:0.226879 392:0.276305 393:0.292028 394:0.320191 395:0.338143 396:0.329332 397:0.312056 398:0.300888 399:0.275101 400:0.236976 401:0.208864 402:0.187733 403:0.180203 404:0.1713 405:0.16015 406:0.13918 407:0.121147 408:0.0889906 409:0.0589644 410:0.0358807 411:0.0180466 412:-0.00616561 413:-0.00518208 414:0.0059311 415:0.0491038 416:0.107121 417:0.122829 418:0.142631 419:0.14795 420:0.14028 421:0.129282 422:0.136207 423:0.0683719 424:0.00894549 425:0.00345723 426:-0.0187872 427:-0.0362461 428:-0.0446554 429:-0.0561704 430:-0.0617326 431:-0.0686378 432:-0.110991 433:-0.16983 434:-0.197842 435:-0.197975 436:-0.22893 437:-0.245634 438:-0.266242 439:-0.213927 440:-0.173287 441:-0.149897 442:-0.138599 443:-0.12296 444:-0.11344 445:-0.108748 446:-0.0854703 447:-0.0636161 448:-0.0428556 449:-0.0259089 450:0.00419949 451:0.0197601 452:0.0463458 453:0.0714388 454:0.0738778 455:0.0799869 456:0.0562353 457:0.0358419 458:-0.0251826 459:-0.070175 460:-0.099458 461:-0.10995 462:-0.110244 463:-0.0732108 464:-0.0236022 465:0.0329869 466:0.0788458 467:0.0796005 468:0.0971342 469:0.10429 470:0.113247 471:0.119242 472:0.131933 473:0.139969 474:0.175142 475:0.236759 476:0.25836 477:0.283458 478:0.311641 479:0.297757 480:0.286635 481:0.266073 482:0.275385 483:0.252158 484:0.239213 485:0.227678 486:0.218285 487:0.204853 488:0.185687 489:0.157824 490:0.125726 491:0.103283 492:0.0677117 493:0.0419395 494:0.0230781 495:-0.00888324 496:-0.0116575 497:-0.00980632 498:0.0193209 499:0.0663413 500:0.121271 501:0.135521 502:0.142402 503:0.142372 504:0.122983 505:0.135106 506:0.0739564 507:0.00976659 508:0.00402396 509:-0.00989425 510:-0.0330472 511:-0.0426517 512:-0.0557298 513:-0.0577801 514:-0.0671525 515:-0.0735127 516:-0.109827 517:-0.173633 518:-0.185171 519:-0.204447 520:-0.231247 521:-0.264096 522:-0.218485 523:-0.17731 524:-0.147347 525:-0.126113 526:-0.116402 527:-0.107349 528:-0.101789 529:-0.0892243 530:-0.0621818 531:-0.0467366 532:-0.0262049 533:-0.00315474 534:0.0184991 535:0.0492894 536:0.0645018 537:0.0689199 538:0.0775766 539:0.0691519 540:0.0494323 541:-0.00358243 542:-0.0615624 543:-0.0997956 544:-0.117348 545:-0.114694 546:-0.0968615 547:-0.0360869 548:0.0116599 549:0.078293 550:0.0768981 551:0.0896939 552:0.10267 553:0.109307 554:0.11782 555:0.126692 556:0.141337 557:0.141318 558:0.189694 559:0.219062 560:0.231931 561:0.251499 562:0.255467 563:0.245549 564:0.245604 565:0.276381 566:0.250518 567:0.23029 568:0.219434 569:0.207549 570:0.20404 571:0.187309 572:0.164686 573:0.134824 574:0.112067 575:0.0719258 576:0.0527006 577:0.0284606 578:0.00615306 579:-0.0122863 580:-0.0103856 581:0.0126569 582:0.0390761 583:0.068619 584:0.0934798 585:0.120795 586:0.149474 587:0.125169 588:0.127191 589:0.0847431 590:0.0203141 591:0.00226086 592:0.00113213 593:-0.0240706 594:-0.036945 595:-0.0497698 596:-0.0532748 597:-0.0650212 598:-0.0682823 599:-0.0899533 600:-0.153615 601:-0.220182 602:-0.245186 603:-0.245701 604:-0.265678 605:-0.235787 606:-0.186761 607:-0.154573 608:-0.129161 609:-0.119663 610:-0.106492 611:-0.0959362 612:-0.0897121 613:-0.0815056 614:-0.051001 615:-0.0237916 616:-0.0127972 617:0.0147512 618:0.033982 619:0.479596 620:0.0641486 621:0.0747399 622:0.07147 623:0.0448964 624:0.0152653 625:-0.0446929 626:-0.0797384 627:-0.105777 628:-0.114543 629:-0.113194 630:-0.0475303 631:0.0057366 632:0.0665315 633:0.0762451 634:0.085956 635:0.102289 636:0.107757 637:0.116224 638:0.119433 639:0.134475 640:0.133292 641:0.154826 642:0.191477 643:0.242618 644:0.241405 645:0.234382 646:0.267333 647:0.254017 648:0.259351 649:0.254803 650:0.232829 651:0.213112 652:0.203244 653:0.198495 654:0.181733 655:0.513483 656:0.608933 657:0.117744 658:0.0885135 659:0.0559038 660:0.031222 661:0.015293 662:-0.0127016 663:-0.00931699 664:0.00788584 665:0.0174069 666:0.0846392 667:0.124261 668:0.106555 669:0.160982 670:0.151121 671:0.143138 672:0.107018 673:0.0460662 674:0.00118671 675:-0.000454058 676:-0.0142266 677:-0.0287842 678:-0.0440932 679:0.386109 680:0.419986 681:-0.0711647 682:-0.0505136 683:0.0578802 684:0.17142 685:-0.276618 686:-0.257834 687:-0.257624 688:-0.240017 689:-0.188849 690:-0.155691 691:-0.134633 692:-0.119807 693:-0.104218 694:-0.413615 695:-0.0936391 696:-0.0707581 697:-0.0728327 698:0.370955 699:-0.0276594 700:0.00286421 701:0.0224261 702:0.0465196 703:0.0706687 704:0.269015 705:0.081457 706:0.0624577 707:0.0431336 708:-0.0172988 709:-0.0628641 710:-0.0895512 711:-0.107571 712:-0.103557 713:-0.0641098 714:-0.00278493 715:0.0460059 716:0.0756517 717:-0.0368794 718:0.0928008 719:0.100814 720:0.110192 721:0.119693 722:0.134406 723:0.0951949 724:0.201452 725:-0.167895 726:0.404155 727:0.519384 728:0.663001 729:0.398618 730:0.25926 731:0.282135 732:0.25723 733:0.234706 734:-0.164062 735:0.212389 736:0.202477 737:0.193691 738:0.175664 739:0.152711 740:0.125373 741:0.099014 742:0.0713153 743:0.0449223 744:0.0536309 745:0.198987 746:0.038841 747:0.0551579 748:0.0592436 749:0.124653 750:0.233837 751:0.286153 752:0.249311 753:0.190244 754:0.142235 755:0.0934023 756:-0.255616 757:0.00139953 758:-0.36979 759:-0.0426755 760:-0.0334098 761:-0.039768 762:-0.100873 763:-0.0526297 764:0.433743 765:-0.0740488 766:-0.037787 767:0.145407 768:0.115539 769:0.363992 770:-0.140457 771:-0.160752 772:0.306004 773:0.458557 774:0.609114 775:-0.0714624 776:-0.107469 777:-0.0896649 778:-0.0826562 779:-0.0665084 780:-0.0656925 781:-0.0424084 782:-0.019552 783:0.0849885 784:0.014594 785:0.040076 786:-0.0184774 787:0.161978 788:-0.40659 789:-0.0899663 790:0.0666948 791:0.0535558 792:0.017408 793:0.0126227 794:0.0137577 795:0.0655603 796:0.0732075 797:0.0540121 798:0.111144 799:0.11933 800:0.466345 801:0.103649 802:0.105655 803:0.112654 804:0.122115 805:0.128746 806:0.14615 807:0.191484 808:0.182024 809:0.274121 810:0.258615 811:0.282918 812:0.278725 813:0.0759894 814:-0.347114 815:-0.0559562 816:0.500232 817:0.455115 818:0.00971289 819:0.506003 820:-0.324012 821:0.31171 822:0.153875 823:0.132142 824:0.117007 825:0.0895538 826:0.0555655 827:0.0186881 828:0.180022 829:-0.0222276 830:-0.00132594 831:0.0239178 832:0.501167 833:0.0186978 834:0.598774 835:0.596839 836:0.180507 837:0.177713 838:0.113329 839:-0.783905 840:-0.235967 841:-0.0646607 842:0.0575805 843:-0.133224 844:0.165746 845:0.0162511 846:0.0223316 847:0.0194465 848:0.0222486 849:-0.172561 850:-0.0603986 851:0.241266 852:0.250529 853:-0.103153 854:-0.121583 855:-0.0970718 856:-0.0589138 857:-0.0342624 858:-0.0198693 859:-0.00866611 860:0.0103102 861:0.0197916 862:0.0313289 863:0.0195568 864:0.0585128 865:0.0797179 866:0.0884742 867:0.103204 868:0.114291 869:0.124213 870:0.602951 871:0.176002 872:0.135308 873:0.189857 874:0.0268355 875:-0.135077 876:0.130837 877:0.111297 878:0.0548666 879:0.0513244 880:0.0427871 881:0.0451039 882:0.465738 883:0.149723 884:0.0410146 885:0.0521114 886:0.0553875 887:0.0595696 888:0.0574319 889:0.0640053 890:0.142382 891:0.352725 892:0.627653 893:0.275426 894:0.146651 895:0.266894 896:0.139075 897:0.190415 898:0.136997 899:0.118213 900:0.101901 901:0.0881147 902:0.0756975 903:0.0679483 904:0.0500968 905:0.0387704 906:0.0183891 907:-0.00596762 908:-0.0311772 909:-0.0547094 910:-0.0729582 911:-0.0797521 912:-0.147802 913:-0.115812 914:-0.125955 915:-0.0927256 916:-0.0672024 917:-0.0529782 918:0.437883 919:0.29917 920:-0.050429 921:0.0191417 922:0.104041 923:0.223923 924:0.3043 925:0.431288 926:0.502551 927:0.405115 928:0.354366 929:0.317103 930:0.226838 931:0.0407483 932:0.0180565 933:-0.0283688 934:-0.0780802 935:-0.147583 936:-0.13158 937:-0.110242 938:-0.114353 939:-0.0359203 940:-0.0110467 941:0.0299055 942:0.1419 943:0.157383 944:-0.0910876 945:0.0561434 946:0.0802133 947:0.0628365 948:0.0734224 949:0.0746151 950:0.00836187 951:-0.439374 952:-0.726442 953:-0.198607 954:0.46266 955:0.436301 956:0.455484 957:0.389848 958:0.374578 959:0.33803 960:0.235988 961:0.162701 962:0.19116 963:0.194813 964:0.217323 965:0.241398 966:0.211046 967:0.133951 968:0.236374 969:0.299279 970:0.302846 971:0.299439 972:0.306122 973:0.327134 974:0.318753 975:0.336776 976:0.38492 977:0.30571 978:0.276119 979:0.314345 980:0.403962 981:0.346131 982:0.35611 983:0.390306 984:0.400631 985:0.292784 986:0.246805 987:0.250747 988:0.28681 989:0.289193 990:0.281614 991:0.276966 992:0.254123 993:0.278723 994:0.295915 995:0.32009 996:0.259093 997:0.204559 998:0.240996 999:0.294376 1000:0.313021 
217.6876323835961 0 0 0 0 0 39.67260117606374 0 0 0 1:0.658775 2:0.708788 3:0.726195 4:0.71452 5:0.684475 6:0.703515 7:0.845948 8:0.896319 9:0.875983 10:0.811783 11:0.731956 12:0.8269 13:0.799772 14:0.775734 15:0.756087 16:0.75688 17:0.705821 18:0.694775 19:0.662083 20:0.604115 21:0.554736 22:0.640842 23:0.709233 24:0.69614 25:0.634109 26:0.576927 27:0.573005 28:0.591935 29:0.61555 30:0.591935 31:0.481 32:0.468019 33:0.495527 34:0.438707 35:0.364524 36:0.374004 37:0.372679 38:0.313861 39:0.339453 40:0.364411 41:0.353175 42:0.339673 43:0.376057 44:0.381564 45:0.35016 46:0.364048 47:0.452701 48:0.425321 49:0.301675 50:0.125134 51:0.268103 52:0.336066 53:0.353123 54:0.323657 55:0.381564 56:0.418334 57:0.41298 58:0.431497 59:0.417553 60:0.472705 61:0.458843 62:0.543451 63:0.567163 64:0.480105 65:0.480501 66:0.558916 67:0.580661 68:0.563825 69:0.522403 70:0.525258 71:0.507051 72:0.499843 73:0.557973 74:0.618485 75:0.604201 76:0.717594 77:0.803289 78:0.789257 79:0.700663 80:0.635667 81:0.68548 82:0.691728 83:0.741326 84:0.691837 85:0.711695 86:0.74657 87:0.748909 88:0.6879 89:0.703515 90:0.819838 91:0.918279 92:0.875983 93:0.811783 94:0.753461 95:0.828866 96:0.826664 97:0.789544 98:0.732808 99:0.777898 100:0.699735 101:0.714545 102:0.642695 103:0.642695 104:0.546147 105:0.581674 106:0.690444 107:0.706522 108:0.665308 109:0.626292 110:0.562012 111:0.592287 112:0.604351 113:0.61555 114:0.564521 115:0.486428 116:0.504649 117:0.513042 118:0.458042 119:0.358702 120:0.39066 121:0.352746 122:0.339698 123:0.352258 124:0.385369 125:0.358886 126:0.388715 127:0.369198 128:0.364048 129:0.371245 130:0.440044 131:0.437878 132:0.347914 133:0.197407 134:0.225162 135:0.347914 136:0.402207 137:0.359945 138:0.410506 139:0.41298 140:0.418334 141:0.116574 142:0.461705 143:0.425907 144:0.46966 145:0.543451 146:0.578376 147:0.499903 148:0.442848 149:0.347182 150:0.368791 151:0.337656 152:0.36128 153:0.3536 154:0.308315 155:0.366887 156:0.327721 157:0.357245 158:0.445016 159:0.482784 160:0.604728 161:0.728601 162:0.766313 163:0.675005 164:0.803828 165:0.804615 166:0.881481 167:0.775922 168:0.685921 169:0.808966 170:0.880663 171:0.889621 172:0.892296 173:0.926285 174:0.917179 175:0.912308 176:0.934446 177:0.923786 178:0.871339 179:0.894952 180:0.862058 181:0.835763 182:0.789221 183:0.740808 184:0.650031 185:0.627637 186:0.621793 187:0.652352 188:0.45113 189:0.370582 190:0.438816 191:0.209223 192:0.671664 193:0.771371 194:0.807591 195:0.740472 196:0.40705 197:0.216268 198:-0.288509 199:-0.739461 200:-0.0432965 201:-0.110757 202:-0.222214 203:-0.449641 204:-0.373111 205:-0.576969 206:-0.462978 207:-0.687584 208:-0.189589 209:-0.555278 210:-0.130714 211:-0.286878 212:0.114581 213:-0.26568 214:-0.447008 215:-0.319036 216:-0.41779 217:-0.409549 218:-0.305224 219:-0.086908 220:-0.115166 221:-0.177253 222:-0.242232 223:-0.285262 224:-0.236261 225:-0.20044 226:-0.155816 227:-0.0743811 228:0.0182303 229:0.162285 230:-0.0303821 231:-0.102673 232:-0.155169 233:-0.13717 234:0.0299319 235:0.233883 236:0.555573 237:0.622207 238:0.636756 239:0.641987 240:0.670637 241:0.684363 242:0.644543 243:0.687544 244:0.769963 245:0.808748 246:0.834011 247:0.816466 248:0.804898 249:0.79616 250:0.801027 251:0.801964 252:0.793771 253:0.796069 254:0.821904 255:0.804081 256:0.674673 257:0.587746 258:0.553347 259:0.558456 260:0.484814 261:0.444986 262:0.399654 263:0.370881 264:0.350784 265:0.345376 266:0.298 267:0.239324 268:0.136983 269:0.0569671 270:-0.0565043 271:-0.105953 272:-0.190078 273:-0.266559 274:-0.295475 275:-0.329781 276:-0.348283 277:-0.359138 278:-0.370216 279:-0.369886 280:-0.371926 281:-0.369462 282:-0.357945 283:-0.334085 284:-0.332363 285:-0.357306 286:-0.417217 287:-0.459868 288:-0.509454 289:-0.53723 290:-0.570344 291:-0.613191 292:-0.671241 293:-0.699407 294:-0.72037 295:-0.731405 296:-0.698151 297:-0.550285 298:-0.453201 299:-0.403159 300:-0.380217 301:-0.350682 302:-0.324557 303:-0.282734 304:-0.24279 305:-0.216981 306:-0.173734 307:-0.196632 308:-0.45084 309:-0.439733 310:-0.132701 311:-0.142876 312:0.140041 313:0.271273 314:0.322887 315:0.36551 316:0.427587 317:0.471111 318:0.503008 319:0.511676 320:0.513153 321:0.514267 322:0.506052 323:0.498912 324:0.486645 325:0.4616 326:0.479323 327:0.52957 328:0.584069 329:0.642435 330:0.70084 331:0.755763 332:0.781745 333:0.816571 334:0.813503 335:0.80928 336:0.819007 337:0.815284 338:0.798064 339:0.722725 340:0.619763 341:0.570343 342:0.533724 343:0.496192 344:0.462948 345:0.421209 346:0.37899 347:0.358799 348:0.325352 349:0.264519 350:0.199988 351:0.120742 352:0.0586951 353:-0.0196448 354:-0.139187 355:-0.211226 356:-0.215948 357:-0.244039 358:-0.279542 359:-0.306166 360:-0.323407 361:-0.334035 362:-0.337554 363:-0.334024 364:-0.325182 365:-0.327054 366:-0.316346 367:-0.29827 368:-0.32958 369:-0.386725 370:-0.43254 371:-0.482544 372:-0.524257 373:-0.552784 374:-0.583893 375:-0.642133 376:-0.690695 377:-0.715362 378:-0.736914 379:-0.740275 380:-0.614383 381:-0.511836 382:-0.424062 383:-0.381433 384:-0.359046 385:-0.334966 386:-0.30127 387:-0.256367 388:-0.225284 389:-0.205031 390:-0.162726 391:-0.107192 392:-0.0544336 393:0.00662156 394:0.0897569 395:0.198696 396:0.300708 397:0.360507 398:0.390116 399:0.421296 400:0.45281 401:0.467511 402:0.487972 403:0.494955 404:0.496424 405:0.494925 406:0.477326 407:0.477673 408:0.45977 409:0.449269 410:0.49219 411:0.560593 412:0.60944 413:0.670516 414:0.721945 415:0.765211 416:0.795559 417:0.796765 418:0.80441 419:0.811188 420:0.819519 421:0.797366 422:0.767416 423:0.651375 424:0.584338 425:0.554163 426:0.509743 427:0.47506 428:0.434752 429:0.38979 430:0.363271 431:0.352176 432:0.314446 433:0.255898 434:0.22886 435:0.205415 436:0.106188 437:-0.0490844 438:-0.199725 439:-0.214581 440:-0.221835 441:-0.260178 442:-0.286718 443:-0.308959 444:-0.322355 445:-0.329344 446:-0.322332 447:-0.318366 448:-0.317943 449:-0.319223 450:-0.296693 451:-0.322467 452:-0.362249 453:-0.403924 454:-0.457254 455:-0.504449 456:-0.546744 457:-0.57034 458:-0.623428 459:-0.677687 460:-0.708414 461:-0.727366 462:-0.738136 463:-0.659521 464:-0.541351 465:-0.454719 466:-0.391098 467:-0.372859 468:-0.346459 469:-0.316857 470:-0.275675 471:-0.236939 472:-0.215453 473:-0.202218 474:-0.170817 475:-0.111912 476:-0.0628316 477:0.0201824 478:0.110339 479:0.219336 480:0.313537 481:0.343847 482:0.397345 483:0.431337 484:0.458397 485:0.48563 486:0.499423 487:0.503411 488:0.504426 489:0.488579 490:0.481052 491:0.476111 492:0.44725 493:0.477155 494:0.550215 495:0.598051 496:0.650514 497:0.706014 498:0.746229 499:0.791265 500:0.850343 501:0.849132 502:0.843855 503:0.831806 504:0.81426 505:0.807459 506:0.683929 507:0.597806 508:0.555747 509:0.519793 510:0.48582 511:0.446503 512:0.399993 513:0.365013 514:0.35357 515:0.355989 516:0.332638 517:0.269231 518:0.223457 519:0.15198 520:0.0161982 521:-0.153832 522:-0.199741 523:-0.204829 524:-0.240386 525:-0.265213 526:-0.291682 527:-0.309074 528:-0.317788 529:-0.323485 530:-0.318214 531:-0.311592 532:-0.31527 533:-0.303224 534:-0.305396 535:-0.335584 536:-0.397793 537:-0.446798 538:-0.496689 539:-0.538558 540:-0.564835 541:-0.606905 542:-0.670778 543:-0.708414 544:-0.729911 545:-0.741212 546:-0.706683 547:-0.570685 548:-0.481732 549:-0.403135 550:-0.379883 551:-0.350514 552:-0.32564 553:-0.290139 554:-0.24727 555:-0.217727 556:-0.200871 557:-0.211671 558:-0.168042 559:-0.127286 560:-0.0581647 561:0.015455 562:0.140151 563:0.243981 564:0.312054 565:0.380723 566:0.412506 567:0.441815 568:0.466855 569:0.484671 570:0.498427 571:0.503411 572:0.498926 573:0.484291 574:0.481188 575:0.450552 576:0.478893 577:0.533642 578:0.585834 579:0.631606 580:0.696972 581:0.744035 582:0.771935 583:0.769307 584:0.781037 585:0.813037 586:0.839961 587:0.81971 588:0.808505 589:0.719522 590:0.614755 591:0.570101 592:0.542582 593:0.498813 594:0.463535 595:0.418321 596:0.382325 597:0.36045 598:0.358019 599:0.355774 600:0.291388 601:0.222024 602:0.148791 603:0.0596787 604:-0.101254 605:-0.198003 606:-0.20334 607:-0.225944 608:-0.255403 609:-0.288077 610:-0.306122 611:-0.314252 612:-0.319438 613:-0.323485 614:-0.316539 615:-0.311168 616:-0.315988 617:-0.295397 618:-0.324218 619:0.239858 620:-0.434157 621:-0.479463 622:-0.525409 623:-0.560905 624:-0.587767 625:-0.649082 626:-0.693751 627:-0.72015 628:-0.737208 629:-0.737962 630:-0.611043 631:-0.506045 632:-0.421894 633:-0.38291 634:-0.361037 635:-0.332877 636:-0.297876 637:-0.25267 638:-0.209229 639:-0.108074 640:-0.134728 641:-0.26267 642:-0.252246 643:-0.174341 644:-0.090901 645:0.0251371 646:0.200214 647:0.282566 648:0.341136 649:0.390558 650:0.431036 651:0.447083 652:0.479207 653:0.493465 654:0.493444 655:0.705249 656:0.768745 657:0.485898 658:0.470623 659:0.465355 660:0.511316 661:0.574924 662:0.621321 663:0.689226 664:0.741011 665:0.73928 666:0.820476 667:0.845434 668:0.785816 669:0.866886 670:0.86162 671:0.853155 672:0.765547 673:0.650349 674:0.589132 675:0.552008 676:0.514079 677:0.482415 678:0.432502 679:0.645749 680:0.647663 681:0.311994 682:0.262888 683:0.333111 684:0.438462 685:0.112623 686:0.0805904 687:-0.0291496 688:-0.121715 689:-0.148887 690:-0.170282 691:-0.222251 692:-0.252978 693:-0.280467 694:-0.543642 695:-0.310643 696:-0.318692 697:-0.308274 698:0.212557 699:-0.316346 700:-0.285705 701:-0.310006 702:-0.361061 703:-0.409902 704:-0.152212 705:-0.507067 706:-0.549006 707:-0.570078 708:-0.630258 709:-0.68835 710:-0.713878 711:-0.729758 712:-0.736161 713:-0.659404 714:-0.532802 715:-0.447635 716:-0.396268 717:-0.437214 718:-0.336525 719:-0.304866 720:-0.245503 721:-0.199281 722:-0.174302 723:-0.101867 724:-0.0752511 725:-0.378164 726:0.184372 727:0.357771 728:0.580297 729:0.353543 730:0.304794 731:0.365357 732:0.375526 733:0.408357 734:-0.0211405 735:0.459696 736:0.474031 737:0.48296 738:0.485405 739:0.472544 740:0.468151 741:0.460196 742:0.436472 743:0.461587 744:0.551214 745:0.670381 746:0.666702 747:0.717034 748:0.743448 749:0.795062 750:0.871018 751:0.911672 752:0.890814 753:0.876575 754:0.825792 755:0.793243 756:0.204221 757:0.577479 758:-0.031362 759:0.45445 760:0.444312 761:0.344218 762:0.133939 763:0.122473 764:0.533669 765:0.133795 766:0.204682 767:-1 768:-0.829947 769:0.528406 770:0.125492 771:-0.0545541 772:0.338392 773:0.504302 774:0.653751 775:0.0617031 776:0.0278445 777:0.0382083 778:0.0516107 779:0.0723611 780:0.08173 781:0.0950009 782:0.102896 783:0.194677 784:0.119006 785:0.131717 786:0.0579647 787:0.234865 788:-0.365554 789:-0.0294736 790:0.139712 791:0.123755 792:0.0871177 793:0.0750561 794:0.0593236 795:0.0804072 796:0.0741794 797:0.0548711 798:0.111586 799:0.0995515 800:0.445628 801:0.0624012 802:0.0667918 803:0.0676926 804:0.0642906 805:0.0616613 806:0.0670456 807:0.0970249 808:0.0671014 809:0.13371 810:0.107116 811:0.143291 812:0.160117 813:-0.0340785 814:-0.414946 815:-0.174218 816:0.481713 817:0.425225 818:-0.0345354 819:0.468899 820:-0.373951 821:0.227713 822:0.056036 823:0.0462179 824:0.0365275 825:0.0238855 826:0.00523491 827:-0.0122002 828:0.161653 829:-0.0492926 830:-0.0179103 831:0.0140469 832:0.499373 833:0.0299715 834:0.590465 835:0.610923 836:0.235874 837:0.262311 838:0.206653 839:-0.0319837 840:0.0749527 841:0.0858287 842:0.0910193 843:-0.115881 844:0.199274 845:0.063624 846:0.0635964 847:0.0653008 848:0.0708817 849:-0.125101 850:-0.0231184 851:0.281459 852:0.302386 853:-0.0407935 854:-0.0707979 855:-0.0441767 856:-0.00933494 857:0.00824178 858:0.0168576 859:0.0273246 860:0.0352689 861:0.0487816 862:0.0652722 863:0.0547946 864:0.0955246 865:0.10644 866:0.11339 867:0.125865 868:0.131043 869:0.138365 870:0.610018 871:0.192261 872:0.148989 873:0.209092 874:0.0442348 875:-0.117871 876:0.154435 877:0.134144 878:0.0789049 879:0.0722704 880:0.0646971 881:0.0647298 882:0.472486 883:0.154894 884:0.0461457 885:0.0599672 886:0.0678182 887:0.0666798 888:0.0669134 889:0.0683122 890:0.149045 891:0.355887 892:0.631498 893:0.279687 894:0.163727 895:0.274578 896:0.163896 897:0.206433 898:0.151817 899:0.134831 900:0.125079 901:0.115254 902:0.104828 903:0.0951991 904:0.0714544 905:0.0622256 906:0.044575 907:0.02553 908:0.00191506 909:-0.0116709 910:-0.026412 911:-0.0339876 912:-0.108472 913:-0.0707477 914:-0.0758288 915:-0.047466 916:-0.0444301 917:-0.0423875 918:0.463292 919:0.330103 920:-0.000461881 921:0.0732146 922:0.159885 923:0.29079 924:0.400374 925:0.539684 926:0.601347 927:0.488605 928:0.44174 929:0.418188 930:0.323538 931:0.134972 932:0.107869 933:0.0604817 934:0.00532911 935:-0.0828005 936:-0.0801592 937:-0.0709064 938:-0.0537552 939:0.03178 940:0.0434373 941:0.0784172 942:0.216444 943:0.235111 944:-0.0109532 945:0.131657 946:0.137178 947:0.134449 948:0.128769 949:0.118133 950:0.0420078 951:-0.430464 952:-0.694411 953:-0.164266 954:0.588292 955:0.498035 956:0.54637 957:0.499873 958:0.515988 959:0.515516 960:0.423738 961:0.387567 962:0.383276 963:0.390601 964:0.428404 965:0.38403 966:0.249573 967:0.205458 968:0.317805 969:0.432637 970:0.388223 971:0.369215 972:0.36048 973:0.394759 974:0.363797 975:0.433723 976:0.419647 977:0.389925 978:0.432881 979:0.523077 980:0.509412 981:0.453309 982:0.51966 983:0.610283 984:0.59858 985:0.579259 986:0.543055 987:0.490055 988:0.527375 989:0.517356 990:0.583819 991:0.598384 992:0.631501 993:0.702794 994:0.741114 995:0.731663 996:0.643946 997:0.635667 998:0.648487 999:0.678154 1000:0.688729 
48.68789352079521 0 0 0 0 248.7087468425013 4.866109226127689 166.24486696605 0 0 1:0.658775 2:0.708788 3:0.726195 4:0.71452 5:0.707714 6:0.703515 7:0.774754 8:0.873121 9:0.921101 10:0.834033 11:0.731956 12:0.803694 13:0.889041 14:0.839904 15:0.756087 16:0.777898 17:0.726195 18:0.714545 19:0.681274 20:0.681274 21:0.573758 22:0.622346 23:0.72729 24:0.714447 25:0.671602 26:0.59622 27:0.553524 28:0.591935 29:0.61555 30:0.591935 31:0.519394 32:0.486428 33:0.477635 34:0.526358 35:0.439342 36:0.39285 37:0.372679 38:0.353006 39:0.320514 40:0.383172 41:0.373153 42:0.339673 43:0.35764 44:0.399814 45:0.367102 46:0.382553 47:0.433955 48:0.444543 49:0.337567 50:0.125134 51:0.23109 52:0.336066 53:0.42221 54:0.340518 55:0.345251 56:0.327501 57:0.41298 58:0.412024 59:0.398271 60:0.414117 61:0.438552 62:0.502911 63:0.547847 64:0.499799 65:0.480501 66:0.558916 67:0.60024 68:0.523077 69:0.5425 70:0.545672 71:0.486935 72:0.520134 73:0.537664 74:0.578075 75:0.604201 76:0.654766 77:0.782493 78:0.789257 79:0.720051 80:0.635667 81:0.705852 82:0.67176 83:0.741326 84:0.691837 85:0.691728 86:0.726195 87:0.726978 88:0.711106 89:0.703515 90:0.747723 91:0.847855 92:0.921101 93:0.856056 94:0.774995 95:0.760272 96:0.873076 97:0.811439 98:0.796978 99:0.777898 100:0.741114 101:0.655437 102:0.662083 103:0.662083 104:0.526956 105:0.563006 106:0.690444 107:0.725349 108:0.701631 109:0.607539 110:0.581123 111:0.573005 112:0.604351 113:0.636383 114:0.564521 115:0.504649 116:0.504649 117:0.513042 118:0.439479 119:0.358702 120:0.333528 121:0.372427 122:0.339698 123:0.333138 124:0.385369 125:0.358886 126:0.388715 127:0.387284 128:0.382553 129:0.390363 130:0.386689 131:0.437878 132:0.383602 133:0.197407 134:0.186949 135:0.329978 136:0.420384 137:0.410685 138:0.340765 139:0.357941 140:0.400093 141:0.101386 142:0.423312 143:0.366511 144:0.46966 145:0.441996 146:0.519494 147:0.518662 148:0.462472 149:0.347182 150:0.337599 151:0.322877 152:0.36128 153:0.3536 154:0.321847 155:0.366887 156:0.31272 157:0.342596 158:0.445016 159:0.428545 160:0.624161 161:0.68983 162:0.766313 163:0.675005 164:0.815691 165:0.804615 166:0.881481 167:0.775922 168:0.685921 169:0.806159 170:0.880663 171:0.889621 172:0.892296 173:0.9183 174:0.90816 175:0.916852 176:0.936934 177:0.926278 178:0.863648 179:0.891821 180:0.869774 181:0.844288 182:0.789221 183:0.74972 184:0.645104 185:0.646255 186:0.626427 187:0.656282 188:0.45113 189:0.366265 190:0.441598 191:0.0396007 192:0.63244 193:1 194:0.894309 195:0.967604 196:0.496921 197:0.251874 198:-0.169101 199:-0.685186 200:-0.0284484 201:-0.0908392 202:-0.190209 203:-0.422928 204:-0.358436 205:-0.56616 206:-0.455524 207:-0.682442 208:-0.186889 209:-0.560992 210:-0.13489 211:-0.293448 212:0.10787 213:-0.289029 214:-0.472614 215:-0.329718 216:-0.425134 217:-0.416354 218:-0.306884 219:-0.0918701 220:-0.126734 221:-0.194562 222:-0.257719 223:-0.298858 224:-0.247999 225:-0.218847 226:-0.176805 227:-0.112426 228:-0.0258881 229:0.100859 230:-0.0518807 231:-0.113688 232:-0.16904 233:-0.162901 234:0.0187473 235:0.213407 236:0.53989 237:0.613079 238:0.62536 239:0.641987 240:0.656746 241:0.670772 242:0.635783 243:0.661941 244:0.730658 245:0.776278 246:0.801819 247:0.807957 248:0.804898 249:0.792063 250:0.802958 251:0.813461 252:0.803282 253:0.803674 254:0.839432 255:0.828157 256:0.694191 257:0.599115 258:0.569585 259:0.571427 260:0.491816 261:0.462343 262:0.420425 263:0.397348 264:0.372573 265:0.360722 266:0.311987 267:0.259074 268:0.166212 269:0.0869475 270:0.00675729 271:-0.0404527 272:-0.150884 273:-0.235543 274:-0.249994 275:-0.298717 276:-0.325014 277:-0.34699 278:-0.358182 279:-0.359954 280:-0.368091 281:-0.358301 282:-0.347214 283:-0.332345 284:-0.31182 285:-0.323305 286:-0.384757 287:-0.44083 288:-0.489909 289:-0.530012 290:-0.568606 291:-0.609831 292:-0.672924 293:-0.70799 294:-0.727348 295:-0.740293 296:-0.716082 297:-0.580214 298:-0.467288 299:-0.411458 300:-0.388191 301:-0.353818 302:-0.332363 303:-0.299809 304:-0.266079 305:-0.23752 306:-0.189733 307:-0.201886 308:-0.457663 309:-0.452733 310:-0.16746 311:-0.173421 312:0.0632798 313:0.21579 314:0.299427 315:0.343847 316:0.394024 317:0.448476 318:0.476297 319:0.503494 320:0.502973 321:0.504025 322:0.504003 323:0.488895 324:0.47877 325:0.457754 326:0.443743 327:0.486969 328:0.557601 329:0.621176 330:0.690851 331:0.751731 332:0.779737 333:0.816571 334:0.821094 335:0.816814 336:0.822738 337:0.822765 338:0.826683 339:0.745583 340:0.634646 341:0.579457 342:0.546114 343:0.50143 344:0.473324 345:0.435003 346:0.403301 347:0.381989 348:0.343742 349:0.273913 350:0.217723 351:0.14371 352:0.0882372 353:0.0231031 354:-0.0810006 355:-0.167042 356:-0.193669 357:-0.210272 358:-0.254394 359:-0.290154 360:-0.307466 361:-0.323407 362:-0.3305 363:-0.326933 364:-0.319882 365:-0.313149 366:-0.312934 367:-0.293245 368:-0.308107 369:-0.35705 370:-0.410725 371:-0.458561 372:-0.515467 373:-0.552784 374:-0.585591 375:-0.643819 376:-0.700948 377:-0.720569 378:-0.743935 379:-0.758068 380:-0.641868 381:-0.526897 382:-0.433981 383:-0.392645 384:-0.368463 385:-0.339656 386:-0.318368 387:-0.279637 388:-0.248791 389:-0.221085 390:-0.175805 391:-0.118996 392:-0.0701083 393:-0.0270025 394:0.0626894 395:0.133547 396:0.24124 397:0.327135 398:0.371981 399:0.390616 400:0.418736 401:0.453541 402:0.472037 403:0.485018 404:0.486417 405:0.488935 406:0.47143 407:0.469926 408:0.454102 409:0.429011 410:0.459422 411:0.531184 412:0.582748 413:0.650893 414:0.715942 415:0.761271 416:0.793702 417:0.802241 418:0.815341 419:0.818502 420:0.826904 421:0.817858 422:0.790186 423:0.66995 424:0.593587 425:0.56309 426:0.514985 427:0.483701 428:0.450236 429:0.415753 430:0.38799 431:0.372325 432:0.321988 433:0.26771 434:0.252221 435:0.236807 436:0.144917 437:0.0243249 438:-0.139198 439:-0.189843 440:-0.195204 441:-0.229804 442:-0.267445 443:-0.291457 444:-0.311848 445:-0.32053 446:-0.315303 447:-0.314894 448:-0.307608 449:-0.312392 450:-0.29334 451:-0.291214 452:-0.324738 453:-0.377516 454:-0.43709 455:-0.494052 456:-0.541514 457:-0.566881 458:-0.621751 459:-0.684588 460:-0.715362 461:-0.732591 462:-0.752285 463:-0.682162 464:-0.563229 465:-0.466261 466:-0.400805 467:-0.379177 468:-0.349585 469:-0.330818 470:-0.295785 471:-0.260281 472:-0.229736 473:-0.218763 474:-0.179414 475:-0.124453 476:-0.0866646 477:-0.00986994 478:0.069497 479:0.16641 480:0.271097 481:0.324337 482:0.369865 483:0.395288 484:0.442588 485:0.463954 486:0.489535 487:0.495425 488:0.494418 489:0.484616 490:0.471374 491:0.468482 492:0.436155 493:0.453462 494:0.517297 495:0.567702 496:0.631193 497:0.694092 498:0.746229 499:0.789309 500:0.842597 501:0.862616 502:0.855302 503:0.837423 504:0.827402 505:0.836756 506:0.704796 507:0.607216 508:0.570116 509:0.528532 510:0.489282 511:0.461947 512:0.42225 513:0.392719 514:0.375085 515:0.365466 516:0.344736 517:0.292592 518:0.251743 519:0.181131 520:0.0846345 521:-0.083043 522:-0.165969 523:-0.181441 524:-0.202313 525:-0.240725 526:-0.272543 527:-0.296903 528:-0.309074 529:-0.312942 530:-0.31645 531:-0.302953 532:-0.30505 533:-0.30154 534:-0.285596 535:-0.304804 536:-0.366694 537:-0.426802 538:-0.481228 539:-0.53156 540:-0.561345 541:-0.603522 542:-0.674201 543:-0.718827 544:-0.736914 545:-0.750086 546:-0.722643 547:-0.599596 548:-0.495102 549:-0.411365 550:-0.384637 551:-0.356744 552:-0.336512 553:-0.307132 554:-0.27047 555:-0.234919 556:-0.217041 557:-0.220321 558:-0.177119 559:-0.144071 560:-0.0946776 561:-0.0164765 562:0.0645709 563:0.185758 564:0.288073 565:0.356951 566:0.373867 567:0.419966 568:0.445116 569:0.472868 570:0.486529 571:0.491442 572:0.496951 573:0.476489 574:0.471565 575:0.446833 576:0.442323 577:0.489911 578:0.561678 579:0.614423 580:0.683097 581:0.740041 582:0.767953 583:0.765543 584:0.788488 585:0.820571 586:0.849406 587:0.832884 588:0.837567 589:0.74071 590:0.626055 591:0.577358 592:0.547889 593:0.502299 594:0.475577 595:0.437159 596:0.410048 597:0.378194 598:0.371011 599:0.361721 600:0.308153 601:0.242261 602:0.174417 603:0.105847 604:-0.0425777 605:-0.156922 606:-0.185415 607:-0.192769 608:-0.228997 609:-0.267137 610:-0.29218 611:-0.305515 612:-0.312452 613:-0.314705 614:-0.313049 615:-0.302588 616:-0.310921 617:-0.288775 618:-0.306354 619:0.257779 620:-0.414243 621:-0.457458 622:-0.51494 623:-0.55915 624:-0.586043 625:-0.650799 626:-0.70431 627:-0.727178 628:-0.747862 629:-0.754182 630:-0.638766 631:-0.521284 632:-0.43188 633:-0.394095 634:-0.367301 635:-0.339097 636:-0.317954 637:-0.277362 638:-0.238716 639:-0.17503 640:-0.0857578 641:-0.200992 642:-0.278179 643:-0.206431 644:-0.13204 645:-0.0448125 646:0.131157 647:0.24267 648:0.315082 649:0.357378 650:0.397099 651:0.425365 652:0.459469 653:0.483538 654:0.483477 655:0.70178 656:0.764266 657:0.478179 658:0.466828 659:0.441396 660:0.476677 661:0.547316 662:0.598386 663:0.669544 664:0.734987 665:0.737323 666:0.814555 667:0.851278 668:0.797054 669:0.868826 670:0.875111 671:0.874733 672:0.792991 673:0.667492 674:0.592834 675:0.560871 676:0.519313 677:0.492782 678:0.453041 679:0.661729 680:0.664001 681:0.344796 682:0.285454 683:0.324742 684:0.435527 685:0.133102 686:0.101 687:0.0284884 688:-0.0726636 689:-0.126333 690:-0.141931 691:-0.179437 692:-0.237232 693:-0.256022 694:-0.537998 695:-0.300118 696:-0.308074 697:-0.308274 698:0.220873 699:-0.307806 700:-0.285705 701:-0.278933 702:-0.322041 703:-0.3833 704:-0.136139 705:-0.494886 706:-0.545488 707:-0.566588 708:-0.62684 709:-0.693602 710:-0.72093 711:-0.738582 712:-0.750512 713:-0.685958 714:-0.555187 715:-0.459487 716:-0.404391 717:-0.445669 718:-0.342739 719:-0.317319 720:-0.281177 721:-0.222586 722:-0.190114 723:-0.109204 724:-0.0811378 725:-0.389381 726:0.166394 727:0.343193 728:0.562847 729:0.312918 730:0.263145 731:0.351742 732:0.354368 733:0.372126 734:-0.0306132 735:0.439821 736:0.458075 737:0.474966 738:0.477387 739:0.470567 740:0.456417 741:0.448729 742:0.429019 743:0.437869 744:0.515454 745:0.652065 746:0.647986 747:0.70375 748:0.743448 749:0.791288 750:0.872792 751:0.922278 752:0.898096 753:0.882329 754:0.837234 755:0.820497 756:0.218863 757:0.586965 758:-0.0222701 759:0.46642 760:0.465246 761:0.404846 762:0.214458 763:0.106662 764:0.531749 765:0.12999 766:0.196859 767:0.0482538 768:-0.63739 769:0.0837372 770:-0.259079 771:0.0366373 772:0.350802 773:0.501659 774:0.651605 775:0.0650654 776:0.0330799 777:0.0364574 778:0.049849 779:0.0723611 780:0.0834979 781:0.0950009 782:0.106326 783:0.196221 784:0.127278 785:0.138236 786:0.0594966 787:0.234865 788:-0.364594 789:-0.0309882 790:0.141513 791:0.127417 792:0.0871177 793:0.0750561 794:0.0593236 795:0.0784344 796:0.0741794 797:0.0513069 798:0.11478 799:0.104446 800:0.446594 801:0.0624012 802:0.0651043 803:0.0710531 804:0.0625976 805:0.0564086 806:0.0633998 807:0.102634 808:0.0713257 809:0.138239 810:0.104571 811:0.147991 812:0.160117 813:-0.0340785 814:-0.412599 815:-0.175769 816:0.4793 817:0.425225 818:-0.0381129 819:0.470895 820:-0.372916 821:0.226042 822:0.0580311 823:0.0422544 824:0.034582 825:0.0238855 826:-0.00214113 827:-0.0140539 828:0.161653 829:-0.0512518 830:-0.0199094 831:0.016058 832:0.499373 833:0.0299715 834:0.591031 835:0.610923 836:0.235874 837:0.264408 838:0.208712 839:-0.0337309 840:0.070965 841:0.0820383 842:0.0928749 843:-0.114897 844:0.20072 845:0.063624 846:0.0692542 847:0.0672445 848:0.0708817 849:-0.128763 850:-0.0246344 851:0.277133 852:0.298155 853:-0.0407935 854:-0.0780707 855:-0.0507689 856:-0.00933494 857:0.0101031 858:0.0222381 859:0.0255441 860:0.0370478 861:0.0469948 862:0.0635049 863:0.0578177 864:0.0937639 865:0.108176 866:0.115117 867:0.127534 868:0.131043 869:0.138365 870:0.610018 871:0.194039 872:0.148989 873:0.209092 874:0.0459331 875:-0.117871 876:0.154435 877:0.131978 878:0.0789049 879:0.0722704 880:0.058764 881:0.0647298 882:0.474454 883:0.15637 884:0.0461457 885:0.0599672 886:0.0678182 887:0.064929 888:0.0597332 889:0.0664195 890:0.151768 891:0.357604 892:0.631498 893:0.279687 894:0.171401 895:0.272377 896:0.161322 897:0.208994 898:0.154088 899:0.134831 900:0.120978 901:0.111153 902:0.106853 903:0.0972581 904:0.0735391 905:0.0622256 906:0.0403162 907:0.0233979 908:0.00191506 909:-0.0200058 910:-0.0344863 911:-0.0339876 912:-0.108472 913:-0.0728926 914:-0.0758288 915:-0.047466 916:-0.0455799 917:-0.0423875 918:0.461882 919:0.330103 920:-0.000461881 921:0.0732146 922:0.16292 923:0.277492 924:0.393289 925:0.539684 926:0.613162 927:0.499952 928:0.44174 929:0.42587 930:0.327856 931:0.134972 932:0.0963926 933:0.0569896 934:-0.000944196 935:-0.0801723 936:-0.0845322 937:-0.0729125 938:-0.0617473 939:0.0289818 940:0.045782 941:0.080705 942:0.212756 943:0.245136 944:-0.0159649 945:0.127372 946:0.140981 947:0.130836 948:0.13214 949:0.121109 950:0.0444147 951:-0.430464 952:-0.690117 953:-0.15989 954:0.588292 955:0.505513 956:0.53655 957:0.51231 958:0.530071 959:0.515516 960:0.423738 961:0.369489 962:0.364715 963:0.37149 964:0.409481 965:0.456552 966:0.323781 967:0.186137 968:0.317805 969:0.397063 970:0.388223 971:0.317847 972:0.341716 973:0.41298 974:0.418334 975:0.433723 976:0.474946 977:0.44626 978:0.432881 979:0.563825 980:0.567163 981:0.492302 982:0.499848 983:0.533556 984:0.617902 985:0.560134 986:0.543055 987:0.510048 988:0.486935 989:0.497254 990:0.563644 991:0.598384 992:0.590275 993:0.702794 994:0.76191 995:0.731663 996:0.625806 997:0.635667 998:0.648487 999:0.697732 1000:0.668554 
658.3240228347014 0 0 0 38.35540064629177 893.7152572333414 367.3336129802025 129.4782678978819 452.9212633631935 0 1:0.303167 2:0.350484 3:0.339917 4:0.206739 5:0.183277 6:0.137541 7:0.180901 8:0.146645 9:0.165895 10:0.150641 11:0.117873 12:0.0771963 13:0.15274 14:0.171923 15:0.220652 16:0.244204 17:0.242412 18:0.245108 19:0.275101 20:0.25967 21:0.197981 22:0.20185 23:0.287044 24:0.253374 25:0.22438 26:0.192046 27:0.242421 28:0.216047 29:0.124141 30:0.109904 31:0.0458752 32:0.0786137 33:0.145624 34:0.206646 35:0.173555 36:0.0812124 37:0.0272006 38:0.0663455 39:0.0936322 40:0.135828 41:0.0979513 42:0.140084 43:0.239805 44:0.352142 45:0.316103 46:0.319486 47:0.380616 48:0.428655 49:0.38395 50:0.304093 51:0.367752 52:0.393832 53:0.445887 54:0.452112 55:0.446555 56:0.410517 57:0.38687 58:0.387935 59:0.358911 60:0.355129 61:0.335844 62:0.364241 63:0.428008 64:0.424638 65:0.412811 66:0.507701 67:0.474778 68:0.396674 69:0.321645 70:0.382356 71:0.462049 72:0.466583 73:0.464304 74:0.48855 75:0.469634 76:0.432401 77:0.475438 78:0.511422 79:0.499258 80:0.371192 81:0.388629 82:0.392828 83:0.442334 84:0.324977 85:0.321108 86:0.323701 87:0.258812 88:0.160076 89:0.147027 90:0.15112 91:0.147699 92:0.138825 93:0.154955 94:0.165019 95:0.0876741 96:0.0909306 97:0.160858 98:0.206307 99:0.235753 100:0.235013 101:0.23724 102:0.251954 103:0.25967 104:0.197942 105:0.175731 106:0.239377 107:0.251165 108:0.259637 109:0.233448 110:0.256825 111:0.250174 112:0.141303 113:0.107388 114:0.108566 115:0.0712877 116:0.107918 117:0.20324 118:0.210985 119:0.0865366 120:0.0511846 121:0.0581384 122:0.0867144 123:0.142132 124:0.138917 125:0.117145 126:0.258606 127:0.260681 128:0.363671 129:0.393679 130:0.421834 131:0.422583 132:0.376098 133:0.346494 134:0.354889 135:0.426061 136:0.459705 137:0.484804 138:0.455275 139:0.438339 140:0.395998 141:0.0764895 142:0.384328 143:0.362051 144:0.341123 145:0.339917 146:0.408963 147:0.423903 148:0.375076 149:0.306326 150:0.274734 151:0.231187 152:0.211585 153:0.255374 154:0.280692 155:0.314842 156:0.273534 157:0.286113 158:0.364846 159:0.294335 160:0.345888 161:0.413659 162:0.520047 163:0.363325 164:0.617196 165:0.664574 166:0.768406 167:0.669367 168:0.594277 169:0.752936 170:0.812335 171:0.807396 172:0.812951 173:0.819809 174:0.78494 175:0.762127 176:0.861737 177:0.852453 178:0.756293 179:0.795048 180:0.75435 181:0.722979 182:0.676025 183:0.638931 184:0.531062 185:0.533594 186:0.524626 187:0.577077 188:0.340519 189:0.26725 190:0.373759 191:0.0201817 192:0.0209721 193:0.0950234 194:0.0668471 195:0.154186 196:0.26782 197:0.130297 198:-0.174354 199:-0.554981 200:-0.323675 201:-0.335503 202:-0.314369 203:-0.488418 204:-0.321214 205:-0.373821 206:-0.172314 207:-0.21767 208:0.226633 209:0.0853404 210:0.354185 211:0.304721 212:0.523911 213:0.333339 214:0.233951 215:0.29862 216:0.236599 217:0.211775 218:0.312135 219:0.382773 220:0.42114 221:0.377681 222:0.345144 223:0.265189 224:0.365804 225:0.393812 226:0.418737 227:0.41588 228:0.426138 229:0.444799 230:0.0684918 231:-0.0258471 232:-0.104574 233:-0.133675 234:-0.0125827 235:0.133676 236:0.389822 237:0.413709 238:0.386304 239:0.365637 240:0.347865 241:0.328718 242:0.265988 243:0.236915 244:0.189581 245:0.14033 246:0.072601 247:0.00494037 248:-0.0227158 249:-0.034348 250:-0.00650902 251:-0.00391403 252:-0.00220221 253:-0.00407512 254:0.00419237 255:-0.00673349 256:-0.0987501 257:-0.169013 258:-0.183119 259:-0.112186 260:-0.258148 261:-0.277178 262:-0.291881 263:-0.286873 264:-0.29014 265:-0.292077 266:-0.32962 267:-0.333226 268:-0.415568 269:-0.445966 270:-0.462746 271:-0.365542 272:-0.386625 273:-0.423694 274:-0.368319 275:-0.340484 276:-0.318709 277:-0.284569 278:-0.256364 279:-0.221659 280:-0.198741 281:-0.172747 282:-0.135174 283:-0.0948124 284:-0.0523585 285:-0.000304668 286:0.0287594 287:0.0649484 288:0.111813 289:0.137278 290:0.093449 291:0.0461201 292:0.00829498 293:0.00230386 294:-0.00185203 295:0.00167553 296:0.0240881 297:0.125072 298:0.223525 299:0.241107 300:0.250039 301:0.302658 302:0.31552 303:0.321855 304:0.324526 305:0.322894 306:0.33603 307:0.118373 308:-0.126357 309:-0.123923 310:0.296189 311:0.222589 312:0.450403 313:0.48077 314:0.473708 315:0.465169 316:0.449747 317:0.416315 318:0.387099 319:0.346914 320:0.317938 321:0.288339 322:0.256945 323:0.227842 324:0.191133 325:0.145377 326:0.105417 327:0.0709002 328:0.029643 329:-0.00826414 330:-0.0404641 331:-0.040148 332:-0.0332609 333:0.0129286 334:0.014493 335:0.0181703 336:0.0311331 337:0.0200138 338:0.0139384 339:-0.0342084 340:-0.119244 341:-0.177103 342:-0.197598 343:-0.233598 344:-0.259903 345:-0.277342 346:-0.280646 347:-0.280685 348:-0.292676 349:-0.339615 350:-0.401408 351:-0.476187 352:-0.485013 353:-0.496372 354:-0.505815 355:-0.476828 356:-0.41331 357:-0.36151 358:-0.321633 359:-0.297677 360:-0.261818 361:-0.236319 362:-0.207955 363:-0.170349 364:-0.133759 365:-0.0986379 366:-0.0689254 367:-0.0347092 368:0.000617143 369:0.0279874 370:0.0676878 371:0.108825 372:0.130462 373:0.124405 374:0.0824385 375:0.0408994 376:0.0135774 377:-0.00113727 378:-0.0137729 379:-0.0168099 380:0.0560785 381:0.12536 382:0.214946 383:0.248265 384:0.264584 385:0.296532 386:0.311252 387:0.326191 388:0.324027 389:0.333443 390:0.348143 391:0.394061 392:0.436958 393:0.455601 394:0.488822 395:0.517312 396:0.523216 397:0.524999 398:0.518996 399:0.487911 400:0.433125 401:0.399255 402:0.36398 403:0.335023 404:0.297322 405:0.258896 406:0.22102 407:0.192824 408:0.145397 409:0.0973875 410:0.0585648 411:0.0284396 412:-0.0175018 413:-0.0544921 414:-0.0659797 415:-0.0356255 416:0.0182427 417:0.019632 418:0.0279628 419:0.0329683 420:0.0326644 421:0.0147163 422:0.000845161 423:-0.091743 424:-0.170097 425:-0.187221 426:-0.21999 427:-0.255741 428:-0.269923 429:-0.282447 430:-0.281666 431:-0.27775 432:-0.305416 433:-0.35908 434:-0.391889 435:-0.393859 436:-0.433397 437:-0.463442 438:-0.489826 439:-0.428593 440:-0.365335 441:-0.320269 442:-0.288512 443:-0.261057 444:-0.236598 445:-0.215666 446:-0.176307 447:-0.141761 448:-0.110631 449:-0.0868988 450:-0.0451509 451:-0.0153315 452:0.0222961 453:0.0672291 454:0.0995131 455:0.133779 456:0.126759 457:0.114923 458:0.0616987 459:0.0353919 460:0.0071968 461:-0.00115417 462:-0.00930245 463:0.0338712 464:0.0987363 465:0.172691 466:0.236819 467:0.260213 468:0.287298 469:0.306342 470:0.320233 471:0.323471 472:0.327522 473:0.325278 474:0.351382 475:0.407318 476:0.431238 477:0.457923 478:0.494165 479:0.497353 480:0.511696 481:0.499839 482:0.491609 483:0.440093 484:0.40854 485:0.376403 486:0.351772 487:0.319452 488:0.278945 489:0.237723 490:0.200587 491:0.170084 492:0.11847 493:0.0737486 494:0.0454916 495:-0.0057377 496:-0.0443656 497:-0.0657349 498:-0.0577171 499:-0.0217709 500:0.0211759 501:0.0193489 502:0.0276717 503:0.0309014 504:0.0114777 505:0.00905909 506:-0.0750639 507:-0.162619 508:-0.183926 509:-0.207063 510:-0.251391 511:-0.267322 512:-0.280507 513:-0.279411 514:-0.280396 515:-0.277845 516:-0.308092 517:-0.368071 518:-0.38081 519:-0.409813 520:-0.444614 521:-0.486869 522:-0.436679 523:-0.37715 524:-0.32563 525:-0.284148 526:-0.260746 527:-0.23708 528:-0.216195 529:-0.181903 530:-0.148167 531:-0.118745 532:-0.0904921 533:-0.055109 534:-0.0180261 535:0.0299254 536:0.0551018 537:0.0850089 538:0.126105 539:0.133919 540:0.124677 541:0.0761504 542:0.0376327 543:0.0106619 544:-0.00396847 545:-0.0117961 546:0.0103407 547:0.0820489 548:0.150998 549:0.230899 550:0.243657 551:0.266835 552:0.303004 553:0.317369 554:0.323112 555:0.325938 556:0.328263 557:0.324902 558:0.367456 559:0.391844 560:0.409279 561:0.438757 562:0.460533 563:0.469121 564:0.481663 565:0.498279 566:0.448646 567:0.404811 568:0.376744 569:0.348507 570:0.324312 571:0.286753 572:0.2507 573:0.212303 574:0.179818 575:0.126781 576:0.090824 577:0.0540573 578:0.0140655 579:-0.0339462 580:-0.0633481 581:-0.0568333 582:-0.0421802 583:-0.0213994 584:-0.017989 585:0.00460519 586:0.0296282 587:0.0161781 588:0.00796493 589:-0.0530988 590:-0.14002 591:-0.177176 592:-0.195479 593:-0.233423 594:-0.258615 595:-0.274756 596:-0.276626 597:-0.279536 598:-0.270304 599:-0.286056 600:-0.350979 601:-0.424674 602:-0.455704 603:-0.454724 604:-0.488467 605:-0.454409 606:-0.393772 607:-0.337284 608:-0.29383 609:-0.26996 610:-0.242714 611:-0.217627 612:-0.188274 613:-0.155904 614:-0.126066 615:-0.0925695 616:-0.0711457 617:-0.028825 618:0.00710246 619:0.470685 620:0.0692119 621:0.113414 622:0.13332 623:0.122294 624:0.097114 625:0.0502314 626:0.0340397 627:0.00659531 628:-0.00508131 629:-0.00497283 630:0.0652255 631:0.139406 632:0.215066 633:0.23889 634:0.257515 635:0.294698 636:0.317369 637:0.327062 638:0.325984 639:0.327488 640:0.318122 641:0.335625 642:0.375847 643:0.440835 644:0.440674 645:0.441724 646:0.489357 647:0.489061 648:0.485678 649:0.460165 650:0.410613 651:0.374364 652:0.346579 653:0.323765 654:0.286753 655:0.562561 656:0.643585 657:0.185888 658:0.144586 659:0.0973077 660:0.0575702 661:0.0268075 662:-0.0435694 663:-0.0591755 664:-0.0578534 665:-0.0683569 666:-0.0048397 667:0.0117969 668:-0.0180852 669:0.0299868 670:0.0283426 671:0.0161029 672:-0.0363886 673:-0.120295 674:-0.174485 675:-0.192975 676:-0.236709 677:-0.25743 678:-0.278456 679:0.245297 680:0.297403 681:-0.271504 682:-0.231311 683:-0.0891137 684:0.0515661 685:-0.426192 686:-0.366667 687:-0.386619 688:-0.374091 689:-0.340487 690:-0.312078 691:-0.279384 692:-0.262472 693:-0.241394 694:-0.497586 695:-0.204386 696:-0.179659 697:-0.159445 698:0.32983 699:-0.0791806 700:-0.0509931 701:-0.0105057 702:0.0300226 703:0.0584651 704:0.286226 705:0.142503 706:0.13232 707:0.116284 708:0.0687044 709:0.0468209 710:0.0242685 711:0.0122698 712:0.0135338 713:0.0595422 714:0.14397 715:0.21667 716:0.251939 717:0.126928 718:0.295466 719:0.323251 720:0.348539 721:0.369275 722:0.440493 723:0.219068 724:0.362203 725:-0.217932 726:0.311367 727:0.424026 728:0.599077 729:0.292027 730:0.125218 731:0.156094 732:0.142185 733:0.125725 734:-0.238652 735:0.100463 736:0.0882158 737:0.0816143 738:0.072437 739:0.0572768 740:0.0386672 741:0.0167996 742:-0.010682 743:-0.0309045 744:-0.00492548 745:0.15512 746:-0.009751 747:0.0085382 748:0.00490437 749:0.0769912 750:0.193274 751:0.246296 752:0.219937 753:0.176536 754:0.144637 755:0.0993729 756:-0.253186 757:0.0155503 758:-0.355856 759:-0.0118217 760:0.0040099 761:-0.00225269 762:-0.0557411 763:0.0075545 764:0.476062 765:0.0209561 766:0.0721425 767:0.170655 768:0.228804 769:0.435279 770:0.00323795 771:-0.0219346 772:0.33273 773:0.490462 774:0.640447 775:0.0283212 776:-0.00407 777:0.0084957 778:0.0168081 779:0.0284389 780:0.0408154 781:0.0526909 782:0.0657449 783:0.16417 784:0.0971066 785:0.115726 786:0.0380804 787:0.209962 788:-0.377636 789:-0.0479274 790:0.118485 791:0.101825 792:0.0695832 793:0.0615296 794:0.0478275 795:0.0700347 796:0.0684725 797:0.0473405 798:0.110587 799:0.107018 800:0.45369 801:0.0705734 802:0.0724568 803:0.0740345 804:0.0754959 805:0.0682765 806:0.0768612 807:0.105583 808:0.0674696 809:0.131829 810:0.097401 811:0.135699 812:0.143417 813:-0.045075 814:-0.4171 815:-0.181126 816:0.477084 817:0.41885 818:-0.0453044 819:0.459931 820:-0.379405 821:0.221958 822:0.0511615 823:0.0378661 824:0.0252318 825:0.00933903 826:-0.0213452 827:-0.0373572 828:0.143694 829:-0.0730047 830:-0.0462445 831:-0.0140469 832:0.484751 833:0.00422272 834:0.580404 835:0.59309 836:0.197507 837:0.220044 838:0.161473 839:-0.0766077 840:0.0172733 841:0.023141 842:0.0314317 843:-0.144933 844:0.159197 845:0.00595017 846:0.00698045 847:0.00949019 848:0.0178159 849:-0.172091 850:-0.059718 851:0.244514 852:0.255302 853:-0.097066 854:-0.120462 855:-0.0965093 856:-0.0592042 857:-0.0367762 858:-0.0215587 859:-0.00926565 860:0.00544554 861:0.0141942 862:0.0239499 863:0.0196343 864:0.0508164 865:0.065489 866:0.0785889 867:0.0975945 868:0.1114 869:0.115616 870:0.598576 871:0.169293 872:0.127209 873:0.186147 874:0.0228669 875:-0.134999 876:0.14076 877:0.120141 878:0.0652155 879:0.0633808 880:0.0539851 881:0.0624718 882:0.474233 883:0.164066 884:0.0544305 885:0.0666369 886:0.0725563 887:0.0771127 888:0.0733387 889:0.0739324 890:0.157188 891:0.359137 892:0.632097 893:0.277781 894:0.154456 895:0.268253 896:0.145352 897:0.199744 898:0.1458 899:0.129709 900:0.111871 901:0.0976146 902:0.08641 903:0.0824246 904:0.0676679 905:0.0541399 906:0.0376955 907:0.0151773 908:-0.0148061 909:-0.0433689 910:-0.0615591 911:-0.062686 912:-0.129493 913:-0.101148 914:-0.10787 915:-0.0810939 916:-0.0602687 917:-0.0522239 918:0.437393 919:0.296823 920:-0.0519406 921:0.0136271 922:0.095656 923:0.198145 924:0.283189 925:0.401831 926:0.487025 927:0.387922 928:0.328642 929:0.295003 930:0.198687 931:0.028344 932:0.00681524 933:-0.0281888 934:-0.0703986 935:-0.140024 936:-0.130145 937:-0.112145 938:-0.114736 939:-0.03632 940:-0.0104423 941:0.0259367 942:0.139191 943:0.148644 944:-0.0978559 945:0.0452995 946:0.0444192 947:0.045763 948:0.0480711 949:0.0605242 950:0.00220833 951:-0.442174 952:-0.752733 953:-0.224552 954:0.411588 955:0.403945 956:0.416905 957:0.343401 958:0.336064 959:0.39772 960:0.294638 961:0.261022 962:0.308075 963:0.325468 964:0.363246 965:0.438004 966:0.397419 967:0.337317 968:0.393832 969:0.464198 970:0.478611 971:0.457749 972:0.435729 973:0.408848 974:0.366961 975:0.486455 976:0.489289 977:0.366853 978:0.328917 979:0.404782 980:0.46664 981:0.417516 982:0.451936 983:0.494898 984:0.494085 985:0.401617 986:0.370626 987:0.409049 988:0.478225 989:0.472386 990:0.461522 991:0.44814 992:0.412262 993:0.394665 994:0.475438 995:0.520171 996:0.424404 997:0.37906 998:0.358716 999:0.420238 1000:0.382604 
388.1334661047871 0 1252.562252293228 0 16.2194516637807 954.442725162184 0 307.4386292746794 258.1911306652746 895.7704695713164 1:0.318749 2:0.334431 3:0.315593 4:0.243243 5:0.211308 6:0.184969 7:0.161949 8:0.155876 9:0.147848 10:0.212623 11:0.126442 12:0.0864314 13:0.143836 14:0.180683 15:0.212174 16:0.227302 17:0.242412 18:0.23724 19:0.25967 20:0.267385 21:0.213121 22:0.20185 23:0.272524 24:0.268095 25:0.231878 26:0.192046 27:0.219163 28:0.232344 29:0.174613 30:0.118053 31:0.0612325 32:0.0639617 33:0.124043 34:0.199641 35:0.166093 36:0.111716 37:0.0741744 38:0.0741744 39:0.108706 40:0.158227 41:0.137703 42:0.109499 43:0.239805 44:0.388454 45:0.322846 46:0.356307 47:0.365543 48:0.421006 49:0.391128 50:0.288854 51:0.375154 52:0.408367 53:0.45967 54:0.459065 55:0.439292 56:0.417962 57:0.408848 58:0.395764 59:0.366663 60:0.362927 61:0.335844 62:0.331809 63:0.404947 64:0.432476 65:0.428571 66:0.507701 67:0.466986 68:0.388565 69:0.353635 70:0.382356 71:0.413521 72:0.458425 73:0.480468 74:0.528961 75:0.485857 76:0.432401 77:0.400743 78:0.47129 79:0.468394 80:0.331854 81:0.404844 82:0.384882 83:0.425782 84:0.380821 85:0.313162 86:0.339917 87:0.311178 88:0.206488 89:0.184969 90:0.131922 91:0.166446 92:0.156872 93:0.146101 94:0.165019 95:0.105935 96:0.100166 97:0.169571 98:0.189225 99:0.210401 100:0.218462 101:0.252976 102:0.25967 103:0.267385 104:0.22109 105:0.198019 106:0.22438 107:0.266304 108:0.266864 109:0.218523 110:0.218799 111:0.242421 112:0.183108 113:0.124141 114:0.0848454 115:0.0712877 116:0.12257 117:0.196119 118:0.181131 119:0.139463 120:0.0968119 121:0.034642 122:0.094471 123:0.119305 124:0.154507 125:0.0942065 126:0.199241 127:0.231891 128:0.253021 129:0.370854 130:0.400528 131:0.400491 132:0.397511 133:0.338833 134:0.354889 135:0.390373 136:0.452471 137:0.471123 138:0.448319 139:0.431013 140:0.410517 141:0.0948094 142:0.392006 143:0.362051 144:0.357114 145:0.339917 146:0.401125 147:0.423903 148:0.398746 149:0.272712 150:0.262097 151:0.24295 152:0.228155 153:0.222817 154:0.226144 155:0.326996 156:0.279504 157:0.280224 158:0.326639 159:0.287116 160:0.377341 161:0.436922 162:0.489387 163:0.355457 164:0.631505 165:0.685262 166:0.768406 167:0.688683 168:0.596242 169:0.756288 170:0.8109 171:0.810352 172:0.81444 173:0.823003 174:0.78494 175:0.763954 176:0.857736 177:0.852453 178:0.759353 179:0.793802 180:0.75435 181:0.719525 182:0.670472 183:0.635366 184:0.533023 185:0.533594 186:0.524626 187:0.584978 188:0.351552 189:0.265532 190:0.374878 191:0.0204869 192:0.0191704 193:0.0931726 194:0.0651578 195:0.156346 196:0.27058 197:0.128267 198:-0.173065 199:-0.553313 200:0.105882 201:-0.217564 202:-0.563406 203:-0.638014 204:-0.336622 205:-0.405521 206:-0.200644 207:-0.249893 208:0.207162 209:0.0548784 210:0.343054 211:0.287668 212:0.513615 213:0.320674 214:0.219766 215:0.285805 216:0.218249 217:0.196808 218:0.298905 219:0.376821 220:0.414194 221:0.373894 222:0.339629 223:0.270638 224:0.371293 225:0.394629 226:0.418737 227:0.420944 228:0.426977 229:0.440569 230:0.064628 231:-0.0262869 232:-0.102728 233:-0.128251 234:-0.00684321 235:0.139624 236:0.392505 237:0.421924 238:0.399078 239:0.372041 240:0.352487 241:0.338668 242:0.279116 243:0.253146 244:0.203555 245:0.155047 246:0.0897625 247:0.0151476 248:-0.0127008 249:-0.0269742 250:0.00593176 251:0.0114086 252:0.00617789 253:0.00275241 254:0.0143339 255:0.00288872 256:-0.0854515 257:-0.15386 258:-0.16653 259:-0.0992146 260:-0.238557 261:-0.268837 262:-0.287038 263:-0.286873 264:-0.29159 265:-0.297434 266:-0.339224 267:-0.336399 268:-0.416402 269:-0.449388 270:-0.464488 271:-0.361455 272:-0.385755 273:-0.42846 274:-0.36648 275:-0.336939 276:-0.318709 277:-0.290259 278:-0.26197 279:-0.231998 280:-0.209499 281:-0.177946 282:-0.140887 283:-0.104525 284:-0.0639976 285:-0.0152769 286:0.0164402 287:0.052487 288:0.0983093 289:0.127154 290:0.0878967 291:0.0407537 292:-0.00176891 293:-0.0025149 294:-0.00952858 295:-0.00544547 296:0.0176279 297:0.114507 298:0.215769 299:0.2265 300:0.237277 301:0.274384 302:0.313025 303:0.323713 304:0.325146 305:0.321632 306:0.34371 307:0.121743 308:-0.125449 309:-0.125339 310:0.295458 311:0.222589 312:0.444443 313:0.472226 314:0.474559 315:0.475579 316:0.458981 317:0.427843 318:0.396963 319:0.356727 320:0.327722 321:0.296546 322:0.261857 323:0.231865 324:0.198223 325:0.156875 326:0.115889 327:0.0753386 328:0.0417441 329:0.0110749 330:-0.0269012 331:-0.0312584 332:-0.0275898 333:0.0175865 334:0.0296753 335:0.0234306 336:0.0430305 337:0.0334647 338:0.0238623 339:-0.0227796 340:-0.105865 341:-0.158129 342:-0.183451 343:-0.220315 344:-0.252289 345:-0.271125 346:-0.278565 347:-0.277837 348:-0.298568 349:-0.34413 350:-0.399835 351:-0.471162 352:-0.485013 353:-0.495518 354:-0.50224 355:-0.471534 356:-0.416566 357:-0.365256 358:-0.326655 359:-0.303361 360:-0.268909 361:-0.242684 362:-0.215009 363:-0.177459 364:-0.143653 365:-0.107665 366:-0.0764331 367:-0.0414144 368:-0.00995037 369:0.0194122 370:0.0576141 371:0.0937544 372:0.122733 373:0.118803 374:0.077035 375:0.0301477 376:0.00264198 377:-0.00739227 378:-0.0200758 379:-0.0267721 380:0.0464711 381:0.111963 382:0.193128 383:0.236102 384:0.253286 385:0.280284 386:0.303785 387:0.320616 388:0.32215 389:0.334084 390:0.353368 391:0.397432 392:0.435567 393:0.453482 394:0.488822 395:0.514338 396:0.517833 397:0.521843 398:0.523019 399:0.493649 400:0.441131 401:0.408813 402:0.371957 403:0.342191 404:0.307718 405:0.270876 406:0.231243 407:0.199025 408:0.15296 409:0.108441 410:0.0731221 411:0.0387385 412:-0.00835089 413:-0.0395886 414:-0.0547731 415:-0.0277447 416:0.0234686 417:0.0313122 418:0.0345104 419:0.0432001 420:0.0415223 421:0.0236566 422:0.0114728 423:-0.0761179 424:-0.152339 425:-0.172935 426:-0.210202 427:-0.245365 428:-0.263723 429:-0.279682 430:-0.27814 431:-0.282891 432:-0.309941 433:-0.360652 434:-0.388474 435:-0.392964 436:-0.434307 437:-0.457945 438:-0.48356 439:-0.429416 440:-0.371413 441:-0.325978 442:-0.296929 443:-0.270157 444:-0.245007 445:-0.222011 446:-0.182617 447:-0.149417 448:-0.117509 449:-0.0937123 450:-0.0531736 451:-0.0232288 452:0.0151146 453:0.0527063 454:0.0766478 455:0.119923 456:0.119084 457:0.109388 458:0.0529155 459:0.0188563 460:0.000941804 461:-0.0116401 462:-0.0206248 463:0.024808 464:0.0893057 465:0.162788 466:0.221282 467:0.243795 468:0.274777 469:0.300132 470:0.312189 471:0.321607 472:0.326254 473:0.3319 474:0.35481 475:0.406603 476:0.426092 477:0.457173 478:0.493389 479:0.494101 480:0.505742 481:0.502458 482:0.496698 483:0.446511 484:0.415666 485:0.385061 486:0.355723 487:0.325845 488:0.290937 489:0.249573 490:0.208321 491:0.176171 492:0.12661 493:0.090502 494:0.0579247 495:0.00564061 496:-0.0258362 497:-0.056193 498:-0.0457234 499:-0.00995271 500:0.032784 501:0.0339763 502:0.03531 503:0.037649 504:0.0212524 505:0.0184382 506:-0.0614053 507:-0.149063 508:-0.168143 509:-0.19587 510:-0.233354 511:-0.259784 512:-0.275722 513:-0.278028 514:-0.281112 515:-0.282389 516:-0.312139 517:-0.365526 518:-0.379073 519:-0.410709 520:-0.441882 521:-0.479549 522:-0.432463 523:-0.381042 524:-0.328544 525:-0.291152 526:-0.269798 527:-0.24403 528:-0.220365 529:-0.19385 530:-0.160834 531:-0.122897 532:-0.0938931 533:-0.0651836 534:-0.0318962 535:0.0130836 536:0.0426689 537:0.0683398 538:0.108234 539:0.123432 540:0.119774 541:0.071397 542:0.0252728 543:0.00581075 544:-0.0109716 545:-0.0174764 546:0.00255114 547:0.0745598 548:0.140312 549:0.216396 550:0.229721 551:0.255634 552:0.298665 553:0.313034 554:0.325584 555:0.3228 556:0.333444 557:0.329759 558:0.368181 559:0.387376 560:0.408511 561:0.43796 562:0.45634 563:0.461369 564:0.480792 565:0.506048 566:0.455954 567:0.415939 568:0.38544 569:0.353221 570:0.331438 571:0.297128 572:0.26025 573:0.218565 574:0.186725 575:0.137958 576:0.103987 577:0.0642625 578:0.0289203 579:-0.0117976 580:-0.0498793 581:-0.0488254 582:-0.033399 583:-0.0123454 584:-0.000831144 585:0.00988477 586:0.0394399 587:0.0267131 588:0.0164754 589:-0.0423074 590:-0.12872 591:-0.15974 592:-0.179901 593:-0.218129 594:-0.251034 595:-0.268581 596:-0.274551 597:-0.27812 598:-0.276981 599:-0.290035 600:-0.349304 601:-0.420161 602:-0.454773 603:-0.453802 604:-0.484718 605:-0.447503 606:-0.394567 607:-0.340982 608:-0.298751 609:-0.275552 610:-0.247606 611:-0.222505 612:-0.19947 613:-0.167851 614:-0.135158 615:-0.0994298 616:-0.0799308 617:-0.03941 618:-0.00848303 619:0.465308 620:0.0592553 621:0.0958095 622:0.123547 623:0.116007 624:0.0929987 625:0.0420114 626:0.0248856 627:0.00165784 628:-0.0100445 629:-0.0143465 630:0.056227 631:0.125832 632:0.201741 633:0.224843 634:0.246878 635:0.277931 636:0.301911 637:0.324581 638:0.323504 639:0.329399 640:0.323535 641:0.338523 642:0.373458 643:0.43825 644:0.441538 645:0.439105 646:0.483106 647:0.486406 648:0.491747 649:0.46596 650:0.420998 651:0.383848 652:0.352882 653:0.330906 654:0.297925 655:0.569959 656:0.646449 657:0.19052 658:0.156687 659:0.111317 660:0.0714259 661:0.0415446 662:-0.0145035 663:-0.0583898 664:-0.0522398 665:-0.0620436 666:-0.0048397 667:0.0250396 668:-0.0135783 669:0.0408173 670:0.0344964 671:0.0239585 672:-0.0222749 673:-0.108105 674:-0.160396 675:-0.173105 676:-0.217168 677:-0.26157 678:-0.270938 679:0.251292 680:0.2951 681:-0.279528 682:-0.239571 683:-0.0904486 684:0.0527401 685:-0.445319 686:-0.383914 687:-0.375545 688:-0.365167 689:-0.328181 690:-0.306021 691:-0.285795 692:-0.261774 693:-0.246276 694:-0.498939 695:-0.214911 696:-0.185312 697:-0.15664 698:0.320672 699:-0.0908009 700:-0.0503282 701:-0.0255569 702:0.0215826 703:0.0544653 704:0.267479 705:0.12927 706:0.131617 707:0.111382 708:0.0577503 709:0.0321222 710:0.0200369 711:0.000967477 712:0.0020489 713:0.0467999 714:0.128124 715:0.203812 716:0.242185 717:0.116222 718:0.277414 719:0.31641 720:0.337373 721:0.358092 722:0.41204 723:0.266416 724:0.385206 725:-0.15313 726:0.282008 727:0.430908 728:0.6014 729:0.287794 730:0.122422 731:0.158835 732:0.139649 733:0.124921 734:-0.237558 735:0.102843 736:0.0898073 737:0.0784045 738:0.0692381 739:0.0556869 740:0.0402291 741:0.0175642 742:-0.00993675 743:-0.029428 744:-0.0106566 745:0.150245 746:-0.0112467 747:0.0047456 748:0.00490437 749:0.0747381 750:0.193274 751:0.249844 752:0.222135 753:0.178068 754:0.149206 755:0.101907 756:-0.250261 757:0.0140341 758:-0.355856 759:-0.0131868 760:0.00679628 761:-0.000177377 762:-0.0557411 763:0.00825599 764:0.476453 765:0.0194341 766:0.0698014 767:0.170655 768:0.228804 769:0.434447 770:0.00494443 771:-0.0193936 772:0.33273 773:0.490041 774:0.640875 775:0.0289936 776:-0.0054685 777:0.00710208 778:0.0196124 779:0.034817 780:0.0401118 781:0.0533883 782:0.066431 783:0.16417 784:0.0977846 785:0.113775 786:0.0380804 787:0.211801 788:-0.377636 789:-0.0491329 790:0.118485 791:0.102554 792:0.0627524 793:0.0615296 794:0.0445608 795:0.0692415 796:0.0676661 797:0.0459148 798:0.110587 799:0.107018 800:0.452921 801:0.0699176 802:0.0724568 803:0.0753787 804:0.0768747 805:0.0661611 806:0.0841716 807:0.107822 808:0.0725388 809:0.130923 810:0.097401 811:0.134759 812:0.140721 813:-0.0483116 814:-0.416149 815:-0.180502 816:0.476601 817:0.419287 818:-0.0438759 819:0.461916 820:-0.380654 821:0.219942 822:0.0535679 823:0.0386548 824:0.0236833 825:0.0100816 826:-0.0205906 827:-0.0425399 828:0.142593 829:-0.0706416 830:-0.045449 831:-0.0116459 832:0.485167 833:0.00498871 834:0.582438 835:0.59309 836:0.201641 837:0.225052 838:0.16639 839:-0.0745039 840:0.0140994 841:0.023141 842:0.033647 843:-0.143758 844:0.159772 845:0.00743533 846:0.00698045 847:0.0102637 848:0.0161615 849:-0.174289 850:-0.0603213 851:0.24509 852:0.256148 853:-0.097066 854:-0.117548 855:-0.0938769 856:-0.0616313 857:-0.0345311 858:-0.0208425 859:-0.0128266 860:0.0040297 861:0.0156163 862:0.0282315 863:0.0196343 864:0.0508164 865:0.0682811 866:0.0779017 867:0.0948931 868:0.108084 869:0.116966 870:0.599184 871:0.165003 872:0.127209 873:0.183101 874:0.0235428 875:-0.138046 876:0.135657 877:0.116657 878:0.066067 879:0.0607342 880:0.0539851 881:0.0595364 882:0.475408 883:0.164066 884:0.0557601 885:0.0626144 886:0.0711925 887:0.0771127 888:0.0726207 889:0.0739324 890:0.150637 891:0.360854 892:0.632526 893:0.278616 894:0.156498 895:0.268839 896:0.144328 897:0.199744 898:0.146713 899:0.126338 900:0.111871 901:0.101716 902:0.08641 903:0.0758693 904:0.0643281 905:0.0592125 906:0.0368437 907:0.0117484 908:-0.013099 909:-0.0383595 910:-0.0567062 911:-0.0610744 912:-0.131073 913:-0.100294 914:-0.10612 915:-0.0775637 916:-0.0607262 917:-0.0510281 918:0.435149 919:0.297522 920:-0.0573992 921:0.014759 922:0.0968761 923:0.200805 924:0.284606 925:0.40639 926:0.482307 927:0.386412 928:0.330167 929:0.29193 930:0.198687 931:0.0235762 932:0.00376013 933:-0.0281888 934:-0.0691504 935:-0.140024 936:-0.130145 937:-0.108112 938:-0.109399 939:-0.0385758 940:-0.0123278 941:0.023182 942:0.133283 943:0.144634 944:-0.101886 945:0.0435942 946:0.0474772 947:0.0486393 948:0.0534372 949:0.0557867 950:-0.00362265 951:-0.442498 952:-0.739018 953:-0.217585 954:0.397495 955:0.403945 956:0.416905 957:0.363198 958:0.352878 959:0.354338 960:0.31494 961:0.253828 962:0.270762 963:0.317668 964:0.34803 965:0.452471 966:0.390017 967:0.321781 968:0.357496 969:0.435738 970:0.471631 971:0.450912 972:0.420447 973:0.4235 974:0.38148 975:0.451119 976:0.489289 977:0.397039 978:0.328917 979:0.372349 980:0.443382 981:0.433313 982:0.428283 983:0.502551 984:0.509661 985:0.393927 986:0.346114 987:0.376688 988:0.437785 989:0.44814 990:0.477745 991:0.48855 992:0.436998 993:0.427431 994:0.433846 995:0.448655 996:0.417111 997:0.316119 998:0.358716 999:0.396863 1000:0.390633 
3375.603455433661 0 6269.95786050148 168.5472586410639 0 219.8795879417208 0 0 0 5150.885454194511 1:0.186894 2:0.210743 3:0.29605 4:0.230373 5:0.230954 6:0.285905 7:0.267404 8:0.212451 9:0.275335 10:0.355432 11:0.341755 12:0.286053 13:0.349772 14:0.386772 15:0.353043 16:0.308559 17:0.259459 18:0.257817 19:0.333861 20:0.268177 21:0.285908 22:0.338869 23:0.38589 24:0.287157 25:0.337627 26:0.354267 27:0.336448 28:0.331174 29:0.359966 30:0.404513 31:0.331168 32:0.347234 33:0.373421 34:0.389852 35:0.342518 36:0.279386 37:0.33775 38:0.388738 39:0.358585 40:0.34967 41:0.361533 42:0.347711 43:0.328698 44:0.363687 45:0.272884 46:0.272281 47:0.332303 48:0.283907 49:0.337935 50:0.224773 51:0.257284 52:0.230784 53:0.284389 54:0.317052 55:0.312849 56:0.265891 57:0.31793 58:0.357422 59:0.35573 60:0.340332 61:0.259073 62:0.356965 63:0.317237 64:0.288183 65:0.342695 66:0.468733 67:0.350714 68:0.255509 69:0.254383 70:0.24487 71:0.20759 72:0.201757 73:0.185784 74:0.250648 75:0.210483 76:0.23641 77:0.285517 78:0.283186 79:0.179345 80:0.0528545 81:0.141669 82:0.186634 83:0.190451 84:0.166616 85:0.222494 86:0.263617 87:0.272687 88:0.249112 89:0.233613 90:0.267536 91:0.219084 92:0.266312 93:0.288909 94:0.376181 95:0.326232 96:0.299787 97:0.353664 98:0.37823 99:0.300108 100:0.235862 101:0.273553 102:0.306756 103:0.291325 104:0.225838 105:0.306601 106:0.382811 107:0.323952 108:0.332654 109:0.379832 110:0.364275 111:0.336448 112:0.34222 113:0.381014 114:0.358946 115:0.350803 116:0.372781 117:0.395175 118:0.39489 119:0.279699 120:0.30701 121:0.372628 122:0.371122 123:0.344844 124:0.377773 125:0.355357 126:0.36311 127:0.355172 128:0.287009 129:0.295357 130:0.315852 131:0.312689 132:0.323206 133:0.270477 134:0.240839 135:0.269583 136:0.275712 137:0.323058 138:0.316686 139:0.273974 140:0.280409 141:0.0556643 142:0.392794 143:0.331239 144:0.273883 145:0.328482 146:0.335209 147:0.307484 148:0.281003 149:0.266678 150:0.200352 151:0.131654 152:0.14573 153:0.160904 154:0.136858 155:0.13284 156:0.0768407 157:0.0890282 158:0.107192 159:0.117919 160:0.225483 161:0.278457 162:0.232901 163:0.0409522 164:0.464808 165:0.583768 166:0.670575 167:0.599179 168:0.568884 169:0.736838 170:0.808914 171:0.81865 172:0.821102 173:0.849581 174:0.8004 175:0.779693 176:0.874381 177:0.876633 178:0.796276 179:0.821374 180:0.785253 181:0.758126 182:0.700325 183:0.650723 184:0.539107 185:0.541212 186:0.544404 187:0.577239 188:0.376107 189:0.299227 190:0.388446 191:0.0221925 192:0.0263887 193:0.105274 194:0.0762467 195:0.171602 196:0.292806 197:0.161426 198:-0.127767 199:-0.503121 200:0.216786 201:0.0574019 202:0.0524429 203:-0.0331348 204:-0.0655712 205:-0.153065 206:-0.0197114 207:-0.0746685 208:0.296206 209:0.1159 210:0.341158 211:0.249345 212:0.459087 213:0.200051 214:0.0487999 215:0.0929109 216:-0.00653619 217:-0.0454842 218:0.0385648 219:0.158003 220:0.14667 221:0.0736538 222:6.16659e-05 223:-0.070001 224:-0.0030548 225:0.0118633 226:0.0227417 227:0.0249957 228:0.0476785 229:0.0699722 230:-0.131843 231:-0.235669 232:-0.313261 233:-0.3593 234:-0.270891 235:-0.152608 236:0.0612081 237:0.0937986 238:0.089474 239:0.0894503 240:0.08867 241:0.0991279 242:0.0792307 243:0.0902438 244:0.0735006 245:0.0477742 246:0.0160408 247:-0.010686 248:-0.00801421 249:-0.00268902 250:0.0460608 251:0.0823712 252:0.103699 253:0.134285 254:0.176998 255:0.195723 256:0.130227 257:0.0857043 258:0.0947785 259:0.168764 260:0.0787607 261:0.0740517 262:0.0657088 263:0.0787505 264:0.0893948 265:0.0962861 266:0.0552421 267:0.0391679 268:-0.0200028 269:-0.0453653 270:-0.0708677 271:0.000922239 272:0.00950278 273:-0.000146649 274:0.0133905 275:0.0350744 276:0.0469938 277:0.0489025 278:0.0521722 279:0.065413 280:0.0606224 281:0.0631624 282:0.0741382 283:0.087319 284:0.0990377 285:0.118081 286:0.123498 287:0.137023 288:0.146372 289:0.139518 290:0.0768808 291:0.0150533 292:-0.0466442 293:-0.0821301 294:-0.109073 295:-0.14018 296:-0.144318 297:-0.0614813 298:-0.00434712 299:0.00238063 300:-0.00584146 301:-0.000104539 302:0.00505446 303:0.0135565 304:0.015749 305:0.00779296 306:0.0248987 307:-0.0775857 308:-0.334618 309:-0.344921 310:-0.0517913 311:-0.122009 312:0.0530843 313:0.0685722 314:0.0586502 315:0.0620928 316:0.0920882 317:0.0817413 318:0.0680183 319:0.0551998 320:0.0385297 321:0.0219652 322:0.00390894 323:-0.00740999 324:-0.0200419 325:-0.0350443 326:-0.0394929 327:-0.0457304 328:-0.0576402 329:-0.0696662 330:-0.0655065 331:-0.035207 332:-0.00811342 333:0.0538343 334:0.0889094 335:0.118733 336:0.153914 337:0.179282 338:0.201731 339:0.172719 340:0.120957 341:0.0932673 342:0.0946917 343:0.0800172 344:0.0777158 345:0.0690462 346:0.0691789 347:0.0852901 348:0.0776065 349:0.0247824 350:-0.0194903 351:-0.0613332 352:-0.063255 353:-0.0704913 354:-0.0697712 355:-0.0278158 356:-0.00321537 357:0.000201677 358:0.00324696 359:0.015138 360:0.0315473 361:0.0368611 362:0.0510798 363:0.0701726 364:0.0821727 365:0.0986201 366:0.104101 367:0.1144 368:0.112633 369:0.116743 370:0.135917 371:0.142825 372:0.13368 373:0.105191 374:0.0490301 375:-0.0117924 376:-0.0673444 377:-0.100329 378:-0.141356 379:-0.172543 380:-0.116363 381:-0.0685467 382:-0.0124328 383:0.0002049 384:-0.00403368 385:0.00708334 386:0.00752239 387:0.0160344 388:0.00915385 389:0.00711481 390:0.0266772 391:0.0724347 392:0.101636 393:0.105374 394:0.130201 395:0.151807 396:0.143797 397:0.126133 398:0.115336 399:0.107211 400:0.0816125 401:0.06265 402:0.0480504 403:0.0380077 404:0.0164025 405:0.000235109 406:-0.0119631 407:-0.0175925 408:-0.0366272 409:-0.0436292 410:-0.0469338 411:-0.0545917 412:-0.0837236 413:-0.0759837 414:-0.0527038 415:-0.00278861 416:0.0620597 417:0.0875826 418:0.124592 419:0.149596 420:0.183984 421:0.192017 422:0.202421 423:0.144385 424:0.0964862 425:0.0990342 426:0.0883179 427:0.0784064 428:0.073175 429:0.0668746 430:0.0800499 431:0.0935152 432:0.0648115 433:0.0220816 434:0.0262434 435:0.0520599 436:0.0251152 437:-0.0132607 438:-0.038756 439:-0.0108916 440:0.00954589 441:0.00752045 442:0.0210406 443:0.0357021 444:0.0404669 445:0.0522967 446:0.0744506 447:0.0853913 448:0.0957815 449:0.0987963 450:0.113951 451:0.108718 452:0.118912 453:0.138626 454:0.139222 455:0.142525 456:0.110445 457:0.0820879 458:0.014826 459:-0.0400155 460:-0.089578 461:-0.118861 462:-0.156765 463:-0.135405 464:-0.0843749 465:-0.0397972 466:0.000712263 467:-0.00641523 468:0.00209227 469:0.00393907 470:0.0101023 471:0.0111053 472:0.00514279 473:-0.0037509 474:0.0211401 475:0.0643124 476:0.0699871 477:0.0848469 478:0.106097 479:0.100892 480:0.0784358 481:0.059052 482:0.083133 483:0.0821252 484:0.0678218 485:0.0548155 486:0.0479201 487:0.0295331 488:0.0116137 489:-0.00312434 490:-0.0185615 491:-0.0249332 492:-0.038234 493:-0.0427977 494:-0.04478 495:-0.0773473 496:-0.0779042 497:-0.0672404 498:-0.0268528 499:0.0275388 500:0.0866447 501:0.116458 502:0.142969 503:0.172143 504:0.181786 505:0.211079 506:0.150429 507:0.0946867 508:0.0939108 509:0.0934537 510:0.0770392 511:0.0741902 512:0.065614 513:0.072999 514:0.0879151 515:0.099632 516:0.0818745 517:0.0470815 518:0.0525401 519:0.0376045 520:0.00529039 521:-0.0322958 522:-0.00673477 523:0.0142487 524:0.0188697 525:0.0290561 526:0.0400421 527:0.0466534 528:0.055011 529:0.0729412 530:0.0859317 531:0.0945596 532:0.104079 533:0.109487 534:0.111704 535:0.122365 536:0.127504 537:0.133054 538:0.14095 539:0.122107 540:0.0953842 541:0.035885 542:-0.0271162 543:-0.0805331 544:-0.113667 545:-0.150318 546:-0.152369 547:-0.0951112 548:-0.0529654 549:0.00236945 550:-0.00468851 551:-0.000724944 552:0.00472103 553:0.00839366 554:0.0139767 555:0.00865208 556:0.0031364 557:-0.0105024 558:0.0220155 559:0.0297614 560:0.0283639 561:0.0402157 562:0.0494764 563:0.0343685 564:0.0395329 565:0.0738294 566:0.0778919 567:0.0596348 568:0.0470374 569:0.0401442 570:0.0309613 571:0.0131939 572:-0.000967246 573:-0.0122731 574:-0.0195797 575:-0.0418852 576:-0.0378332 577:-0.0424343 578:-0.0571844 579:-0.0770118 580:-0.0727804 581:-0.0379503 582:0.000970011 583:0.0348549 584:0.067915 585:0.112316 586:0.160232 587:0.178017 588:0.202932 589:0.160066 590:0.107857 591:0.0932909 592:0.0989485 593:0.0844648 594:0.0796111 595:0.0692567 596:0.0726442 597:0.0823662 598:0.100203 599:0.0977471 600:0.0553838 601:0.0196963 602:0.00529694 603:0.00570902 604:-0.0327022 605:-0.0168332 606:0.0105841 607:0.0217773 608:0.0248373 609:0.0350995 610:0.0484751 611:0.0560395 612:0.0685918 613:0.0827831 614:0.0945831 615:0.105571 616:0.101859 617:0.112489 618:0.115037 619:0.517504 620:0.130684 621:0.138867 622:0.129907 623:0.0982384 624:0.0611139 625:-0.00345275 626:-0.049663 627:-0.0946949 628:-0.131051 629:-0.162387 630:-0.110449 631:-0.0578433 632:-0.00718223 633:-0.0021831 634:-0.00401304 635:0.00704729 636:0.00654246 637:0.0124013 638:0.00813073 639:0.00324084 640:-0.0124413 641:-0.00683659 642:-0.00455362 643:0.0203496 644:0.0138978 645:0.0116172 646:0.0527685 647:0.0423702 648:0.0528749 649:0.0721761 650:0.0653092 651:0.0446608 652:0.0357276 653:0.0270457 654:0.00759773 655:0.417186 656:0.540355 657:-0.0166056 658:-0.0304274 659:-0.0394404 660:-0.0415484 661:-0.046727 662:-0.0790791 663:-0.0752309 664:-0.0501424 665:-0.0316471 666:0.0417993 667:0.0921112 668:0.0883741 669:0.161557 670:0.18905 671:0.206887 672:0.182485 673:0.125853 674:0.0903705 675:0.0951343 676:0.0895484 677:0.0816114 678:0.0724488 679:0.457743 680:0.495436 681:0.0911856 682:0.12678 683:0.21848 684:0.324132 685:-0.0261171 686:-0.00973966 687:-0.026812 688:-0.0151216 689:0.0119278 690:0.0278095 691:0.023215 692:0.0325493 693:0.0471737 694:-0.318401 695:0.058777 696:0.0706313 697:0.0811379 698:0.456527 699:0.103069 700:0.116904 701:0.121004 702:0.12406 703:0.139635 704:0.323775 705:0.146748 706:0.116194 707:0.0880477 708:0.0184556 709:-0.0346855 710:-0.079153 711:-0.115166 712:-0.147897 713:-0.128709 714:-0.0666443 715:-0.0249004 716:-0.000599221 717:-0.112543 718:0.00176058 719:0.00472777 720:0.0101416 721:0.0120265 722:0.00748545 723:0.00331994 724:0.0597949 725:-0.290902 726:0.24731 727:0.376083 728:0.560534 729:0.23241 730:0.0401677 731:0.0745211 732:0.0711468 733:0.0746973 734:-0.27376 735:0.051274 736:0.0460616 737:0.0333654 738:0.0196549 739:0.00640033 740:-0.00466569 741:-0.0198773 742:-0.0386004 743:-0.0425112 744:-0.014868 745:0.142665 746:-0.0261465 747:-0.00353975 748:0.00536572 749:0.0789555 750:0.19865 751:0.262279 752:0.247672 753:0.213436 754:0.19886 755:0.166574 756:-0.203906 757:0.0854877 758:-0.31397 759:0.0545585 760:0.0759379 761:0.0747291 762:0.0133358 763:0.0792863 764:0.516079 765:0.0972488 766:0.142954 767:0.185549 768:0.293739 769:0.474479 770:0.0802485 771:0.0460192 772:0.347726 773:0.508425 774:0.65633 775:0.0684622 776:0.0380105 777:0.0452121 778:0.0495254 779:0.068864 780:0.0831732 781:0.0960739 782:0.107048 783:0.189162 784:0.117379 785:0.120995 786:0.051274 787:0.226297 788:-0.375304 789:-0.0502767 790:0.114258 791:0.100069 792:0.0670144 793:0.0334406 794:0.0123338 795:0.0196772 796:0.00193332 797:-0.0214952 798:0.0383636 799:0.0323653 800:0.409841 801:-0.00195056 802:-0.0014636 803:0.0428077 804:0.060573 805:0.0518909 806:0.0539393 807:0.088831 808:0.0624871 809:0.12874 810:0.0924394 811:0.126371 812:0.138556 813:-0.054702 814:-0.424333 815:-0.188866 816:0.474719 817:0.415176 818:-0.0526425 819:0.456786 820:-0.385617 821:0.204866 822:0.0279409 823:0.0106875 824:-0.0026006 825:-0.0166313 826:-0.0400589 827:-0.0557615 828:0.129688 829:-0.101726 830:-0.0800253 831:-0.0400271 832:0.473526 833:-0.0198566 834:0.575915 835:0.587334 836:0.190589 837:0.225138 838:0.170992 839:-0.0713127 840:0.0284837 841:0.0300609 842:0.0392706 843:-0.138024 844:0.173077 845:0.0264759 846:0.0240309 847:0.0277566 848:0.033638 849:-0.164316 850:-0.0554331 851:0.247172 852:0.258362 853:-0.085059 854:-0.117449 855:-0.08148 856:-0.0449529 857:-0.0250899 858:-0.0186205 859:-0.000327023 860:0.0189868 861:0.0238757 862:0.0389812 863:0.037261 864:0.0742869 865:0.0938753 866:0.104122 867:0.123198 868:0.127403 869:0.132382 870:0.607748 871:0.193361 872:0.155427 873:0.20835 874:0.0442694 875:-0.116308 876:0.15618 877:0.130258 878:0.0772455 879:0.0621593 880:0.047728 881:0.0551897 882:0.470156 883:0.160263 884:0.0475095 885:0.0546211 886:0.0545308 887:0.058337 888:0.0590336 889:0.0574 890:0.139784 891:0.353834 892:0.627128 893:0.276154 894:0.150475 895:0.26579 896:0.140861 897:0.181452 898:0.130817 899:0.119251 900:0.106213 901:0.0854363 902:0.0734422 903:0.0718353 904:0.0490544 905:0.0317902 906:0.0083428 907:-0.0160785 908:-0.041223 909:-0.0661778 910:-0.0784099 911:-0.0803719 912:-0.155903 913:-0.132686 914:-0.139328 915:-0.103113 916:-0.073972 917:-0.05843 918:0.426214 919:0.287796 920:-0.0638375 921:0.0199835 922:0.107388 923:0.218263 924:0.296815 925:0.415702 926:0.505293 927:0.413054 928:0.370003 929:0.332073 930:0.236706 931:0.0616376 932:0.031452 933:-0.0174965 934:-0.0646374 935:-0.135689 936:-0.123911 937:-0.105196 938:-0.10075 939:-0.0178174 940:0.00333575 941:0.0319598 942:0.151082 943:0.183961 944:-0.0714027 945:0.0753389 946:0.0874662 947:0.0927428 948:0.0986017 949:0.100975 950:0.0303955 951:-0.433297 952:-0.705453 953:-0.179896 954:0.57444 955:0.524972 956:0.554286 957:0.497589 958:0.530359 959:0.525016 960:0.413847 961:0.362664 962:0.293915 963:0.291927 964:0.310574 965:0.344524 966:0.327766 967:0.264217 968:0.281841 969:0.293989 970:0.297655 971:0.314691 972:0.274011 973:0.273974 974:0.287669 975:0.345656 976:0.397754 977:0.296289 978:0.230252 979:0.340748 980:0.324924 981:0.293341 982:0.322551 983:0.457221 984:0.394913 985:0.263801 986:0.277394 987:0.248686 988:0.223973 989:0.201948 990:0.19426 991:0.201948 992:0.144609 993:0.223272 994:0.264934 995:0.270375 996:0.158485 997:0.0409522 998:0.130274 999:0.206473 1000:0.162326 
