svm_type c_svc
kernel_type rbf
gamma 0.00195312
nr_class 11
total_sv 309
rho -2.64732 0.0818925 2.84091 2.6247 -2.30494 -0.248029 4.10767 1.24673 0.438609 -11.3586 0.625155 -1.8891 1.88885 -0.545899 4.28218 0.144086 1.96243 0.127587 -21.9335 -0.536124 0.831736 -1.68623 -1.03021 0.525763 0.870958 0.193125 -8.7643 2.99071 -1.411 5.19352 0.438872 0.434704 1.50138 -25.4002 -1.53977 -1.98008 -1.27774 0.12763 -0.285227 -9.81815 0.189563 3.55254 3.09034 1.70621 -7.10612 2.6527 1.81796 -1.59935 -28.1714 1.49604 -0.154078 -12.0622 -0.293127 -12.3133 -11.1869
label 7 10 9 8 6 3 4 5 2 1 0
nr_sv 34 32 28 37 21 28 36 23 17 22 31
SV
334.5189496044018 0 0 0 0 0 0 0 15.87272664066703 78.97072281247222 1:0.305963 2:0.373534 3:0.346985 4:0.255645 5:0.26138 6:0.297823 7:0.322914 8:0.244328 9:0.236927 10:0.27347 11:0.236735 12:0.200568 13:0.186986 14:0.244489 15:0.253478 16:0.204984 17:0.175809 18:0.216711 19:0.227619 20:0.189039 21:0.117926 22:0.212228 23:0.280121 24:0.263376 25:0.294559 26:0.252485 27:0.283968 28:0.263895 29:0.0139605 30:0.232629 31:0.171133 32:0.187752 33:0.217056 34:0.303996 35:0.217375 36:0.133282 37:0.139817 38:0.162968 39:0.183109 40:0.183498 41:0.110453 42:0.116165 43:0.150724 44:0.172812 45:0.243012 46:0.192976 47:0.194512 48:0.20153 49:0.192343 50:0.147042 51:0.240477 52:0.256895 53:0.307006 54:0.312011 55:0.358287 56:0.296975 57:0.301399 58:0.375468 59:0.342213 60:0.287542 61:0.286071 62:0.359044 63:0.380901 64:0.337219 65:0.377199 66:0.430692 67:0.352912 68:0.286071 69:0.240439 70:0.275794 71:0.282663 72:0.273298 73:0.281111 74:0.289193 75:0.286071 76:0.258139 77:0.326681 78:0.389892 79:0.301217 80:0.196692 81:0.256316 82:0.292176 83:0.437029 84:0.366287 85:0.375713 86:0.334719 87:0.301332 88:0.23301 89:0.321416 90:0.322914 91:0.31066 92:0.254975 93:0.264616 94:0.279719 95:0.21901 96:0.186597 97:0.198692 98:0.215337 99:0.23467 100:0.163501 101:0.136242 102:0.212427 103:0.227619 104:0.110058 105:0.189247 106:0.268218 107:0.254848 108:0.276686 109:0.274766 110:0.305187 111:0.276215 112:0.206996 113:0.253007 114:0.206488 115:0.165136 116:0.209912 117:0.278732 118:0.265908 119:0.160904 120:0.139903 121:0.155136 122:0.167263 123:0.175495 124:0.15524 125:0.11989 126:0.176102 127:0.166005 128:0.196752 129:0.202107 130:0.228808 131:0.215068 132:0.185578 133:0.165193 134:0.227553 135:0.279346 136:0.292219 137:0.3215 138:0.363774 139:0.305156 140:0.296975 141:0.109367 142:0.375468 143:0.317454 144:0.320008 145:0.334719 146:0.384445 147:0.335912 148:0.331812 149:0.253169 150:0.156353 151:0.148817 152:0.0958924 153:0.155422 154:0.179129 155:0.183015 156:0.132099 157:0.135673 158:0.188505 159:0.116068 160:0.238432 161:0.332163 162:0.334709 163:0.177123 164:0.530484 165:0.633012 166:0.749979 167:0.657905 168:0.607779 169:0.76173 170:0.813585 171:0.816794 172:0.833122 173:0.849991 174:0.817931 175:0.785689 176:0.869611 177:0.867357 178:0.777521 179:0.809201 180:0.760255 181:0.736399 182:0.677638 183:0.623529 184:0.516078 185:0.536117 186:0.522524 187:0.566584 188:0.336898 189:0.273856 190:0.37528 191:0.191434 192:0.0236001 193:0.20135 194:0.0696843 195:0.158893 196:0.287969 197:0.127587 198:-0.155818 199:-0.670765 200:0.0907673 201:-0.115593 202:-0.123178 203:-0.241641 204:-0.314705 205:-0.14767 206:-0.25562 207:-0.318321 208:0.226564 209:0.0463951 210:0.314021 211:0.252134 212:0.481123 213:0.283553 214:0.265765 215:0.16289 216:0.0750911 217:0.0434132 218:0.133592 219:0.233984 220:0.239967 221:0.185247 222:0.136502 223:0.074684 224:0.168515 225:0.208816 226:0.237169 227:0.237816 228:0.251234 229:0.263795 230:0.434141 231:-0.134478 232:-0.21374 233:-0.25051 234:-0.138508 235:0.00212577 236:0.25131 237:0.289237 238:0.273536 239:0.261947 240:0.251431 241:0.242509 242:0.196738 243:0.176206 244:0.145336 245:0.119851 246:0.0853458 247:0.049469 248:0.0415262 249:0.034242 250:0.054926 251:0.0833763 252:0.0924546 253:0.0871726 254:0.11014 255:0.120041 256:0.0483952 257:-0.00505398 258:-0.00462762 259:0.0681805 260:-0.0354405 261:-0.0473404 262:-0.0605649 263:-0.0650383 264:-0.0716404 265:-0.0855909 266:-0.13894 267:-0.167517 268:-0.244898 269:-0.276458 270:-0.290965 271:-0.200272 272:-0.198532 273:-0.26417 274:-0.183321 275:-0.157544 276:-0.155251 277:-0.136 278:-0.123817 279:-0.119142 280:-0.0974097 281:-0.0822684 282:-0.0613917 283:-0.0343567 284:0.00474025 285:0.0352668 286:0.0546228 287:0.0651966 288:0.0772353 289:0.0816891 290:0.0509313 291:-0.0118102 292:-0.0710073 293:-0.0960412 294:-0.0994462 295:-0.0948314 296:-0.0853499 297:-0.00566133 298:0.069121 299:0.0789518 300:0.0788964 301:0.0943026 302:0.107071 303:0.120119 304:0.129317 305:0.141042 306:0.167724 307:0.0211529 308:-0.218745 309:-0.223274 310:0.133582 311:0.0607513 312:0.252868 313:0.268105 314:0.270727 315:0.278318 316:0.285169 317:0.255463 318:0.247526 319:0.233804 320:0.218118 321:0.192277 322:0.165238 323:0.145923 324:0.118242 325:0.0940002 326:0.0564888 327:0.0286083 328:0.00758984 329:-0.00258316 330:-0.00465715 331:0.015071 332:0.0349156 333:0.0700485 334:0.103542 335:0.110723 336:0.114482 337:0.117442 338:0.12906 339:0.106623 340:0.0352946 341:7.47035e-05 342:-0.00843213 343:-0.0301226 344:-0.040726 345:-0.0545994 346:-0.0654088 347:-0.0721616 348:-0.0953564 349:-0.154362 350:-0.224583 351:-0.291675 352:-0.290969 353:-0.295569 354:-0.291105 355:-0.282703 356:-0.229751 357:-0.201065 358:-0.166154 359:-0.147075 360:-0.131193 361:-0.127046 362:-0.0978118 363:-0.0876591 364:-0.0629666 365:-0.0417142 366:-0.01721 367:0.00443467 368:0.0341007 369:0.0542698 370:0.0689427 371:0.0778947 372:0.0727805 373:0.0532583 374:0.0271381 375:-0.0349265 376:-0.084544 377:-0.0972008 378:-0.100322 379:-0.115083 380:-0.0550228 381:-0.00303623 382:0.0667513 383:0.0874593 384:0.0918748 385:0.108859 386:0.115893 387:0.12787 388:0.135286 389:0.146897 390:0.176977 391:0.231943 392:0.278035 393:0.296629 394:0.321632 395:0.3374 396:0.3278 397:0.311392 398:0.305873 399:0.299647 400:0.240908 401:0.210081 402:0.194877 403:0.190489 404:0.180012 405:0.165949 406:0.145424 407:0.126915 408:0.1038 409:0.0644681 410:0.0386454 411:0.0195152 412:-0.00922891 413:-0.00791371 414:0.00513209 415:0.0274778 416:0.0811932 417:0.111948 418:0.12543 419:0.1315 420:0.135106 421:0.126308 422:0.137353 423:0.062415 424:0.00377151 425:-0.00261579 426:-0.023332 427:-0.039699 428:-0.0505038 429:-0.0624086 430:-0.0716236 431:-0.0748666 432:-0.114394 433:-0.17888 434:-0.197842 435:-0.187204 436:-0.224824 437:-0.248852 438:-0.280439 439:-0.239139 440:-0.203819 441:-0.16978 442:-0.138726 443:-0.125625 444:-0.116936 445:-0.108748 446:-0.0977425 447:-0.0710629 448:-0.0495759 449:-0.0277631 450:-0.00655982 451:0.0228363 452:0.048387 453:0.0714388 454:0.0742047 455:0.0827545 456:0.0597339 457:0.048739 458:-0.00123073 459:-0.0599023 460:-0.0875645 461:-0.0922533 462:-0.106693 463:-0.0735497 464:-0.0259469 465:0.0359442 466:0.0824071 467:0.0827516 468:0.0983847 469:0.106784 470:0.117586 471:0.125169 472:0.138287 473:0.143931 474:0.178921 475:0.242132 476:0.261665 477:0.279706 478:0.306583 479:0.298153 480:0.284071 481:0.271456 482:0.295109 483:0.27158 484:0.245426 485:0.233398 486:0.223026 487:0.209293 488:0.185231 489:0.161863 490:0.135545 491:0.112964 492:0.0759276 493:0.0418808 494:0.0208874 495:-0.00888324 496:-0.0131999 497:-0.0105998 498:0.0153298 499:0.0413841 500:0.102957 501:0.125859 502:0.127365 503:0.124361 504:0.11698 505:0.135106 506:0.0739564 507:0.00373116 508:-0.00207629 509:-0.0144429 510:-0.0361717 511:-0.0474484 512:-0.0598307 513:-0.0688661 514:-0.0728985 515:-0.0792026 516:-0.112242 517:-0.175329 518:-0.187777 519:-0.209386 520:-0.233513 521:-0.26454 522:-0.250805 523:-0.206314 524:-0.171804 525:-0.139472 526:-0.12262 527:-0.112266 528:-0.110008 529:-0.100833 530:-0.0741598 531:-0.0513223 532:-0.0266812 533:-0.0120383 534:0.0182686 535:0.0444645 536:0.0638483 537:0.0702507 538:0.0803205 539:0.068794 540:0.0516671 541:0.0160703 542:-0.0509475 543:-0.0842132 544:-0.101552 545:-0.10389 546:-0.0936657 547:-0.0354076 548:0.0180028 549:0.0809238 550:0.0822842 551:0.0934221 552:0.104848 553:0.113627 554:0.123714 555:0.135128 556:0.14425 557:0.146866 558:0.197675 559:0.220188 560:0.229628 561:0.251908 562:0.258004 563:0.243385 564:0.243416 565:0.274633 566:0.269794 567:0.236071 568:0.223038 569:0.215883 570:0.206835 571:0.191662 572:0.16614 573:0.141296 574:0.116426 575:0.0896175 576:0.0527021 577:0.0244494 578:0.00839745 579:-0.0126577 580:-0.0151322 581:0.0110595 582:0.0384195 583:0.0539821 584:0.0840191 585:0.108614 586:0.122809 587:0.11914 588:0.127568 589:0.0870513 590:0.0157827 591:0.00334013 592:-0.00346886 593:-0.0272005 594:-0.0396953 595:-0.0538917 596:-0.060902 597:-0.073176 598:-0.0720108 599:-0.0927136 600:-0.163275 601:-0.228286 602:-0.245186 603:-0.239223 604:-0.264741 605:-0.274069 606:-0.21917 607:-0.182158 608:-0.144669 609:-0.120929 610:-0.109118 611:-0.103791 612:-0.0868725 613:-0.0736772 614:-0.0497786 615:-0.0305717 616:-0.0159216 617:0.00720151 618:0.0309819 619:0.481027 620:0.261086 621:0.0747399 622:0.070416 623:0.048031 624:0.0376253 625:-0.0276144 626:-0.0704811 627:-0.0893093 628:-0.0987388 629:-0.10347 630:-0.0468381 631:0.00641354 632:0.070195 633:0.0800716 634:0.0884551 635:0.10415 636:0.109924 637:0.119621 638:0.127207 639:0.139258 640:0.140053 641:0.159174 642:0.193478 643:0.248182 644:0.24227 645:0.232613 646:0.265553 647:0.255851 648:0.258039 649:0.282224 650:0.242764 651:0.219956 652:0.20721 653:0.201668 654:0.183702 655:0.513517 656:0.555821 657:0.122173 658:0.0975588 659:0.0607602 660:0.0290808 661:0.0138231 662:-0.0138376 663:-0.00853134 664:0.00909904 665:0.0154504 666:0.0751808 667:0.111697 668:0.0869435 669:0.140556 670:0.13674 671:0.134901 672:0.106636 673:0.0395912 674:-0.00399685 675:-0.00613887 676:-0.0184062 677:-0.0332779 678:-0.34097 679:0.382917 680:0.413451 681:-0.0740755 682:-0.0539024 683:0.0505211 684:0.169072 685:-0.271609 686:-0.256462 687:-0.259466 688:-0.282467 689:-0.217146 690:-0.180194 691:-0.148636 692:-0.121492 693:-0.110394 694:-0.416321 695:-0.0943396 696:-0.100837 697:-0.0712204 698:0.375321 699:-0.058192 700:-0.0116421 701:0.0216235 702:0.0497657 703:0.0709921 704:0.270619 705:0.0849347 706:0.0645862 707:0.0563565 708:0.00469719 709:-0.0577218 710:-0.0744528 711:-0.093218 712:-0.0953059 713:-0.0602128 714:-0.00726196 715:0.0493849 716:0.0782483 717:-0.0354654 718:0.0949676 719:0.103923 720:0.114226 721:0.127456 722:0.142936 723:0.0991746 724:0.199686 725:0.230414 726:0.406855 727:0.514348 728:0.660668 729:0.39898 730:0.254167 731:0.311501 732:0.290449 733:0.250216 734:-0.165156 735:0.221664 736:0.208861 737:0.198087 738:0.176348 739:0.152534 740:0.130846 741:0.113542 742:0.0791428 743:0.0487457 744:0.0249857 745:0.129272 746:0.0407203 747:0.056675 748:0.0545498 749:0.0912588 750:0.199521 751:0.281917 752:0.241674 753:0.174906 754:0.138037 755:0.0917057 756:-0.255901 757:-0.00277961 758:-0.372282 759:-0.0457556 760:-0.0351603 761:-0.0446281 762:-0.105803 763:-0.0638715 764:0.432587 765:-0.0793756 766:-0.0814388 767:0.14395 768:0.107081 769:0.362947 770:-0.139166 771:-0.159058 772:-0.122162 773:0.458346 774:0.51872 775:-0.128544 776:-0.106266 777:-0.0927754 778:-0.085771 779:-0.079812 780:-0.0622434 781:-0.0451648 782:-0.0275924 783:0.0883764 784:0.0103745 785:0.0387023 786:-0.0160388 787:0.163817 788:-0.406199 789:-0.0914809 790:0.0692127 791:0.0553864 792:0.0215921 793:0.0237324 794:0.0288975 795:0.0778649 796:0.0772603 797:0.0543776 798:0.11401 799:0.126179 800:0.46942 801:0.105953 802:0.108014 803:0.11972 804:0.129271 805:0.137853 806:0.148693 807:0.193724 808:0.19344 809:0.277767 810:0.259108 811:0.28528 812:0.280061 813:0.0751802 814:-0.235084 815:0.311622 816:0.512809 817:0.46168 818:0.00828434 819:0.50978 820:-0.0181488 821:0.309533 822:0.159257 823:0.14024 824:0.120827 825:0.106589 826:0.0561866 827:0.015359 828:0.184145 829:-0.0253785 830:-0.00730284 831:0.020306 832:0.499084 833:0.0643425 834:0.593804 835:0.587242 836:0.167746 837:0.169773 838:0.115389 839:-0.51231 840:0.0338549 841:0.056069 842:0.0198625 843:-0.142443 844:0.170068 845:0.0214682 846:0.0181801 847:0.0175028 848:0.0230758 849:-0.172561 850:-0.0646371 851:0.241266 852:0.257732 853:-0.0988366 854:-0.164238 855:-0.130087 856:-0.0854878 857:-0.0584505 858:-0.0291628 859:-0.0104842 860:0.00430673 861:0.0194269 862:0.0320394 863:0.128102 864:0.0553748 865:0.0691535 866:0.0821586 867:0.0966259 868:0.112864 869:0.123871 870:0.602039 871:0.174572 872:0.133885 873:0.14477 874:0.0268355 875:-0.293105 876:0.128285 877:0.107367 878:0.0578359 879:0.052659 880:0.0431921 881:0.0410583 882:0.464955 883:0.150316 884:0.0410146 885:0.0507705 886:0.0553875 887:0.0595696 888:0.0595859 889:0.0636383 890:0.144561 891:0.353412 892:0.628906 893:0.276465 894:0.147149 895:0.266451 896:0.141623 897:0.20894 898:0.172767 899:0.142001 900:0.111026 901:0.0913331 902:0.0776424 903:0.0687677 904:0.0521815 905:0.037925 906:0.0201566 907:-0.0016777 908:-0.0236865 909:-0.0440254 910:-0.0616123 911:-0.0761157 912:-0.147802 913:-0.116665 914:-0.120705 915:-0.0905079 916:-0.0656069 917:-0.0535792 918:0.436473 919:0.300227 920:-0.0570073 921:0.0174293 922:0.100975 923:0.221264 924:0.306408 925:0.424469 926:0.500212 927:0.404341 928:0.349792 929:0.315567 930:0.217366 931:0.0462434 932:0.0104187 933:-0.0318969 934:-0.0774401 935:-0.139103 936:-0.210738 937:-0.116302 938:-0.116515 939:-0.0623601 940:-0.0549328 941:0.0285281 942:0.147056 943:0.158412 944:-0.084991 945:0.0465286 946:0.046497 947:0.0515584 948:0.0720809 949:0.0429197 950:0.0112649 951:0.147992 952:-0.730693 953:-0.207359 954:0.324267 955:0.437827 956:0.441856 957:0.377411 958:0.352159 959:0.33803 960:0.232691 961:0.184283 962:0.217375 963:0.210023 964:0.206009 965:0.263099 966:0.18884 967:0.169007 968:0.266654 969:0.281584 970:0.327367 971:0.323282 972:0.336299 973:0.29783 974:0.300512 975:0.386427 976:0.395014 977:0.260719 978:0.268168 979:0.350936 980:0.384646 981:0.334533 982:0.365105 983:0.426981 984:0.373817 985:0.281151 986:0.27436 987:0.258786 988:0.282663 989:0.268884 990:0.281614 991:0.276966 992:0.254123 993:0.241756 994:0.302152 995:0.360703 996:0.273679 997:0.204559 998:0.244906 999:0.309959 1000:0.305207 
458.9589487861951 0 0 0 0 22.67850986357987 0 7.114736958518219 18.17920288787002 467.2298680314735 1:0.356708 2:0.373534 3:0.346985 4:0.278577 5:0.256828 6:0.316794 7:0.317992 8:0.300154 9:0.259602 10:0.282325 11:0.266835 12:0.223775 13:0.240639 14:0.209578 15:0.240652 16:0.238787 17:0.159257 18:0.156411 19:0.235533 20:0.231576 21:0.121961 22:0.177739 23:0.280121 24:0.278098 25:0.242069 26:0.233192 27:0.303449 28:0.259716 29:0.387242 30:0.190155 31:0.131988 32:0.187752 33:0.231708 34:0.289987 35:0.235936 36:0.167476 37:0.147646 38:0.15112 39:0.164364 40:0.187135 41:0.162311 42:0.116165 43:0.150724 44:0.172812 45:0.253574 46:0.204116 47:0.247464 48:0.216828 49:0.203203 50:0.120289 51:0.229403 52:0.268039 53:0.293047 54:0.298453 55:0.347486 56:0.296975 57:0.345543 58:0.364048 59:0.346188 60:0.35013 61:0.310395 62:0.330561 63:0.396275 64:0.352894 65:0.373311 66:0.423455 67:0.37229 68:0.286071 69:0.220342 70:0.271629 71:0.302986 72:0.273298 73:0.281111 74:0.276966 75:0.257588 76:0.266331 77:0.306309 78:0.346515 79:0.29726 80:0.200726 81:0.272209 82:0.280359 83:0.345782 84:0.377988 85:0.371842 86:0.383576 87:0.318787 88:0.219039 89:0.269366 90:0.308393 91:0.320034 92:0.268626 93:0.260075 94:0.283894 95:0.22814 96:0.237509 97:0.162247 98:0.245441 99:0.226219 100:0.163501 101:0.204775 102:0.247932 103:0.227619 104:0.12983 105:0.162849 106:0.253221 107:0.266324 108:0.287435 109:0.274766 110:0.297582 111:0.291721 112:0.231951 113:0.156572 114:0.190674 115:0.180061 116:0.213548 117:0.278732 118:0.292125 119:0.206297 120:0.147658 121:0.143287 122:0.17502 123:0.175495 124:0.190471 125:0.11989 126:0.157515 127:0.158808 128:0.167107 129:0.167772 130:0.243012 131:0.20034 132:0.203514 133:0.138283 134:0.20426 135:0.275817 136:0.270333 137:0.307992 138:0.311513 139:0.33446 140:0.318753 141:0.0906325 142:0.367789 143:0.32536 144:0.279828 145:0.290021 146:0.388264 147:0.354864 148:0.33578 149:0.249833 150:0.16919 151:0.1429 152:0.09013 153:0.158087 154:0.160017 155:0.189248 156:0.132099 157:0.132634 158:0.182137 159:0.12699 160:0.215444 161:0.267408 162:0.32331 163:0.224329 164:0.544915 165:0.619132 166:0.713963 167:0.650971 168:0.608787 169:0.763964 170:0.816453 171:0.819029 172:0.822218 173:0.851588 174:0.816136 175:0.790233 176:0.871611 177:0.867871 178:0.782111 179:0.812971 180:0.762578 181:0.73041 182:0.677638 183:0.634224 184:0.517033 185:0.524023 186:0.513161 187:0.570514 188:0.334691 189:0.270421 190:0.372469 191:0.191252 192:0.0217984 193:0.20135 194:0.0709622 195:0.160527 196:0.265861 197:0.122373 198:-0.148715 199:-0.669469 200:0.0973151 201:-0.145609 202:-0.122989 203:-0.239767 204:-0.333579 205:-0.152209 206:-0.268209 207:-0.322921 208:0.220886 209:0.0360981 210:0.305668 211:0.238021 212:0.475087 213:0.282923 214:0.266409 215:0.157185 216:0.0706773 217:0.0406982 218:0.12963 219:0.232004 220:0.23736 221:0.177382 222:0.132714 223:0.0706104 224:0.162245 225:0.202283 226:0.231277 227:0.237816 228:0.25502 229:0.265487 230:0.436053 231:-0.134918 232:-0.2149 233:-0.251065 234:-0.139145 235:0.00174447 236:0.246839 237:0.288769 238:0.281289 239:0.267905 240:0.252806 241:0.24615 242:0.200233 243:0.18134 244:0.147527 245:0.122444 246:0.0874992 247:0.049469 248:0.0436234 249:0.0317667 250:0.0593079 251:0.0938156 252:0.0993407 253:0.103524 254:0.119103 255:0.122447 256:0.0523148 257:-0.000126107 258:0.00259553 259:0.0717467 260:-0.0326289 261:-0.0414362 262:-0.0546761 263:-0.0547948 264:-0.0683684 265:-0.0794486 266:-0.133349 267:-0.163555 268:-0.24864 269:-0.275602 270:-0.288352 271:-0.202306 272:-0.202034 273:-0.265632 274:-0.181947 275:-0.156224 276:-0.152678 277:-0.136399 278:-0.124621 279:-0.100735 280:-0.106705 281:-0.0871412 282:-0.0628408 283:-0.0361214 284:0.00131039 285:0.0338973 286:0.0566876 287:0.0638139 288:0.0740505 289:0.0809652 290:0.0498768 291:-0.0097631 292:-0.0750668 293:-0.103586 294:-0.11063 295:-0.103719 296:-0.0889287 297:-0.00284869 298:0.0645394 299:0.0742926 300:0.0750566 301:0.0905392 302:0.103009 303:0.115465 304:0.123717 305:0.131882 306:0.163565 307:0.0173735 308:-0.226709 309:-0.223516 310:0.139447 311:0.0632723 312:0.251165 313:0.271513 314:0.272874 315:0.279201 316:0.284731 317:0.257113 318:0.245457 319:0.230099 320:0.218118 321:0.194738 322:0.171807 323:0.148344 324:0.118629 325:0.0955576 326:0.0636857 327:0.0300905 328:0.00873219 329:-0.00218727 330:-0.00426905 331:0.0195158 332:0.03736 333:0.0708434 334:0.110827 335:0.119052 336:0.131788 337:0.119681 338:0.125621 339:0.103971 340:0.0382635 341:0.00334298 342:-0.00524404 343:-0.0276914 344:-0.0376273 345:-0.0501135 346:-0.0570682 347:-0.065369 348:-0.0883731 349:-0.151 350:-0.216714 351:-0.284168 352:-0.292654 353:-0.298546 354:-0.292434 355:-0.287711 356:-0.227672 357:-0.199532 358:-0.165428 359:-0.145283 360:-0.132269 361:-0.122788 362:-0.110936 363:-0.106894 364:-0.0629666 365:-0.0427739 366:-0.0199636 367:0.00206143 368:0.0291137 369:0.0519573 370:0.0699397 371:0.0778947 372:0.0752431 373:0.0518574 374:0.024712 375:-0.0396868 376:-0.0920934 377:-0.108665 378:-0.114782 379:-0.12184 380:-0.055709 381:-0.0060553 382:0.063112 383:0.0823286 384:0.0896731 385:0.106362 386:0.111849 387:0.123216 388:0.125883 389:0.143036 390:0.171417 391:0.226879 392:0.276305 393:0.292028 394:0.320191 395:0.338143 396:0.329332 397:0.314938 398:0.309112 399:0.301721 400:0.246971 401:0.211288 402:0.194877 403:0.184908 404:0.176005 405:0.167141 406:0.148203 407:0.127693 408:0.105706 409:0.0708005 410:0.0415691 411:0.0180466 412:-0.00616561 413:-0.00518208 414:0.0059311 415:0.0310811 416:0.0831196 417:0.116372 418:0.133163 419:0.143255 420:0.14028 421:0.129282 422:0.136207 423:0.0683719 424:0.00894549 425:0.00345723 426:-0.0187872 427:-0.0362461 428:-0.0446554 429:-0.0561704 430:-0.0617326 431:-0.0686378 432:-0.110991 433:-0.16983 434:-0.197842 435:-0.197975 436:-0.22893 437:-0.245634 438:-0.281344 439:-0.242098 440:-0.20304 441:-0.168683 442:-0.142597 443:-0.124925 444:-0.11344 445:-0.108748 446:-0.0931441 447:-0.0710629 448:-0.0537458 449:-0.0311874 450:-0.007581 451:0.0148999 452:0.0447904 453:0.0714388 454:0.0738778 455:0.0799869 456:0.0562353 457:0.0459447 458:-0.0015849 459:-0.0637228 460:-0.0931654 461:-0.105259 462:-0.110244 463:-0.0732108 464:-0.0236022 465:0.0329869 466:0.0788458 467:0.0796005 468:0.0971342 469:0.10429 470:0.113247 471:0.119242 472:0.131933 473:0.139969 474:0.175142 475:0.236759 476:0.25836 477:0.283458 478:0.311641 479:0.297757 480:0.286635 481:0.271902 482:0.293835 483:0.269957 484:0.246607 485:0.234981 486:0.218285 487:0.209683 488:0.19045 489:0.16704 490:0.136727 491:0.116043 492:0.0796799 493:0.0495861 494:0.0230781 495:-0.00888324 496:-0.0116575 497:-0.00980632 498:0.0193209 499:0.0442125 500:0.105699 501:0.130499 502:0.13581 503:0.137528 504:0.122983 505:0.135106 506:0.0739564 507:0.00976659 508:0.00402396 509:-0.00989425 510:-0.0330472 511:-0.0426517 512:-0.0557298 513:-0.0577801 514:-0.0671525 515:-0.0735127 516:-0.109827 517:-0.173633 518:-0.185171 519:-0.204447 520:-0.231247 521:-0.264096 522:-0.255595 523:-0.207911 524:-0.170687 525:-0.13806 526:-0.122261 527:-0.11121 528:-0.107572 529:-0.0930692 530:-0.067811 531:-0.0558486 532:-0.0314669 533:-0.0150827 534:0.0136165 535:0.0415203 536:0.0645018 537:0.0689199 538:0.0775766 539:0.0691519 540:0.0495732 541:0.0170974 542:-0.0550841 543:-0.0919211 544:-0.114239 545:-0.113125 546:-0.0968615 547:-0.0360869 548:0.0116599 549:0.078293 550:0.0768981 551:0.0896939 552:0.10267 553:0.109307 554:0.11782 555:0.126692 556:0.141337 557:0.141318 558:0.189694 559:0.219062 560:0.231931 561:0.251499 562:0.255467 563:0.245549 564:0.245604 565:0.276381 566:0.268569 567:0.237667 568:0.221843 569:0.212323 570:0.206428 571:0.194456 572:0.16933 573:0.146023 574:0.120689 575:0.0922802 576:0.0604546 577:0.0284606 578:0.00615306 579:-0.0122863 580:-0.0103856 581:0.0126569 582:0.0376218 583:0.0520763 584:0.0866565 585:0.115803 586:0.138095 587:0.125169 588:0.127191 589:0.0847431 590:0.0203141 591:0.00226086 592:0.00113213 593:-0.0240706 594:-0.036945 595:-0.0497698 596:-0.0532748 597:-0.0650212 598:-0.0682823 599:-0.0899533 600:-0.153615 601:-0.220182 602:-0.245186 603:-0.245701 604:-0.265678 605:-0.277203 606:-0.220806 607:-0.182912 608:-0.143246 609:-0.121627 610:-0.108421 611:-0.0978487 612:-0.0935419 613:-0.0853232 614:-0.054682 615:-0.0326423 616:-0.0179552 617:0.00487513 618:0.0260684 619:0.479596 620:0.260294 621:0.0747399 622:0.07147 623:0.0448964 624:0.034811 625:-0.0314349 626:-0.0764849 627:-0.0978357 628:-0.112963 629:-0.113194 630:-0.0475303 631:0.0057366 632:0.0665315 633:0.0762451 634:0.085956 635:0.102289 636:0.107757 637:0.116224 638:0.119433 639:0.134475 640:0.133292 641:0.154826 642:0.191477 643:0.242618 644:0.241405 645:0.234382 646:0.267333 647:0.258515 648:0.259351 649:0.281379 650:0.242764 651:0.220343 652:0.205631 653:0.198495 654:0.184091 655:0.516993 656:0.558304 657:0.126461 658:0.101006 659:0.0637464 660:0.0331029 661:0.015293 662:-0.0127016 663:-0.00931699 664:0.00788584 665:0.0174069 666:0.0731962 667:0.115645 668:0.0964088 669:0.151133 670:0.149486 671:0.143138 672:0.107018 673:0.0460662 674:0.00118671 675:-0.000454058 676:-0.0142266 677:-0.0287842 678:-0.33669 679:0.386109 680:0.419986 681:-0.0711647 682:-0.0505136 683:0.0578802 684:0.17142 685:-0.276618 686:-0.257834 687:-0.257624 688:-0.282916 689:-0.218847 690:-0.182511 691:-0.148987 692:-0.125706 693:-0.110035 694:-0.413615 695:-0.0936391 696:-0.0707581 697:-0.0804171 698:0.370955 699:-0.0601921 700:-0.0140174 701:0.0143651 702:0.0465196 703:0.0706687 704:0.269015 705:0.081457 706:0.0624577 707:0.0524748 708:0.00330145 709:-0.0612234 710:-0.0798081 711:-0.102817 712:-0.103557 713:-0.0641098 714:-0.00278493 715:0.0460059 716:0.0756517 717:-0.0368794 718:0.0928008 719:0.100814 720:0.110192 721:0.119693 722:0.134406 723:0.0951949 724:0.201452 725:0.222372 726:0.404155 727:0.519384 728:0.663001 729:0.398618 730:0.25926 731:0.313381 732:0.290004 733:0.249799 734:-0.164062 735:0.219658 736:0.204874 737:0.200884 738:0.180384 739:0.157323 740:0.132015 741:0.113939 742:0.0813996 743:0.0564936 744:0.0286692 745:0.129934 746:0.038841 747:0.0551579 748:0.0592436 749:0.0939895 750:0.20137 751:0.286153 752:0.249311 753:0.190244 754:0.142235 755:0.0934023 756:-0.255616 757:0.00139953 758:-0.36979 759:-0.0426755 760:-0.0334098 761:-0.039768 762:-0.100873 763:-0.0526297 764:0.433743 765:-0.0740488 766:-0.0778023 767:0.145407 768:0.115539 769:0.363992 770:-0.140457 771:-0.160752 772:-0.123965 773:0.458557 774:0.518855 775:-0.129962 776:-0.109409 777:-0.0934746 778:-0.0864745 779:-0.0741183 780:-0.0732532 781:-0.0497389 782:-0.024834 783:0.0849885 784:0.00637509 785:0.0337848 786:-0.0184774 787:0.161978 788:-0.40659 789:-0.0899663 790:0.0666948 791:0.0535558 792:0.017408 793:0.0126227 794:0.0137577 795:0.0655603 796:0.0732075 797:0.0540121 798:0.111144 799:0.11933 800:0.466345 801:0.103649 802:0.105655 803:0.112654 804:0.122115 805:0.128746 806:0.14615 807:0.191484 808:0.182024 809:0.274121 810:0.258615 811:0.282918 812:0.278725 813:0.0759894 814:-0.237558 815:0.350043 816:0.500232 817:0.455115 818:0.00971289 819:0.506003 820:-0.0175439 821:0.313917 822:0.160871 823:0.143426 824:0.123542 825:0.108099 826:0.0673648 827:0.0186881 828:0.180022 829:-0.0222276 830:-0.00132594 831:0.0239178 832:0.501167 833:0.0186978 834:0.598774 835:0.596839 836:0.180507 837:0.177713 838:0.113329 839:-0.783905 840:-0.235967 841:-0.0646607 842:0.0575805 843:-0.133224 844:0.165746 845:0.0162511 846:0.0223316 847:0.0194465 848:0.0222486 849:-0.172561 850:-0.0603986 851:0.241266 852:0.250529 853:-0.103153 854:-0.15822 855:-0.131897 856:-0.0875545 857:-0.0580579 858:-0.0309634 859:-0.0140642 860:0.00501843 861:0.0197916 862:0.0313289 863:0.112256 864:0.0517916 865:0.0716091 866:0.0821586 867:0.0956021 868:0.109856 869:0.124213 870:0.602951 871:0.176002 872:0.135308 873:0.144037 874:0.0268355 875:-0.29235 876:0.130837 877:0.111297 878:0.0548666 879:0.0513244 880:0.0427871 881:0.0451039 882:0.465738 883:0.149723 884:0.0410146 885:0.0521114 886:0.0553875 887:0.0595696 888:0.0574319 889:0.0640053 890:0.142382 891:0.352725 892:0.627653 893:0.275426 894:0.146651 895:0.266894 896:0.139075 897:0.212079 898:0.171826 899:0.139865 900:0.111026 901:0.0925727 902:0.0800956 903:0.0679483 904:0.0500968 905:0.0387704 906:0.0227447 907:-0.0016777 908:-0.0228256 909:-0.0427518 910:-0.0616123 911:-0.0797521 912:-0.147802 913:-0.115812 914:-0.125955 915:-0.0927256 916:-0.0672024 917:-0.0529782 918:0.437883 919:0.29917 920:-0.050429 921:0.0191417 922:0.104041 923:0.223923 924:0.3043 925:0.431288 926:0.502551 927:0.405115 928:0.354366 929:0.317103 930:0.226838 931:0.0407483 932:0.0180565 933:-0.0283688 934:-0.0780802 935:-0.147583 936:-0.208869 937:-0.110242 938:-0.114353 939:-0.0686933 940:-0.0559174 941:0.0299055 942:0.1419 943:0.157383 944:-0.0910876 945:0.0439154 946:0.0802133 947:0.0456628 948:0.0734224 949:0.0404635 950:0.00836187 951:0.145413 952:-0.726442 953:-0.198607 954:0.318307 955:0.436301 956:0.455484 957:0.389848 958:0.374578 959:0.33803 960:0.235988 961:0.162701 962:0.19116 963:0.194813 964:0.217323 965:0.241398 966:0.211046 967:0.133951 968:0.259252 969:0.299279 970:0.302846 971:0.299439 972:0.306122 973:0.327134 974:0.318753 975:0.336776 976:0.391222 977:0.30571 978:0.276119 979:0.314345 980:0.403962 981:0.346131 982:0.36887 983:0.423455 984:0.400631 985:0.292784 986:0.266401 987:0.250747 988:0.28681 989:0.289193 990:0.281614 991:0.276966 992:0.254123 993:0.278723 994:0.310259 995:0.333333 996:0.259093 997:0.204559 998:0.240996 999:0.294376 1000:0.313233 
66.98443127905189 0 0 1.747775646924994 0 24.08147011359851 10.23851946701344 33.83231116461236 0 0 1:0.658775 2:0.708788 3:0.726195 4:0.71452 5:0.684475 6:0.703515 7:0.843958 8:0.89595 9:0.875983 10:0.811783 11:0.731956 12:0.8269 13:0.799772 14:0.77084 15:0.756087 16:0.75688 17:0.699735 18:0.688619 19:0.662083 20:0.604115 21:0.537173 22:0.627082 23:0.703858 24:0.69614 25:0.634109 26:0.576927 27:0.573005 28:0.591935 29:0.61555 30:0.574602 31:0.470842 32:0.468019 33:0.48624 34:0.438707 35:0.364524 36:0.374004 37:0.372679 38:0.313586 39:0.339453 40:0.364411 41:0.355247 42:0.339673 43:0.376057 44:0.381564 45:0.422198 46:0.364048 47:0.452701 48:0.425321 49:0.301675 50:0.125561 51:0.275609 52:0.354363 53:0.353123 54:0.323657 55:0.381564 56:0.418334 57:0.41298 58:0.44241 59:0.417553 60:0.472705 61:0.462162 62:0.543451 63:0.567163 64:0.480105 65:0.500243 66:0.558916 67:0.580661 68:0.563825 69:0.522403 70:0.525455 71:0.507051 72:0.499843 73:0.557973 74:0.618485 75:0.604366 76:0.723377 77:0.807297 78:0.793403 79:0.700663 80:0.635667 81:0.691728 82:0.691728 83:0.741326 84:0.694946 85:0.711695 86:0.74657 87:0.748909 88:0.6879 89:0.703515 90:0.819838 91:0.918279 92:0.875983 93:0.811783 94:0.753461 95:0.828866 96:0.826664 97:0.779932 98:0.731927 99:0.777898 100:0.699735 101:0.708788 102:0.635667 103:0.642695 104:0.537173 105:0.573758 106:0.690444 107:0.700831 108:0.665308 109:0.61915 110:0.562012 111:0.592287 112:0.604351 113:0.61555 114:0.564521 115:0.476847 116:0.495408 117:0.513042 118:0.458042 119:0.358702 120:0.378542 121:0.352746 122:0.339698 123:0.352258 124:0.387449 125:0.358886 126:0.388715 127:0.369198 128:0.364048 129:0.371245 130:0.440044 131:0.437878 132:0.347914 133:0.197407 134:0.244674 135:0.367942 136:0.402207 137:0.359945 138:0.410506 139:0.41298 140:0.418334 141:0.173098 142:0.461705 143:0.425907 144:0.46966 145:0.543451 146:0.578376 147:0.499903 148:0.453626 149:0.368412 150:0.35056 151:0.333738 152:0.333629 153:0.348296 154:0.308315 155:0.366887 156:0.327721 157:0.353388 158:0.445016 159:0.482784 160:0.612339 161:0.733762 162:0.766313 163:0.675005 164:0.803828 165:0.804615 166:0.881481 167:0.775922 168:0.685921 169:0.808966 170:0.880663 171:0.889621 172:0.892296 173:0.926285 174:0.917179 175:0.912308 176:0.934446 177:0.923786 178:0.871339 179:0.894952 180:0.862058 181:0.835763 182:0.789221 183:0.740808 184:0.650031 185:0.627637 186:0.621793 187:0.652352 188:0.45113 189:0.370582 190:0.438816 191:0.410791 192:0.671664 193:0.937521 194:0.807591 195:0.740472 196:0.40705 197:0.198962 198:-0.288509 199:-0.824118 200:-0.0614439 201:-0.110757 202:-0.222214 203:-0.449641 204:-0.535865 205:-0.419816 206:-0.647138 207:-0.882035 208:-0.189589 209:-0.555278 210:-0.130714 211:-0.286878 212:0.114581 213:-0.197706 214:-0.184438 215:-0.319036 216:-0.41779 217:-0.409549 218:-0.304395 219:-0.086908 220:-0.115166 221:-0.177253 222:-0.242232 223:-0.285262 224:-0.236261 225:-0.20044 226:-0.155816 227:-0.0743811 228:0.0182303 229:0.162285 230:0.439371 231:-0.102673 232:-0.155169 233:-0.13717 234:0.0299319 235:0.233883 236:0.555573 237:0.622207 238:0.636756 239:0.641987 240:0.670637 241:0.684363 242:0.644543 243:0.687544 244:0.769963 245:0.808748 246:0.834011 247:0.816466 248:0.804898 249:0.794717 250:0.796274 251:0.800048 252:0.792985 253:0.795681 254:0.821904 255:0.804081 256:0.674673 257:0.587746 258:0.553347 259:0.558456 260:0.484814 261:0.444986 262:0.399654 263:0.370881 264:0.350784 265:0.345376 266:0.298 267:0.239324 268:0.136983 269:0.0569671 270:-0.0565043 271:-0.105953 272:-0.190078 273:-0.306293 274:-0.295475 275:-0.331596 276:-0.36855 277:-0.373052 278:-0.37574 279:-0.378104 280:-0.382544 281:-0.384918 282:-0.377649 283:-0.352859 284:-0.336945 285:-0.368937 286:-0.417217 287:-0.459868 288:-0.509454 289:-0.535907 290:-0.559662 291:-0.605259 292:-0.667898 293:-0.699407 294:-0.72037 295:-0.731405 296:-0.698151 297:-0.550285 298:-0.453201 299:-0.403159 300:-0.380217 301:-0.350682 302:-0.324557 303:-0.282734 304:-0.24279 305:-0.216981 306:-0.173734 307:-0.196632 308:-0.45084 309:-0.439733 310:-0.132701 311:-0.142876 312:0.140041 313:0.271273 314:0.341804 315:0.393028 316:0.455051 317:0.477182 318:0.509213 319:0.521001 320:0.522458 321:0.517373 322:0.512231 323:0.511039 324:0.501419 325:0.487252 326:0.49614 327:0.532404 328:0.584069 329:0.642435 330:0.70084 331:0.755763 332:0.781557 333:0.812192 334:0.811357 335:0.807832 336:0.816967 337:0.815284 338:0.798064 339:0.722725 340:0.619763 341:0.570343 342:0.533724 343:0.496192 344:0.462948 345:0.421209 346:0.37899 347:0.358799 348:0.325352 349:0.264519 350:0.199988 351:0.120742 352:0.0586951 353:-0.0196448 354:-0.139187 355:-0.247042 356:-0.243669 357:-0.272688 358:-0.293486 359:-0.310823 360:-0.330477 361:-0.338769 362:-0.3423 363:-0.338784 364:-0.327535 365:-0.338698 366:-0.327697 367:-0.311449 368:-0.338428 369:-0.386725 370:-0.43254 371:-0.482544 372:-0.524257 373:-0.552724 374:-0.574539 375:-0.637256 376:-0.689634 377:-0.714868 378:-0.735525 379:-0.740275 380:-0.614383 381:-0.511836 382:-0.424062 383:-0.381433 384:-0.359046 385:-0.334966 386:-0.30127 387:-0.256367 388:-0.225284 389:-0.205031 390:-0.162726 391:-0.107192 392:-0.0544336 393:0.00662156 394:0.0897569 395:0.198696 396:0.300708 397:0.363495 398:0.398904 399:0.450967 400:0.464549 401:0.470454 402:0.496921 403:0.500915 404:0.502435 405:0.503934 406:0.489027 407:0.4863 408:0.482176 409:0.465468 410:0.500384 411:0.560593 412:0.60944 413:0.670516 414:0.721945 415:0.760761 416:0.790063 417:0.795269 418:0.80225 419:0.810147 420:0.819519 421:0.797366 422:0.767416 423:0.651375 424:0.584338 425:0.554163 426:0.509743 427:0.47506 428:0.434752 429:0.38979 430:0.363271 431:0.352176 432:0.314446 433:0.255898 434:0.22886 435:0.205415 436:0.106188 437:-0.0490844 438:-0.214034 439:-0.242768 440:-0.252819 441:-0.280766 442:-0.291236 443:-0.311249 444:-0.322355 445:-0.329344 446:-0.33168 447:-0.327596 448:-0.331706 449:-0.326011 450:-0.312033 451:-0.329024 452:-0.364471 453:-0.403924 454:-0.457254 455:-0.504449 456:-0.546744 457:-0.56615 458:-0.614312 459:-0.675451 460:-0.706377 461:-0.725929 462:-0.738136 463:-0.659521 464:-0.541351 465:-0.454719 466:-0.391098 467:-0.372859 468:-0.346459 469:-0.316857 470:-0.275675 471:-0.236939 472:-0.215453 473:-0.202218 474:-0.170817 475:-0.111912 476:-0.0628316 477:0.0201824 478:0.110339 479:0.219336 480:0.313537 481:0.350035 482:0.417559 483:0.451683 484:0.467098 485:0.494468 486:0.499423 487:0.509438 488:0.510469 489:0.500428 490:0.495525 491:0.493182 492:0.463472 493:0.487996 494:0.550215 495:0.598051 496:0.650514 497:0.706014 498:0.746229 499:0.786318 500:0.847691 501:0.848256 502:0.842654 503:0.830856 504:0.81426 505:0.807459 506:0.683929 507:0.597806 508:0.555747 509:0.519793 510:0.48582 511:0.446503 512:0.399993 513:0.365013 514:0.35357 515:0.355989 516:0.332638 517:0.269231 518:0.223457 519:0.15198 520:0.0161982 521:-0.153832 522:-0.236279 523:-0.236146 524:-0.265619 525:-0.278636 526:-0.298461 527:-0.313639 528:-0.324705 529:-0.328157 530:-0.3252 531:-0.323009 532:-0.322015 533:-0.31872 534:-0.31189 535:-0.346499 536:-0.397793 537:-0.446798 538:-0.496689 539:-0.538558 540:-0.564776 541:-0.598746 542:-0.668505 543:-0.705863 544:-0.728959 545:-0.740753 546:-0.706683 547:-0.570685 548:-0.481732 549:-0.403135 550:-0.379883 551:-0.350514 552:-0.32564 553:-0.290139 554:-0.24727 555:-0.217727 556:-0.200871 557:-0.211671 558:-0.168042 559:-0.127286 560:-0.0581647 561:0.015455 562:0.140151 563:0.243981 564:0.312054 565:0.380723 566:0.432895 567:0.45046 568:0.469753 569:0.490541 570:0.501399 571:0.512462 572:0.504902 573:0.498939 574:0.492673 575:0.478096 576:0.489786 577:0.533642 578:0.585834 579:0.631606 580:0.696972 581:0.744035 582:0.77159 583:0.76521 584:0.779388 585:0.811976 586:0.83782 587:0.81971 588:0.808505 589:0.719522 590:0.614755 591:0.570101 592:0.542582 593:0.498813 594:0.463535 595:0.418321 596:0.382325 597:0.36045 598:0.358019 599:0.355774 600:0.291388 601:0.222024 602:0.148791 603:0.0596787 604:-0.101254 605:-0.238153 606:-0.237861 607:-0.256035 608:-0.271062 609:-0.290336 610:-0.308399 611:-0.316545 612:-0.324075 613:-0.328157 614:-0.32115 615:-0.322503 616:-0.32269 617:-0.308382 618:-0.335066 619:0.239858 620:-0.133571 621:-0.479463 622:-0.525409 623:-0.560905 624:-0.57983 625:-0.644211 626:-0.692668 627:-0.717665 628:-0.736739 629:-0.737962 630:-0.611043 631:-0.506045 632:-0.421894 633:-0.38291 634:-0.361037 635:-0.332877 636:-0.297876 637:-0.25267 638:-0.209229 639:-0.108074 640:-0.134728 641:-0.26267 642:-0.252246 643:-0.174341 644:-0.090901 645:0.0251371 646:0.200214 647:0.287167 648:0.341136 649:0.420009 650:0.442568 651:0.455709 652:0.482141 653:0.493465 654:0.496424 655:0.709204 656:0.743038 657:0.497487 658:0.4875 659:0.476239 660:0.514073 661:0.574924 662:0.621321 663:0.689226 664:0.741011 665:0.73928 666:0.818232 667:0.843914 668:0.783383 669:0.865323 670:0.861353 671:0.853155 672:0.765547 673:0.650349 674:0.589132 675:0.552008 676:0.514079 677:0.482415 678:-0.00597703 679:0.645749 680:0.647663 681:0.311994 682:0.262888 683:0.333111 684:0.438462 685:0.112623 686:0.0805904 687:-0.0291496 688:-0.160521 689:-0.177876 690:-0.197442 691:-0.237714 692:-0.259578 693:-0.287211 694:-0.543642 695:-0.310643 696:-0.318692 697:-0.317523 698:0.212557 699:-0.342194 700:-0.307472 701:-0.320808 702:-0.361061 703:-0.409902 704:-0.152212 705:-0.507067 706:-0.549006 707:-0.566228 708:-0.622507 709:-0.687805 710:-0.710816 711:-0.728318 712:-0.736161 713:-0.659404 714:-0.532802 715:-0.447635 716:-0.396268 717:-0.437214 718:-0.336525 719:-0.304866 720:-0.245503 721:-0.199281 722:-0.174302 723:-0.101867 724:-0.0752511 725:-0.0865156 726:0.184372 727:0.357771 728:0.580297 729:0.353543 730:0.304794 731:0.398632 732:0.411384 733:0.425573 734:-0.0211405 735:0.468448 736:0.476969 737:0.491896 738:0.491368 739:0.478435 740:0.476816 741:0.480027 742:0.449993 743:0.477772 744:0.539377 745:0.641965 746:0.666702 747:0.717034 748:0.743448 749:0.787883 750:0.865552 751:0.911672 752:0.890814 753:0.876575 754:0.825792 755:0.793243 756:0.204221 757:0.577479 758:-0.031362 759:0.45445 760:0.444312 761:0.344218 762:0.133939 763:0.122473 764:0.533669 765:0.133795 766:0.174016 767:-1 768:-0.829947 769:0.528406 770:0.125492 771:-0.0545541 772:-0.0715102 773:0.504302 774:0.573799 775:0.0104741 776:0.0261421 777:0.0348457 778:0.0482659 779:0.0657421 780:0.0752153 781:0.0886368 782:0.0982486 783:0.194677 784:0.111658 785:0.126026 786:0.0579647 787:0.234865 788:-0.365554 789:-0.0294736 790:0.139712 791:0.123755 792:0.0871177 793:0.0750561 794:0.0593236 795:0.0804072 796:0.0741794 797:0.0548711 798:0.111586 799:0.0995515 800:0.445628 801:0.0624012 802:0.0667918 803:0.0676926 804:0.0642906 805:0.0616613 806:0.0670456 807:0.0970249 808:0.0671014 809:0.13371 810:0.107116 811:0.143291 812:0.160117 813:-0.0340785 814:-0.316772 815:0.180922 816:0.481713 817:0.425225 818:-0.0345354 819:0.468899 820:-0.0901236 821:0.229779 822:0.0624386 823:0.0566454 824:0.0425919 825:0.0413129 826:0.0164716 827:-0.0122002 828:0.161653 829:-0.0492926 830:-0.0179103 831:0.0140469 832:0.499373 833:0.0299715 834:0.590465 835:0.610923 836:0.235874 837:0.262311 838:0.206653 839:-0.0319837 840:0.0749527 841:0.0858287 842:0.0910193 843:-0.115881 844:0.199274 845:0.063624 846:0.0635964 847:0.0653008 848:0.0708817 849:-0.125101 850:-0.0231184 851:0.281459 852:0.302386 853:-0.0407935 854:-0.105776 855:-0.0773231 856:-0.0366346 857:-0.0145758 858:0.00616298 859:0.0221191 860:0.0301106 861:0.0487816 862:0.0652722 863:0.150697 864:0.0890676 865:0.0985664 866:0.107247 867:0.118455 868:0.126691 869:0.138365 870:0.610018 871:0.192261 872:0.148989 873:0.162531 874:0.0442348 875:-0.278273 876:0.154435 877:0.134144 878:0.0789049 879:0.0722704 880:0.0646971 881:0.0647298 882:0.472486 883:0.154894 884:0.0461457 885:0.0599672 886:0.0678182 887:0.0666798 888:0.0669134 889:0.0683122 890:0.149045 891:0.355887 892:0.631498 893:0.279687 894:0.163727 895:0.274578 896:0.163896 897:0.228389 898:0.1871 899:0.156804 900:0.134396 901:0.119824 902:0.109345 903:0.0951991 904:0.0714544 905:0.0622256 906:0.0490426 907:0.0299558 908:0.0105519 909:0.000831076 910:-0.0144964 911:-0.0339876 912:-0.108472 913:-0.0707477 914:-0.0758288 915:-0.047466 916:-0.0444301 917:-0.0423875 918:0.463292 919:0.330103 920:-0.000461881 921:0.0732146 922:0.159885 923:0.29079 924:0.400374 925:0.539684 926:0.601347 927:0.488605 928:0.44174 929:0.418188 930:0.323538 931:0.134972 932:0.107869 933:0.0604817 934:0.00532911 935:-0.0828005 936:-0.153936 937:-0.0709064 938:-0.0537552 939:0.00114882 940:0.00098455 941:0.0784172 942:0.216444 943:0.235111 944:-0.0109532 945:0.120407 946:0.137178 947:0.118588 948:0.128769 949:0.0855874 950:0.0420078 951:0.163617 952:-0.694411 953:-0.164266 954:0.477689 955:0.498035 956:0.54637 957:0.499873 958:0.515988 959:0.515516 960:0.423738 961:0.387567 962:0.383276 963:0.390601 964:0.428404 965:0.38403 966:0.249573 967:0.205458 968:0.34219 969:0.432637 970:0.388223 971:0.369215 972:0.36048 973:0.394759 974:0.363797 975:0.433723 976:0.426107 977:0.389925 978:0.432881 979:0.523077 980:0.509412 981:0.453309 982:0.529179 983:0.631472 984:0.59858 985:0.579259 986:0.554943 987:0.490055 988:0.527375 989:0.517356 990:0.583819 991:0.598384 992:0.631501 993:0.702794 994:0.746388 995:0.736889 996:0.643946 997:0.635667 998:0.648487 999:0.678154 1000:0.688825 
31.8113027501154 0 0 0 0 127.1164565597888 76.24881664251694 20.2322057747485 30.71681647016824 0 1:0.303167 2:0.350484 3:0.339917 4:0.206739 5:0.183277 6:0.137541 7:0.170317 8:0.143604 9:0.165895 10:0.150641 11:0.117873 12:0.0771963 13:0.15274 14:0.153855 15:0.220652 16:0.244204 17:0.226737 18:0.229883 19:0.275101 20:0.25967 21:0.166347 22:0.171272 23:0.273865 24:0.253374 25:0.22438 26:0.192046 27:0.242421 28:0.216047 29:0.124141 30:0.0720976 31:0.0272006 32:0.0786137 33:0.129896 34:0.206646 35:0.173555 36:0.0812124 37:0.0272006 38:0.0659705 39:0.0936322 40:0.135828 41:0.0996325 42:0.140084 43:0.239805 44:0.352142 45:0.386324 46:0.319486 47:0.380616 48:0.428655 49:0.38395 50:0.304433 51:0.375847 52:0.41292 53:0.445887 54:0.452112 55:0.446555 56:0.410517 57:0.38687 58:0.399685 59:0.358911 60:0.355129 61:0.339917 62:0.364241 63:0.428008 64:0.424638 65:0.435125 66:0.507701 67:0.474778 68:0.396674 69:0.321645 70:0.382613 71:0.462049 72:0.466583 73:0.464304 74:0.48855 75:0.469854 76:0.444024 77:0.486124 78:0.521033 79:0.499258 80:0.371192 81:0.400774 82:0.392828 83:0.442334 84:0.331787 85:0.321108 86:0.323701 87:0.258812 88:0.160076 89:0.147027 90:0.15112 91:0.147699 92:0.138825 93:0.154955 94:0.165019 95:0.0876741 96:0.0909306 97:0.122532 98:0.203691 99:0.235753 100:0.235013 101:0.221856 102:0.23724 103:0.25967 104:0.182084 105:0.160132 106:0.239377 107:0.236644 108:0.259637 109:0.218799 110:0.256825 111:0.250174 112:0.141303 113:0.107388 114:0.108566 115:0.053961 116:0.0912744 117:0.20324 118:0.210985 119:0.0865366 120:0.0323158 121:0.0581384 122:0.0867144 123:0.142132 124:0.140627 125:0.117145 126:0.258606 127:0.260681 128:0.363671 129:0.393679 130:0.421834 131:0.422583 132:0.376098 133:0.346494 134:0.376468 135:0.447251 136:0.459705 137:0.484804 138:0.455275 139:0.438339 140:0.395998 141:0.132106 142:0.384328 143:0.362051 144:0.341123 145:0.339917 146:0.408963 147:0.423903 148:0.387164 149:0.328886 150:0.253785 151:0.226638 152:0.177453 153:0.249264 154:0.280692 155:0.314842 156:0.273534 157:0.281829 158:0.364846 159:0.294335 160:0.358483 161:0.42481 162:0.520047 163:0.363325 164:0.617196 165:0.664574 166:0.768406 167:0.669367 168:0.594277 169:0.752936 170:0.812335 171:0.807396 172:0.812951 173:0.819809 174:0.78494 175:0.762127 176:0.861737 177:0.852453 178:0.756293 179:0.795048 180:0.75435 181:0.722979 182:0.676025 183:0.638931 184:0.531062 185:0.533594 186:0.524626 187:0.577077 188:0.340519 189:0.26725 190:0.373759 191:0.190238 192:0.0209721 193:0.197733 194:0.0668471 195:0.154186 196:0.26782 197:0.111093 198:-0.174354 199:-0.680734 200:-0.3467 201:-0.335503 202:-0.314369 203:-0.488418 204:-0.477817 205:-0.236913 206:-0.319885 207:-0.357975 208:0.226633 209:0.0853404 210:0.354185 211:0.304721 212:0.523911 213:0.369142 214:0.372956 215:0.29862 216:0.236599 217:0.211775 218:0.312572 219:0.382773 220:0.42114 221:0.377681 222:0.345144 223:0.265189 224:0.365804 225:0.393812 226:0.418737 227:0.41588 228:0.426138 229:0.444799 230:0.586146 231:-0.0258471 232:-0.104574 233:-0.133675 234:-0.0125827 235:0.133676 236:0.389822 237:0.413709 238:0.386304 239:0.365637 240:0.347865 241:0.328718 242:0.265988 243:0.236915 244:0.189581 245:0.14033 246:0.072601 247:0.00494037 248:-0.0227158 249:-0.041668 250:-0.0305507 251:-0.0136286 252:-0.00602539 253:-0.00598301 254:0.00419237 255:-0.00673349 256:-0.0987501 257:-0.169013 258:-0.183119 259:-0.112186 260:-0.258148 261:-0.277178 262:-0.291881 263:-0.286873 264:-0.29014 265:-0.292077 266:-0.32962 267:-0.333226 268:-0.415568 269:-0.445966 270:-0.462746 271:-0.365542 272:-0.386625 273:-0.468357 274:-0.368319 275:-0.342314 276:-0.338531 277:-0.29772 278:-0.261428 279:-0.228988 280:-0.208019 281:-0.185983 282:-0.151645 283:-0.110219 284:-0.0559772 285:-0.00887597 286:0.0287594 287:0.0649484 288:0.111813 289:0.140529 290:0.120633 291:0.0675718 292:0.0185455 293:0.00230386 294:-0.00185203 295:0.00167553 296:0.0240881 297:0.125072 298:0.223525 299:0.241107 300:0.250039 301:0.302658 302:0.31552 303:0.321855 304:0.324526 305:0.322894 306:0.33603 307:0.118373 308:-0.126357 309:-0.123923 310:0.296189 311:0.222589 312:0.450403 313:0.48077 314:0.494782 315:0.494696 316:0.477638 317:0.422159 318:0.392826 319:0.355222 320:0.326043 321:0.290981 322:0.262103 323:0.237776 324:0.20297 325:0.165479 326:0.117983 327:0.0728843 328:0.029643 329:-0.00826414 330:-0.0404641 331:-0.040148 332:-0.0341492 333:-0.0106387 334:0.00315191 335:0.010717 336:0.0202129 337:0.0200138 338:0.0139384 339:-0.0342084 340:-0.119244 341:-0.177103 342:-0.197598 343:-0.233598 344:-0.259903 345:-0.277342 346:-0.280646 347:-0.280685 348:-0.292676 349:-0.339615 350:-0.401408 351:-0.476187 352:-0.485013 353:-0.496372 354:-0.505815 355:-0.520498 356:-0.44553 357:-0.392865 358:-0.336036 359:-0.302303 360:-0.268559 361:-0.240707 362:-0.212242 363:-0.174524 364:-0.135772 365:-0.108277 366:-0.0781424 367:-0.0452128 368:-0.00603379 369:0.0279874 370:0.0676878 371:0.108825 372:0.130462 373:0.124557 374:0.106773 375:0.0550838 376:0.0170563 377:0.000596324 378:-0.00856552 379:-0.0168099 380:0.0560785 381:0.12536 382:0.214946 383:0.248265 384:0.264584 385:0.296532 386:0.311252 387:0.326191 388:0.324027 389:0.333443 390:0.348143 391:0.394061 392:0.436958 393:0.455601 394:0.488822 395:0.517312 396:0.523216 397:0.528349 398:0.528598 399:0.518974 400:0.444705 401:0.402061 402:0.372183 403:0.340346 404:0.302533 405:0.266482 406:0.230691 407:0.199789 408:0.162978 409:0.109653 410:0.0643777 411:0.0284396 412:-0.0175018 413:-0.0544921 414:-0.0659797 415:-0.0552541 416:-0.00814782 417:0.0124156 418:0.0172289 419:0.0276391 420:0.0326644 421:0.0147163 422:0.000845161 423:-0.091743 424:-0.170097 425:-0.187221 426:-0.21999 427:-0.255741 428:-0.269923 429:-0.282447 430:-0.281666 431:-0.27775 432:-0.305416 433:-0.35908 434:-0.391889 435:-0.393859 436:-0.433397 437:-0.463442 438:-0.507595 439:-0.461745 440:-0.399958 441:-0.341838 442:-0.293037 443:-0.263264 444:-0.236598 445:-0.215666 446:-0.184623 447:-0.149755 448:-0.122229 449:-0.0924911 450:-0.0575152 451:-0.0203657 452:0.0207014 453:0.0672291 454:0.0995131 455:0.133779 456:0.126759 457:0.125797 458:0.0873996 459:0.0425766 460:0.0142347 461:0.00411034 462:-0.00930245 463:0.0338712 464:0.0987363 465:0.172691 466:0.236819 467:0.260213 468:0.287298 469:0.306342 470:0.320233 471:0.323471 472:0.327522 473:0.325278 474:0.351382 475:0.407318 476:0.431238 477:0.457923 478:0.494165 479:0.497353 480:0.511696 481:0.506745 482:0.513186 483:0.460563 484:0.416944 485:0.38459 486:0.351772 487:0.324741 488:0.284082 489:0.247574 490:0.212319 491:0.183616 492:0.131007 493:0.0816286 494:0.0454916 495:-0.0057377 496:-0.0443656 497:-0.0657349 498:-0.0577171 499:-0.045988 500:0.00383041 501:0.0136516 502:0.0201972 503:0.0254275 504:0.0114777 505:0.00905909 506:-0.0750639 507:-0.162619 508:-0.183926 509:-0.207063 510:-0.251391 511:-0.267322 512:-0.280507 513:-0.279411 514:-0.280396 515:-0.277845 516:-0.308092 517:-0.368071 518:-0.38081 519:-0.409813 520:-0.444614 521:-0.486869 522:-0.480434 523:-0.412946 524:-0.352596 525:-0.297771 526:-0.267363 527:-0.241394 528:-0.222579 529:-0.186075 530:-0.154252 531:-0.128484 532:-0.0960837 533:-0.0676548 534:-0.0230904 535:0.0219981 536:0.0551018 537:0.0850089 538:0.126105 539:0.133919 540:0.124828 541:0.098485 542:0.0447956 543:0.0195028 544:-0.000459513 545:-0.0100445 546:0.0103407 547:0.0820489 548:0.150998 549:0.230899 550:0.243657 551:0.266835 552:0.303004 553:0.317369 554:0.323112 555:0.325938 556:0.328263 557:0.324902 558:0.367456 559:0.391844 560:0.409279 561:0.438757 562:0.460533 563:0.469121 564:0.481663 565:0.498279 566:0.469557 567:0.413235 568:0.379464 569:0.353839 570:0.326939 571:0.2945 572:0.255686 573:0.224267 574:0.188966 575:0.148177 576:0.0988588 577:0.0540573 578:0.0140655 579:-0.0339462 580:-0.0633481 581:-0.0568333 582:-0.0437575 583:-0.039541 584:-0.0256514 585:-0.00104641 586:0.0166466 587:0.0161781 588:0.00796493 589:-0.0530988 590:-0.14002 591:-0.177176 592:-0.195479 593:-0.233423 594:-0.258615 595:-0.274756 596:-0.276626 597:-0.279536 598:-0.270304 599:-0.286056 600:-0.350979 601:-0.424674 602:-0.455704 603:-0.454724 604:-0.488467 605:-0.503151 606:-0.433756 607:-0.370107 608:-0.309969 609:-0.272187 610:-0.244881 611:-0.219752 612:-0.19245 613:-0.159984 614:-0.13001 615:-0.102015 616:-0.0766008 617:-0.0391379 618:-0.00103133 619:0.470685 620:0.264296 621:0.113414 622:0.13332 623:0.122294 624:0.118235 625:0.0648068 626:0.0376954 627:0.0155348 628:-0.00330556 629:-0.00497283 630:0.0652255 631:0.139406 632:0.215066 633:0.23889 634:0.257515 635:0.294698 636:0.317369 637:0.327062 638:0.325984 639:0.327488 640:0.318122 641:0.335625 642:0.375847 643:0.440835 644:0.440674 645:0.441724 646:0.489357 647:0.494403 648:0.485678 649:0.49109 650:0.421979 651:0.382556 652:0.349251 653:0.323765 654:0.28932 655:0.566185 656:0.59836 657:0.195137 658:0.157722 659:0.105458 660:0.0594992 661:0.0268075 662:-0.0435694 663:-0.0591755 664:-0.0578534 665:-0.0683569 666:-0.0174014 667:0.00207444 668:-0.0296471 669:0.0185999 670:0.0264705 671:0.0161029 672:-0.0363886 673:-0.120295 674:-0.174485 675:-0.192975 676:-0.236709 677:-0.25743 678:-0.499316 679:0.245297 680:0.297403 681:-0.271504 682:-0.231311 683:-0.0891137 684:0.0515661 685:-0.426192 686:-0.366667 687:-0.386619 688:-0.421629 689:-0.374311 690:-0.342528 691:-0.29557 692:-0.269122 693:-0.247933 694:-0.497586 695:-0.204386 696:-0.179659 697:-0.167641 698:0.32983 699:-0.11052 700:-0.0687865 701:-0.0188383 702:0.0300226 703:0.0584651 704:0.286226 705:0.142503 706:0.13232 707:0.126281 708:0.0911076 709:0.0486537 710:0.0352296 711:0.0176619 712:0.0135338 713:0.0595422 714:0.14397 715:0.21667 716:0.251939 717:0.126928 718:0.295466 719:0.323251 720:0.348539 721:0.369275 722:0.440493 723:0.219068 724:0.362203 725:0.148867 726:0.311367 727:0.424026 728:0.599077 729:0.292027 730:0.125218 731:0.184268 732:0.17196 733:0.139487 734:-0.238652 735:0.107061 736:0.090385 737:0.0881325 738:0.0767425 739:0.0615068 740:0.0447972 741:0.0306083 742:-0.00136952 743:-0.0201729 744:-0.0314318 745:0.0822858 746:-0.009751 747:0.0085382 748:0.00490437 749:0.0446577 750:0.159088 751:0.246296 752:0.219937 753:0.176536 754:0.144637 755:0.0993729 756:-0.253186 757:0.0155503 758:-0.355856 759:-0.0118217 760:0.0040099 761:-0.00225269 762:-0.0557411 763:0.0075545 764:0.476062 765:0.0209561 766:0.0363659 767:0.170655 768:0.228804 769:0.435279 770:0.00323795 771:-0.0219346 772:-0.0806796 773:0.490462 774:0.557423 775:-0.0247304 776:-0.00582831 777:0.00502918 778:0.0133405 779:0.0215065 780:0.0340104 781:0.0460292 782:0.0609048 783:0.16417 784:0.089576 785:0.109931 786:0.0380804 787:0.209962 788:-0.377636 789:-0.0479274 790:0.118485 791:0.101825 792:0.0695832 793:0.0615296 794:0.0478275 795:0.0700347 796:0.0684725 797:0.0473405 798:0.110587 799:0.107018 800:0.45369 801:0.0705734 802:0.0724568 803:0.0740345 804:0.0754959 805:0.0682765 806:0.0768612 807:0.105583 808:0.0674696 809:0.131829 810:0.097401 811:0.135699 812:0.143417 813:-0.045075 814:-0.319288 815:0.171042 816:0.477084 817:0.41885 818:-0.0453044 819:0.459931 820:-0.0980502 821:0.224014 822:0.0575345 823:0.0482104 824:0.03123 825:0.0265189 826:-0.0104056 827:-0.0373572 828:0.143694 829:-0.0730047 830:-0.0462445 831:-0.0140469 832:0.484751 833:0.00422272 834:0.580404 835:0.59309 836:0.197507 837:0.220044 838:0.161473 839:-0.0766077 840:0.0172733 841:0.023141 842:0.0314317 843:-0.144933 844:0.159197 845:0.00595017 846:0.00698045 847:0.00949019 848:0.0178159 849:-0.172091 850:-0.059718 851:0.244514 852:0.255302 853:-0.097066 854:-0.157062 855:-0.131317 856:-0.0878527 857:-0.0606296 858:-0.0326712 859:-0.0146669 860:0.000127742 861:0.0141942 862:0.0239499 863:0.11234 864:0.0440402 865:0.0572548 866:0.0722048 867:0.0899453 868:0.10695 869:0.115616 870:0.598576 871:0.169293 872:0.127209 873:0.14047 874:0.0228669 875:-0.292286 876:0.14076 877:0.120141 878:0.0652155 879:0.0633808 880:0.0539851 881:0.0624718 882:0.474233 883:0.164066 884:0.0544305 885:0.0666369 886:0.0725563 887:0.0771127 888:0.0733387 889:0.0739324 890:0.157188 891:0.359137 892:0.632097 893:0.277781 894:0.154456 895:0.268253 896:0.145352 897:0.221578 898:0.180899 899:0.151583 900:0.121078 901:0.102112 902:0.0908519 903:0.0824246 904:0.0676679 905:0.0541399 906:0.0421337 907:0.0195585 908:-0.00631347 909:-0.0312679 910:-0.0500737 911:-0.062686 912:-0.129493 913:-0.101148 914:-0.10787 915:-0.0810939 916:-0.0602687 917:-0.0522239 918:0.437393 919:0.296823 920:-0.0519406 921:0.0136271 922:0.095656 923:0.198145 924:0.283189 925:0.401831 926:0.487025 927:0.387922 928:0.328642 929:0.295003 930:0.198687 931:0.028344 932:0.00681524 933:-0.0281888 934:-0.0703986 935:-0.140024 936:-0.207336 937:-0.112145 938:-0.114736 939:-0.0691057 940:-0.0552863 941:0.0259367 942:0.139191 943:0.148644 944:-0.0978559 945:0.032931 946:0.0444192 947:0.0282764 948:0.0480711 949:0.0258526 950:0.00220833 951:0.139692 952:-0.752733 953:-0.224552 954:0.253515 955:0.403945 956:0.416905 957:0.343401 958:0.336064 959:0.39772 960:0.294638 961:0.261022 962:0.308075 963:0.325468 964:0.363246 965:0.438004 966:0.397419 967:0.337317 968:0.419624 969:0.464198 970:0.478611 971:0.457749 972:0.435729 973:0.408848 974:0.366961 975:0.486455 976:0.496066 977:0.366853 978:0.328917 979:0.404782 980:0.46664 981:0.417516 982:0.462796 983:0.52236 984:0.494085 985:0.401617 986:0.387001 987:0.409049 988:0.478225 989:0.472386 990:0.461522 991:0.44814 992:0.412262 993:0.394665 994:0.486124 995:0.529518 996:0.424404 997:0.37906 998:0.358716 999:0.420238 1000:0.382795 
19.49390290222546 0 125.4604569034778 0 0 123.7559502122084 0 50.11472410921419 48.98283885489796 25.20721445488468 1:0.318749 2:0.334431 3:0.315593 4:0.243243 5:0.211308 6:0.184969 7:0.15112 8:0.152869 9:0.147848 10:0.212623 11:0.126442 12:0.0864314 13:0.143836 14:0.162806 15:0.212174 16:0.227302 17:0.226737 18:0.221856 19:0.25967 20:0.267385 21:0.182084 22:0.171272 23:0.259077 24:0.268095 25:0.231878 26:0.192046 27:0.219163 28:0.232344 29:0.174613 30:0.0805925 31:0.0428586 32:0.0639617 33:0.107918 34:0.199641 35:0.166093 36:0.111716 37:0.0741744 38:0.0738026 39:0.108706 40:0.158227 41:0.139445 42:0.109499 43:0.239805 44:0.388454 45:0.393426 46:0.356307 47:0.365543 48:0.421006 49:0.391128 50:0.289201 51:0.383294 52:0.427654 53:0.45967 54:0.459065 55:0.439292 56:0.417962 57:0.408848 58:0.407364 59:0.366663 60:0.362927 61:0.339917 62:0.331809 63:0.404947 64:0.432476 65:0.450287 66:0.507701 67:0.466986 68:0.388565 69:0.353635 70:0.382613 71:0.413521 72:0.458425 73:0.480468 74:0.528961 75:0.486071 76:0.444024 77:0.412951 78:0.481691 79:0.468394 80:0.331854 81:0.416667 82:0.384882 83:0.425782 84:0.387067 85:0.313162 86:0.339917 87:0.311178 88:0.206488 89:0.184969 90:0.131922 91:0.166446 92:0.156872 93:0.146101 94:0.165019 95:0.105935 96:0.100166 97:0.131643 98:0.186552 99:0.210401 100:0.218462 101:0.237909 102:0.245108 103:0.267385 104:0.205689 105:0.182842 106:0.22438 107:0.252078 108:0.266864 109:0.203588 110:0.218799 111:0.242421 112:0.183108 113:0.124141 114:0.0848454 115:0.053961 116:0.1062 117:0.196119 118:0.181131 119:0.139463 120:0.0788506 121:0.034642 122:0.094471 123:0.119305 124:0.156241 125:0.0942065 126:0.199241 127:0.231891 128:0.253021 129:0.370854 130:0.400528 131:0.400491 132:0.397511 133:0.338833 134:0.376468 135:0.411033 136:0.452471 137:0.471123 138:0.448319 139:0.431013 140:0.410517 141:0.150841 142:0.392006 143:0.362051 144:0.357114 145:0.339917 146:0.401125 147:0.423903 148:0.410376 149:0.296364 150:0.240783 151:0.238471 152:0.19474 153:0.21644 154:0.226144 155:0.326996 156:0.279504 157:0.275904 158:0.326639 159:0.287116 160:0.389331 161:0.44763 162:0.489387 163:0.355457 164:0.631505 165:0.685262 166:0.768406 167:0.688683 168:0.596242 169:0.756288 170:0.8109 171:0.810352 172:0.81444 173:0.823003 174:0.78494 175:0.763954 176:0.857736 177:0.852453 178:0.759353 179:0.793802 180:0.75435 181:0.719525 182:0.670472 183:0.635366 184:0.533023 185:0.533594 186:0.524626 187:0.584978 188:0.351552 189:0.265532 190:0.374878 191:0.190594 192:0.0191704 193:0.195709 194:0.0651578 195:0.156346 196:0.27058 197:0.109018 198:-0.173065 199:-0.679438 200:0.0903291 201:-0.217564 202:-0.563406 203:-0.638014 204:-0.495051 205:-0.265454 206:-0.351781 207:-0.393911 208:0.207162 209:0.0548784 210:0.343054 211:0.287668 212:0.513615 213:0.357157 214:0.361345 215:0.285805 216:0.218249 217:0.196808 218:0.29935 219:0.376821 220:0.414194 221:0.373894 222:0.339629 223:0.270638 224:0.371293 225:0.394629 226:0.418737 227:0.420944 228:0.426977 229:0.440569 230:0.58041 231:-0.0262869 232:-0.102728 233:-0.128251 234:-0.00684321 235:0.139624 236:0.392505 237:0.421924 238:0.399078 239:0.372041 240:0.352487 241:0.338668 242:0.279116 243:0.253146 244:0.203555 245:0.155047 246:0.0897625 247:0.0151476 248:-0.0127008 249:-0.034242 250:-0.0178127 251:0.00184224 252:0.00238668 253:0.000857499 254:0.0143339 255:0.00288872 256:-0.0854515 257:-0.15386 258:-0.16653 259:-0.0992146 260:-0.238557 261:-0.268837 262:-0.287038 263:-0.286873 264:-0.29159 265:-0.297434 266:-0.339224 267:-0.336399 268:-0.416402 269:-0.449388 270:-0.464488 271:-0.361455 272:-0.385755 273:-0.473273 274:-0.36648 275:-0.338764 276:-0.338531 277:-0.303468 278:-0.267057 279:-0.239389 280:-0.21886 281:-0.191241 282:-0.157441 283:-0.120068 284:-0.0676563 285:-0.0239765 286:0.0164402 287:0.052487 288:0.0983093 289:0.130376 290:0.114943 291:0.0620954 292:0.00837931 293:-0.0025149 294:-0.00952858 295:-0.00544547 296:0.0176279 297:0.114507 298:0.215769 299:0.2265 300:0.237277 301:0.274384 302:0.313025 303:0.323713 304:0.325146 305:0.321632 306:0.34371 307:0.121743 308:-0.125449 309:-0.125339 310:0.295458 311:0.222589 312:0.444443 313:0.472226 314:0.495645 315:0.505315 316:0.487049 317:0.433735 318:0.402731 319:0.365097 320:0.335887 321:0.299205 322:0.267035 323:0.241832 324:0.210131 325:0.177179 326:0.128574 327:0.0773309 328:0.0417441 329:0.0110749 330:-0.0269012 331:-0.0312584 332:-0.0284732 333:-0.00586964 334:0.0185089 335:0.0160172 336:0.0322444 337:0.0334647 338:0.0238623 339:-0.0227796 340:-0.105865 341:-0.158129 342:-0.183451 343:-0.220315 344:-0.252289 345:-0.271125 346:-0.278565 347:-0.277837 348:-0.298568 349:-0.34413 350:-0.399835 351:-0.471162 352:-0.485013 353:-0.495518 354:-0.50224 355:-0.515047 356:-0.448861 357:-0.396697 358:-0.341113 359:-0.308007 360:-0.275688 361:-0.247095 362:-0.219321 363:-0.18166 364:-0.145684 365:-0.117383 366:-0.0857148 367:-0.0519861 368:-0.0166716 369:0.0194122 370:0.0576141 371:0.0937544 372:0.122733 373:0.118953 374:0.101248 375:0.0441856 376:0.00608338 377:-0.00566953 378:-0.0149017 379:-0.0267721 380:0.0464711 381:0.111963 382:0.193128 383:0.236102 384:0.253286 385:0.280284 386:0.303785 387:0.320616 388:0.32215 389:0.334084 390:0.353368 391:0.397432 392:0.435567 393:0.453482 394:0.488822 395:0.514338 396:0.517833 397:0.525185 398:0.532647 399:0.524832 400:0.452775 401:0.411638 402:0.380209 403:0.347542 404:0.312971 405:0.278535 406:0.240995 407:0.206026 408:0.170657 409:0.12083 410:0.0790149 411:0.0387385 412:-0.00835089 413:-0.0395886 414:-0.0547731 415:-0.0472239 416:-0.00278146 417:0.0241818 418:0.0238488 419:0.0379273 420:0.0415223 421:0.0236566 422:0.0114728 423:-0.0761179 424:-0.152339 425:-0.172935 426:-0.210202 427:-0.245365 428:-0.263723 429:-0.279682 430:-0.27814 431:-0.282891 432:-0.309941 433:-0.360652 434:-0.388474 435:-0.392964 436:-0.434307 437:-0.457945 438:-0.501254 439:-0.462588 440:-0.40619 441:-0.347641 442:-0.301483 443:-0.27238 444:-0.245007 445:-0.222011 446:-0.190977 447:-0.157464 448:-0.129179 449:-0.0993397 450:-0.0656328 451:-0.0283021 452:0.0135082 453:0.0527063 454:0.0766478 455:0.119923 456:0.119084 457:0.120208 458:0.0784038 459:0.0259263 460:0.00793601 461:-0.00643084 462:-0.0206248 463:0.024808 464:0.0893057 465:0.162788 466:0.221282 467:0.243795 468:0.274777 469:0.300132 470:0.312189 471:0.321607 472:0.326254 473:0.3319 474:0.35481 475:0.406603 476:0.426092 477:0.457173 478:0.493389 479:0.494101 480:0.505742 481:0.509376 482:0.518349 483:0.467073 484:0.424112 485:0.3933 486:0.355723 487:0.33116 488:0.296123 489:0.259519 490:0.220129 491:0.189773 492:0.139239 493:0.098505 494:0.0579247 495:0.00564061 496:-0.0258362 497:-0.056193 498:-0.0457234 499:-0.0338897 500:0.0156442 501:0.0283641 502:0.0278942 503:0.0322133 504:0.0212524 505:0.0184382 506:-0.0614053 507:-0.149063 508:-0.168143 509:-0.19587 510:-0.233354 511:-0.259784 512:-0.275722 513:-0.278028 514:-0.281112 515:-0.282389 516:-0.312139 517:-0.365526 518:-0.379073 519:-0.410709 520:-0.441882 521:-0.479549 522:-0.476089 523:-0.416939 524:-0.35557 525:-0.30485 526:-0.276463 527:-0.248368 528:-0.22677 529:-0.198064 530:-0.166986 531:-0.132672 532:-0.0995021 533:-0.0778491 534:-0.0370295 535:0.00501857 536:0.0426689 537:0.0683398 538:0.108234 539:0.123432 540:0.119924 541:0.093633 542:0.0323504 543:0.0146091 544:-0.00748736 545:-0.0157348 546:0.00255114 547:0.0745598 548:0.140312 549:0.216396 550:0.229721 551:0.255634 552:0.298665 553:0.313034 554:0.325584 555:0.3228 556:0.333444 557:0.329759 558:0.368181 559:0.387376 560:0.408511 561:0.43796 562:0.45634 563:0.461369 564:0.480792 565:0.506048 566:0.47697 567:0.424429 568:0.388177 569:0.358571 570:0.334079 571:0.304937 572:0.265274 573:0.230591 574:0.195927 575:0.159566 576:0.112119 577:0.0642625 578:0.0289203 579:-0.0117976 580:-0.0498793 581:-0.0488254 582:-0.034963 583:-0.0303263 584:-0.00836437 585:0.00426315 586:0.0265896 587:0.0267131 588:0.0164754 589:-0.0423074 590:-0.12872 591:-0.15974 592:-0.179901 593:-0.218129 594:-0.251034 595:-0.268581 596:-0.274551 597:-0.27812 598:-0.276981 599:-0.290035 600:-0.349304 601:-0.420161 602:-0.454773 603:-0.453802 604:-0.484718 605:-0.496014 606:-0.434574 607:-0.373897 608:-0.31495 609:-0.277789 610:-0.249781 611:-0.224638 612:-0.203685 613:-0.171974 614:-0.139134 615:-0.108934 616:-0.0854307 617:-0.0498289 618:-0.0167445 619:0.465308 620:0.256426 621:0.0958095 622:0.123547 623:0.116007 624:0.114041 625:0.0564727 626:0.0285089 627:0.0105535 628:-0.00827756 629:-0.0143465 630:0.056227 631:0.125832 632:0.201741 633:0.224843 634:0.246878 635:0.277931 636:0.301911 637:0.324581 638:0.323504 639:0.329399 640:0.323535 641:0.338523 642:0.373458 643:0.43825 644:0.441538 645:0.439105 646:0.483106 647:0.491738 648:0.491747 649:0.497008 650:0.432449 651:0.392097 652:0.355566 653:0.330906 654:0.300515 655:0.573601 656:0.60167 657:0.199805 658:0.169962 659:0.119571 660:0.0733802 661:0.0415446 662:-0.0145035 663:-0.0583898 664:-0.0522398 665:-0.0620436 666:-0.0174014 667:0.0154475 668:-0.025089 669:0.0295576 670:0.0326361 671:0.0239585 672:-0.0222749 673:-0.108105 674:-0.160396 675:-0.173105 676:-0.217168 677:-0.26157 678:-0.494099 679:0.251292 680:0.2951 681:-0.279528 682:-0.239571 683:-0.0904486 684:0.0527401 685:-0.445319 686:-0.383914 687:-0.375545 688:-0.412395 689:-0.361695 690:-0.33633 691:-0.302062 692:-0.26842 693:-0.25284 694:-0.498939 695:-0.214911 696:-0.185312 697:-0.164817 698:0.320672 699:-0.121872 700:-0.0681103 701:-0.0340136 702:0.0215826 703:0.0544653 704:0.267479 705:0.12927 706:0.131617 707:0.121334 708:0.0799238 709:0.0339292 710:0.0309527 711:0.00629937 712:0.0020489 713:0.0467999 714:0.128124 715:0.203812 716:0.242185 717:0.116222 718:0.277414 719:0.31641 720:0.337373 721:0.358092 722:0.41204 723:0.266416 724:0.385206 725:0.244062 726:0.282008 727:0.430908 728:0.6014 729:0.287794 730:0.122422 731:0.187077 732:0.169358 733:0.138673 734:-0.237558 735:0.109456 736:0.0919796 737:0.0849033 738:0.0735308 739:0.0599106 740:0.0463683 741:0.0313832 742:-0.000617248 743:-0.01868 744:-0.0373141 745:0.0769897 746:-0.0112467 747:0.0047456 748:0.00490437 749:0.0423257 750:0.159088 751:0.249844 752:0.222135 753:0.178068 754:0.149206 755:0.101907 756:-0.250261 757:0.0140341 758:-0.355856 759:-0.0131868 760:0.00679628 761:-0.000177377 762:-0.0557411 763:0.00825599 764:0.476453 765:0.0194341 766:0.0339346 767:0.170655 768:0.228804 769:0.434447 770:0.00494443 771:-0.0193936 772:-0.0806796 773:0.490041 774:0.55795 775:-0.0240212 776:-0.00722926 777:0.00363069 778:0.0161548 779:0.0279301 780:0.0333018 781:0.0467315 782:0.0615944 783:0.16417 784:0.0902596 785:0.107967 786:0.0380804 787:0.211801 788:-0.377636 789:-0.0491329 790:0.118485 791:0.102554 792:0.0627524 793:0.0615296 794:0.0445608 795:0.0692415 796:0.0676661 797:0.0459148 798:0.110587 799:0.107018 800:0.452921 801:0.0699176 802:0.0724568 803:0.0753787 804:0.0768747 805:0.0661611 806:0.0841716 807:0.107822 808:0.0725388 809:0.130923 810:0.097401 811:0.134759 812:0.140721 813:-0.0483116 814:-0.318177 815:0.171934 816:0.476601 817:0.419287 818:-0.0438759 819:0.461916 820:-0.099865 821:0.221995 822:0.0599555 823:0.0490069 824:0.0296725 825:0.027274 826:-0.00964262 827:-0.0425399 828:0.142593 829:-0.0706416 830:-0.045449 831:-0.0116459 832:0.485167 833:0.00498871 834:0.582438 835:0.59309 836:0.201641 837:0.225052 838:0.16639 839:-0.0745039 840:0.0140994 841:0.023141 842:0.033647 843:-0.143758 844:0.159772 845:0.00743533 846:0.00698045 847:0.0102637 848:0.0161615 849:-0.174289 850:-0.0603213 851:0.24509 852:0.256148 853:-0.097066 854:-0.154053 855:-0.128601 856:-0.0903455 857:-0.0583328 858:-0.0319473 859:-0.0182469 860:-0.00129567 861:0.0156163 862:0.0282315 863:0.11234 864:0.0440402 865:0.0600715 866:0.0715129 867:0.087221 868:0.103617 869:0.116966 870:0.599184 871:0.165003 872:0.127209 873:0.137541 874:0.0235428 875:-0.29478 876:0.135657 877:0.116657 878:0.066067 879:0.0607342 880:0.0539851 881:0.0595364 882:0.475408 883:0.164066 884:0.0557601 885:0.0626144 886:0.0711925 887:0.0771127 888:0.0726207 889:0.0739324 890:0.150637 891:0.360854 892:0.632526 893:0.278616 894:0.156498 895:0.268839 896:0.144328 897:0.221578 898:0.18184 899:0.148147 900:0.121078 901:0.10623 902:0.0908519 903:0.0758693 904:0.0643281 905:0.0592125 906:0.0412783 907:0.0161148 908:-0.00459161 909:-0.0261951 910:-0.0451614 911:-0.0610744 912:-0.131073 913:-0.100294 914:-0.10612 915:-0.0775637 916:-0.0607262 917:-0.0510281 918:0.435149 919:0.297522 920:-0.0573992 921:0.014759 922:0.0968761 923:0.200805 924:0.284606 925:0.40639 926:0.482307 927:0.386412 928:0.330167 929:0.29193 930:0.198687 931:0.0235762 932:0.00376013 933:-0.0281888 934:-0.0691504 935:-0.140024 936:-0.207336 937:-0.108112 938:-0.109399 939:-0.0714328 940:-0.0572554 941:0.023182 942:0.133283 943:0.144634 944:-0.101886 945:0.0312036 946:0.0474772 947:0.0312054 948:0.0534372 949:0.0209403 950:-0.00362265 951:0.139031 952:-0.739018 953:-0.217585 954:0.235636 955:0.403945 956:0.416905 957:0.363198 958:0.352878 959:0.354338 960:0.31494 961:0.253828 962:0.270762 963:0.317668 964:0.34803 965:0.452471 966:0.390017 967:0.321781 968:0.382615 969:0.435738 970:0.471631 971:0.450912 972:0.420447 973:0.4235 974:0.38148 975:0.451119 976:0.496066 977:0.397039 978:0.328917 979:0.372349 980:0.443382 981:0.433313 982:0.439612 983:0.529597 984:0.509661 985:0.393927 986:0.363126 987:0.376688 988:0.437785 989:0.44814 990:0.477745 991:0.48855 992:0.436998 993:0.427431 994:0.44538 995:0.459395 996:0.417111 997:0.316119 998:0.358716 999:0.396863 1000:0.390821 
415.1252435738494 0 1370.885705276437 0 0 367.3748103142847 0 0 0 774.4924086087541 1:0.202477 2:0.230706 3:0.324532 4:0.262431 5:0.198131 6:0.26207 7:0.229141 8:0.237439 9:0.270708 10:0.381996 11:0.324618 12:0.286053 13:0.340868 14:0.355936 15:0.310652 16:0.270423 17:0.248382 18:0.262811 19:0.310713 20:0.256702 21:0.269646 22:0.344111 23:0.35975 24:0.313013 25:0.367814 26:0.354267 27:0.351953 28:0.339323 29:0.35567 30:0.353736 31:0.306434 32:0.31793 33:0.435146 34:0.400449 35:0.290088 36:0.286963 37:0.365051 38:0.356964 39:0.347377 40:0.360965 41:0.375664 42:0.34379 43:0.343357 44:0.309125 45:0.333698 46:0.279645 47:0.309692 48:0.329803 49:0.341432 50:0.202304 51:0.249833 52:0.258784 53:0.31213 54:0.310273 55:0.305587 56:0.284132 57:0.343665 58:0.388856 59:0.340225 60:0.293341 61:0.320374 62:0.328482 63:0.324924 64:0.288183 65:0.428322 66:0.446836 67:0.315753 68:0.255509 69:0.246386 70:0.253306 71:0.211738 72:0.201757 73:0.198011 74:0.214175 75:0.247401 76:0.243856 77:0.300073 78:0.265611 79:0.125334 80:0.0843252 81:0.178688 82:0.174817 83:0.186207 84:0.206497 85:0.19458 86:0.316424 87:0.277162 88:0.207435 89:0.290527 90:0.257937 91:0.237832 92:0.284359 93:0.346577 94:0.359042 95:0.298841 96:0.309022 97:0.342367 98:0.341903 99:0.312893 100:0.23183 101:0.246759 102:0.332661 103:0.252745 104:0.261777 105:0.308618 106:0.360315 107:0.264345 108:0.361564 109:0.379485 110:0.360374 111:0.359706 112:0.34222 113:0.393471 114:0.386518 115:0.335055 116:0.420972 117:0.405502 118:0.357382 119:0.279699 120:0.339962 121:0.396325 122:0.359387 123:0.348746 124:0.383845 125:0.355357 126:0.337127 127:0.347975 128:0.268505 129:0.268826 130:0.337157 131:0.294184 132:0.330344 133:0.259085 134:0.264583 135:0.255758 136:0.282945 137:0.333276 138:0.320253 139:0.288626 140:0.320428 141:0.107766 142:0.36582 143:0.319278 144:0.297868 145:0.365073 146:0.296021 147:0.265906 148:0.326059 149:0.284023 150:0.138578 151:0.114684 152:0.117465 153:0.156684 154:0.125977 155:0.123646 156:0.0618399 157:0.053935 158:0.142297 159:0.106997 160:0.251793 161:0.242637 162:0.183176 163:0.0647569 164:0.474347 165:0.582 166:0.673842 167:0.606042 168:0.568884 169:0.745231 170:0.804575 171:0.812701 172:0.825456 173:0.842374 174:0.796811 175:0.784284 176:0.874869 177:0.876145 178:0.79247 179:0.821981 180:0.784466 181:0.757295 182:0.697525 183:0.644462 184:0.538152 185:0.547736 186:0.533225 187:0.58595 188:0.372769 189:0.29839 190:0.380041 191:0.194017 192:0.0295331 193:0.208271 194:0.075402 195:0.172128 196:0.296039 197:0.14706 198:-0.125818 199:-0.514853 200:0.200895 201:0.044386 202:0.0427408 203:-0.0395497 204:-0.195151 205:-0.0442118 206:-0.152828 207:-0.202313 208:0.293769 209:0.109796 210:0.339491 211:0.240474 212:0.457071 213:0.243335 214:0.213986 215:0.0918537 216:-0.0072687 217:-0.0468417 218:0.0362125 219:0.158993 220:0.148684 221:0.0727191 222:-0.000625468 223:-0.067616 224:-0.00696093 225:0.0114654 226:0.0244191 227:0.022442 228:0.0560891 229:0.0648968 230:0.290029 231:-0.231925 232:-0.306089 233:-0.360923 234:-0.272494 235:-0.150739 236:0.0603139 237:0.0928858 238:0.0872088 239:0.088512 240:0.0928422 241:0.104578 242:0.0866687 243:0.0987635 244:0.071332 245:0.0477742 246:0.0168978 247:-0.00644206 248:-0.00508244 249:-0.00728846 250:0.0252517 251:0.078523 252:0.103723 253:0.13683 254:0.178954 255:0.194922 256:0.136086 257:0.086461 258:0.0969399 259:0.169079 260:0.080856 261:0.0730024 262:0.0650171 263:0.0794551 264:0.089023 265:0.0939705 266:0.0580477 267:0.040765 268:-0.0208367 269:-0.0479313 270:-0.0778372 271:0.00379375 272:0.0103727 273:-0.038909 274:0.00975757 275:0.0373295 276:0.0300958 277:0.0346556 278:0.0499598 279:0.0614033 280:0.0548982 281:0.0514527 282:0.056357 283:0.0670928 284:0.0876903 285:0.1071 286:0.124513 287:0.136686 288:0.141386 289:0.139137 290:0.10189 291:0.033471 292:-0.0400056 293:-0.0845395 294:-0.115712 295:-0.1416 296:-0.146116 297:-0.0650151 298:-0.00398636 299:0.00272072 300:-0.00808 301:-0.000104539 302:0.00567827 303:0.0160344 304:0.0163695 305:0.00844036 306:0.0248987 307:-0.0767458 308:-0.333931 309:-0.345623 310:-0.0528781 311:-0.115531 312:0.0535209 313:0.0698396 314:0.0729251 315:0.09235 316:0.111391 317:0.0849567 318:0.0769474 319:0.0621092 320:0.0449165 321:0.0224204 322:0.0117225 323:0.00871149 324:-0.00434318 325:-0.00954378 326:-0.0266731 327:-0.0413591 328:-0.0580274 329:-0.0692703 330:-0.06232 331:-0.0323954 332:-0.00775788 333:0.0328333 334:0.0818613 335:0.112412 336:0.154138 337:0.180028 338:0.20136 339:0.181086 340:0.120957 341:0.0936222 342:0.096811 343:0.0824663 344:0.07529 345:0.0666443 346:0.0702282 347:0.0852901 348:0.0761383 349:0.0263001 350:-0.0190868 351:-0.0596651 352:-0.0607266 353:-0.0803191 354:-0.0661961 355:-0.061842 356:-0.0302239 357:-0.0324121 358:-0.00542099 359:0.0134186 360:0.0228 361:0.0334428 362:0.0487652 363:0.0689904 364:0.0776981 365:0.0836888 366:0.0912043 367:0.0939075 368:0.105059 369:0.117064 370:0.134903 371:0.140772 372:0.129114 373:0.102539 374:0.0712142 375:-1.74371e-05 376:-0.068269 377:-0.101206 378:-0.141065 379:-0.175038 380:-0.115676 381:-0.0755798 382:-0.013093 383:-0.00107367 384:-0.00433902 385:0.00583475 386:0.010006 387:0.0166538 388:0.00820718 389:0.00583316 390:0.0280001 391:0.0710866 392:0.100227 393:0.106081 394:0.129831 395:0.159641 396:0.141892 397:0.128607 398:0.126435 399:0.136569 400:0.0903523 401:0.0659886 402:0.0551542 403:0.0401627 404:0.0212867 405:0.00905996 406:-0.00095327 407:-0.00601797 408:-0.0149465 409:-0.0288581 410:-0.0384205 411:-0.055326 412:-0.0795286 413:-0.072067 414:-0.0503068 415:-0.0225979 416:0.0379871 417:0.0827113 418:0.117132 419:0.150421 420:0.187289 421:0.196858 422:0.20584 423:0.144004 424:0.0946479 425:0.101888 426:0.0876201 427:0.0780522 428:0.070427 429:0.0661834 430:0.0793447 431:0.09314 432:0.0636706 433:0.0208923 434:0.028375 435:0.0534148 436:0.0169029 437:-0.0164789 438:-0.0511451 439:-0.0314137 440:-0.0230017 441:-0.0101446 442:0.0179631 443:0.0312155 444:0.0401083 445:0.0522967 446:0.0664953 447:0.0744337 448:0.0832027 449:0.0900502 450:0.0967011 451:0.104299 452:0.115853 453:0.138964 454:0.139566 455:0.138711 456:0.107999 457:0.0915849 458:0.038011 459:-0.0361262 460:-0.0832163 461:-0.123697 462:-0.159953 463:-0.135066 464:-0.0900988 465:-0.038158 466:0.000712263 467:-0.00893607 468:0.00146699 469:0.00579742 470:0.0125724 471:0.0101652 472:0.00481781 473:-0.00275179 474:0.0221773 475:0.0653942 476:0.0688978 477:0.0814799 478:0.115038 479:0.0984533 480:0.0814129 481:0.0652441 482:0.109961 483:0.0971123 484:0.0726045 485:0.0634656 486:0.0479201 487:0.0324711 488:0.014876 489:0.00878516 490:-0.00310379 491:-0.0102031 492:-0.0207336 493:-0.0317325 494:-0.044031 495:-0.0773473 496:-0.07828 497:-0.0561117 498:-0.0244581 499:0.00368524 500:0.0716489 501:0.116361 502:0.137916 503:0.175371 504:0.187058 505:0.210679 506:0.156491 507:0.0950531 508:0.095344 509:0.0934537 510:0.0791163 511:0.0717831 512:0.0635636 513:0.073336 514:0.0886311 515:0.0981173 516:0.0818745 517:0.0479298 518:0.0512484 519:0.038041 520:-0.00475317 521:-0.0304717 522:-0.0360807 523:-0.0153663 524:-0.0099535 525:0.0198237 526:0.0364008 527:0.043329 528:0.0489941 529:0.0671951 530:0.0800383 531:0.0859826 532:0.0960662 533:0.0995773 534:0.10861 535:0.11454 536:0.128157 537:0.133395 538:0.138892 539:0.119656 540:0.0944933 541:0.0560027 542:-0.0224685 543:-0.0756449 544:-0.114761 545:-0.152357 546:-0.156618 547:-0.0957904 548:-0.054299 549:0.00236945 550:-0.00658663 551:-0.000724944 552:0.0041011 553:0.0102607 554:0.0149117 555:0.00897223 556:0.00345087 557:-0.00771951 558:0.0216435 559:0.0267824 560:0.0275963 561:0.0454049 562:0.0553465 563:0.0347882 564:0.035603 565:0.0820412 566:0.097168 567:0.0647812 568:0.0502811 569:0.0462382 570:0.0325993 571:0.019684 572:0.00540751 573:-0.00214146 574:-0.0108077 575:-0.0172394 576:-0.0277846 577:-0.0413336 578:-0.0601516 579:-0.0781456 580:-0.0684192 581:-0.0347554 582:0.00107374 583:0.0184787 584:0.06165 585:0.108032 586:0.158921 587:0.181022 588:0.201762 589:0.168924 590:0.107105 591:0.0936631 592:0.101086 593:0.0834334 594:0.0771957 595:0.0668713 596:0.0736907 597:0.0837829 598:0.0994607 599:0.096164 600:0.0524429 601:0.0196963 602:0.00994966 603:-0.00353415 604:-0.0284733 605:-0.0491267 606:-0.0190377 607:-0.0124223 608:0.0126739 609:0.0355011 610:0.0447238 611:0.0529782 612:0.0649769 613:0.0791842 614:0.0889514 615:0.0974844 616:0.0989884 617:0.103592 618:0.105154 619:0.517146 620:0.314187 621:0.140894 622:0.126763 623:0.096483 624:0.0805026 625:0.00865393 626:-0.0516018 627:-0.0891456 628:-0.137695 629:-0.165284 630:-0.108017 631:-0.0639358 632:-0.00851133 633:-0.00345862 634:-0.00526261 635:0.00488379 636:0.00902654 637:0.0148657 638:0.00843275 639:0.0026041 640:-0.0104009 641:-0.00936316 642:-0.00614637 643:0.0220582 644:0.01259 645:0.0225406 646:0.0478635 647:0.0447656 648:0.0585215 649:0.105463 650:0.0710701 651:0.0488939 652:0.0409603 653:0.0294258 654:0.0096082 655:0.419085 656:0.479232 657:-0.00658236 658:-0.0150896 659:-0.0278362 660:-0.0376114 661:-0.048197 662:-0.0790791 663:-0.0732567 664:-0.0457214 665:-0.0288838 666:0.0366134 667:0.0847499 668:0.0829478 669:0.154058 670:0.192111 671:0.210423 672:0.180919 673:0.128896 674:0.0903705 675:0.096551 676:0.089209 677:0.0840351 678:-0.257012 679:0.456945 680:0.495436 681:0.0919133 682:0.124142 683:0.219147 684:0.326194 685:-0.0247659 686:-0.0142724 687:-0.0314164 688:-0.0483983 689:-0.0109154 690:0.000217817 691:0.00760196 692:0.0295603 693:0.0410944 694:-0.319986 695:0.058777 696:0.0695622 697:0.0763981 698:0.457571 699:0.0631667 700:0.0985723 701:0.107493 702:0.121464 703:0.141303 704:0.323775 705:0.142218 706:0.113019 707:0.0963648 708:0.0384096 709:-0.0357967 710:-0.0707242 711:-0.11827 712:-0.150047 713:-0.129416 714:-0.0718088 715:-0.0242246 716:-0.000915477 717:-0.114519 718:0.00270061 719:0.00627447 720:0.0126194 721:0.0123288 722:0.00748545 723:0.00268706 724:0.0597949 725:0.0424048 726:0.245807 727:0.374236 728:0.564604 729:0.230981 730:0.0410917 731:0.102564 732:0.11037 733:0.0878349 734:-0.2743 735:0.0619775 736:0.0485352 737:0.0387906 738:0.0229456 739:0.0140286 740:0.00356524 741:-0.00306977 742:-0.0186332 743:-0.0285822 744:-0.0416365 745:0.0680948 746:-0.0257821 747:0.00140034 748:0.00851495 749:0.0498002 750:0.166541 751:0.272541 752:0.247672 753:0.221115 754:0.196946 755:0.163653 756:-0.197756 757:0.0862458 758:-0.313283 759:0.0569561 760:0.0790816 761:0.0719442 762:0.0110304 763:0.0792863 764:0.516471 765:0.0960976 766:0.111945 767:0.185789 768:0.292044 769:0.475311 770:0.0716942 771:0.0506884 772:-0.0566702 773:0.50716 774:0.574069 775:0.0183114 776:0.0345837 777:0.0369613 778:0.0475804 779:0.0654318 780:0.0798663 781:0.0865478 782:0.0961975 783:0.172553 784:0.0953187 785:0.114915 786:0.0500547 787:0.224143 788:-0.377401 789:-0.0511885 790:0.113174 791:0.100798 792:0.0510368 793:0.0282819 794:0.00783164 795:0.0129249 796:-0.00573792 797:-0.0229209 798:0.0348425 799:0.0333509 800:0.409841 801:0.00297629 802:-0.0145671 803:0.0596274 804:0.0616028 805:0.0522315 806:0.0535654 807:0.0914538 808:0.0628987 809:0.127835 810:0.0914263 811:0.125431 812:0.142173 813:-0.0567353 814:-0.328831 815:0.161757 816:0.474484 817:0.412767 818:-0.0526425 819:0.456786 820:-0.107683 821:0.206548 822:0.0337592 823:0.0215573 824:0.00401358 825:0.00124897 826:-0.0296909 827:-0.0528108 828:0.129138 829:-0.104089 830:-0.0768431 831:-0.0372156 832:0.473323 833:-0.0198566 834:0.57603 835:0.587334 836:0.194723 837:0.221392 838:0.168933 839:-0.0706174 840:0.0261032 841:0.0277867 842:0.0422245 843:-0.138616 844:0.173947 845:0.0246099 846:0.0228916 847:0.0266062 848:0.033638 849:-0.165781 850:-0.0578463 851:0.247453 852:0.261746 853:-0.0920862 854:-0.151944 855:-0.11718 856:-0.0736207 857:-0.053268 858:-0.0253573 859:-0.00140642 860:0.011953 861:0.0249515 862:0.0400379 863:0.131891 864:0.0669653 865:0.0837787 866:0.0941173 867:0.107297 868:0.123033 869:0.131049 870:0.608201 871:0.195854 872:0.151871 873:0.160729 874:0.0445987 875:-0.276994 876:0.153628 877:0.133742 878:0.0699969 879:0.0630415 880:0.0505022 881:0.0515204 882:0.471723 883:0.160552 884:0.045174 885:0.0515957 886:0.0555624 887:0.0604271 888:0.0579658 889:0.0577863 890:0.141963 891:0.354011 892:0.628585 893:0.27594 894:0.143822 895:0.267698 896:0.134689 897:0.202953 898:0.166856 899:0.146517 900:0.112892 901:0.0903036 902:0.0802843 903:0.0685576 904:0.0477994 905:0.0309231 906:0.0143662 907:-0.00880795 908:-0.0359823 909:-0.0497242 910:-0.0626365 911:-0.0795661 912:-0.158292 913:-0.136122 914:-0.136703 915:-0.10223 916:-0.0744295 917:-0.0585465 918:0.428185 919:0.286399 920:-0.0551038 921:0.0239308 922:0.103696 923:0.220923 924:0.29329 925:0.418741 926:0.506099 927:0.420605 928:0.369261 929:0.330536 930:0.235825 931:0.0616376 932:0.0253417 933:-0.0203046 934:-0.0665258 935:-0.136204 936:-0.198352 937:-0.111256 938:-0.0953854 939:-0.0459821 940:-0.0428658 941:0.031026 942:0.16064 943:0.185966 944:-0.0714027 945:0.062518 946:0.0905242 947:0.0775817 948:0.0952307 949:0.0647416 950:0.0333234 951:0.159765 952:-0.710624 953:-0.179896 954:0.474939 955:0.521996 956:0.542562 957:0.502538 958:0.530359 959:0.525016 960:0.40708 961:0.337392 962:0.30884 963:0.280421 964:0.314475 965:0.362701 966:0.346176 967:0.236929 968:0.305561 969:0.279759 970:0.318597 971:0.325035 972:0.277686 973:0.284869 974:0.327687 975:0.373924 976:0.385724 977:0.273794 978:0.265926 979:0.352807 980:0.324924 981:0.269946 982:0.366888 983:0.468733 984:0.363959 985:0.260055 986:0.288236 987:0.248686 988:0.219826 989:0.201948 990:0.210483 991:0.181846 992:0.157082 993:0.215081 994:0.312338 995:0.2728 996:0.12576 997:0.0804922 998:0.142416 999:0.186894 1000:0.146532 
237.8933788729441 0 0 0 0 0 0 0 0 354.1748922007732 1:0.186894 2:0.210743 3:0.29605 4:0.230373 5:0.230954 6:0.285905 7:0.257937 8:0.209645 9:0.275335 10:0.355432 11:0.341755 12:0.286053 13:0.349772 14:0.373392 15:0.353043 16:0.308559 17:0.244138 18:0.242848 19:0.333861 20:0.268177 21:0.257742 22:0.313541 23:0.374538 24:0.287157 25:0.337627 26:0.354267 27:0.336448 28:0.331174 29:0.359966 30:0.37922 31:0.318077 32:0.347234 33:0.361886 34:0.389852 35:0.342518 36:0.279386 37:0.33775 38:0.388493 39:0.358585 40:0.34967 41:0.363618 42:0.347711 43:0.328698 44:0.363687 45:0.340799 46:0.272281 47:0.332303 48:0.283907 49:0.337935 50:0.225151 51:0.264726 52:0.247639 53:0.284389 54:0.317052 55:0.312849 56:0.265891 57:0.31793 58:0.369758 59:0.35573 60:0.340332 61:0.263617 62:0.356965 63:0.317237 64:0.288183 65:0.367674 66:0.468733 67:0.350714 68:0.255509 69:0.254383 70:0.245185 71:0.20759 72:0.201757 73:0.185784 74:0.250648 75:0.210811 76:0.252048 77:0.300073 78:0.297286 79:0.179345 80:0.0528545 81:0.15872 82:0.186634 83:0.190451 84:0.175023 85:0.222494 86:0.263617 87:0.272687 88:0.249112 89:0.233613 90:0.267536 91:0.219084 92:0.266312 93:0.288909 94:0.376181 95:0.326232 96:0.299787 97:0.324144 98:0.376181 99:0.300108 100:0.235862 101:0.258901 102:0.293121 103:0.291325 104:0.210532 105:0.293478 106:0.382811 107:0.310843 108:0.332654 109:0.36798 110:0.364275 111:0.336448 112:0.34222 113:0.381014 114:0.358946 115:0.338691 116:0.361079 117:0.395175 118:0.39489 119:0.279699 120:0.293229 121:0.372628 122:0.371122 123:0.344844 124:0.379842 125:0.355357 126:0.36311 127:0.355172 128:0.287009 129:0.295357 130:0.315852 131:0.312689 132:0.323206 133:0.270477 134:0.260601 135:0.288447 136:0.275712 137:0.323058 138:0.316686 139:0.273974 140:0.280409 141:0.110809 142:0.392794 143:0.331239 144:0.273883 145:0.328482 146:0.335209 147:0.307484 148:0.294911 149:0.290527 150:0.177255 151:0.126517 152:0.108747 153:0.154019 154:0.136858 155:0.13284 156:0.0768407 157:0.0835612 158:0.107192 159:0.117919 160:0.240397 161:0.292179 162:0.232901 163:0.0409522 164:0.464808 165:0.583768 166:0.670575 167:0.599179 168:0.568884 169:0.736838 170:0.808914 171:0.81865 172:0.821102 173:0.849581 174:0.8004 175:0.779693 176:0.874381 177:0.876633 178:0.796276 179:0.821374 180:0.785253 181:0.758126 182:0.700325 183:0.650723 184:0.539107 185:0.541212 186:0.544404 187:0.577239 188:0.376107 189:0.299227 190:0.388446 191:0.192584 192:0.0263887 193:0.208945 194:0.0762467 195:0.171602 196:0.292806 197:0.14291 198:-0.127767 199:-0.640427 200:0.203163 201:0.0574019 202:0.0524429 203:-0.0331348 204:-0.191873 205:-0.038156 206:-0.148073 207:-0.198497 208:0.296206 209:0.1159 210:0.341158 211:0.249345 212:0.459087 213:0.243012 214:0.221402 215:0.0929109 216:-0.00653619 217:-0.0454842 218:0.0391752 219:0.158003 220:0.14667 221:0.0736538 222:6.16659e-05 223:-0.070001 224:-0.0030548 225:0.0118633 226:0.0227417 227:0.0249957 228:0.0476785 229:0.0699722 230:0.288755 231:-0.235669 232:-0.313261 233:-0.3593 234:-0.270891 235:-0.152608 236:0.0612081 237:0.0937986 238:0.089474 239:0.0894503 240:0.08867 241:0.0991279 242:0.0792307 243:0.0902438 244:0.0735006 245:0.0477742 246:0.0160408 247:-0.010686 248:-0.00801421 249:-0.00978494 250:0.0232748 251:0.0734915 252:0.10028 253:0.13264 254:0.176998 255:0.195723 256:0.130227 257:0.0857043 258:0.0947785 259:0.168764 260:0.0787607 261:0.0740517 262:0.0657088 263:0.0787505 264:0.0893948 265:0.0962861 266:0.0552421 267:0.0391679 268:-0.0200028 269:-0.0453653 270:-0.0708677 271:0.000922239 272:0.00950278 273:-0.031523 274:0.0133905 275:0.033757 276:0.0326688 277:0.0391659 278:0.0483515 279:0.0598063 280:0.0533524 281:0.052589 282:0.0607043 283:0.0744756 284:0.0959396 285:0.110524 286:0.123498 287:0.137023 288:0.146372 289:0.142775 290:0.103653 291:0.035868 292:-0.0369522 293:-0.0821301 294:-0.109073 295:-0.14018 296:-0.144318 297:-0.0614813 298:-0.00434712 299:0.00238063 300:-0.00584146 301:-0.000104539 302:0.00505446 303:0.0135565 304:0.015749 305:0.00779296 306:0.0248987 307:-0.0775857 308:-0.334618 309:-0.344921 310:-0.0517913 311:-0.122009 312:0.0530843 313:0.0685722 314:0.0737884 315:0.0834966 316:0.113098 317:0.0862053 318:0.072428 319:0.0617092 320:0.0449165 321:0.0240609 322:0.00802838 323:0.000620771 324:-0.0103036 325:-0.0181092 326:-0.0285742 327:-0.0439624 328:-0.0576402 329:-0.0696662 330:-0.0655065 331:-0.035207 332:-0.00898008 333:0.0312436 334:0.0784246 335:0.112043 336:0.144378 337:0.179282 338:0.201731 339:0.172719 340:0.120957 341:0.0932673 342:0.0946917 343:0.0800172 344:0.0777158 345:0.0690462 346:0.0691789 347:0.0852901 348:0.0776065 349:0.0247824 350:-0.0194903 351:-0.0613332 352:-0.063255 353:-0.0704913 354:-0.0697712 355:-0.0582083 356:-0.0260866 357:-0.0228231 358:-0.00761542 359:0.0116271 360:0.0263736 361:0.0334428 362:0.0477124 363:0.0668552 364:0.0805429 365:0.0907115 366:0.0963762 367:0.10541 368:0.106727 369:0.116743 370:0.135917 371:0.142825 372:0.13368 373:0.10534 374:0.0726131 375:0.00167396 376:-0.0641432 377:-0.0987673 378:-0.136823 379:-0.172543 380:-0.116363 381:-0.0685467 382:-0.0124328 383:0.0002049 384:-0.00403368 385:0.00708334 386:0.00752239 387:0.0160344 388:0.00915385 389:0.00711481 390:0.0266772 391:0.0724347 392:0.101636 393:0.105374 394:0.130201 395:0.151807 396:0.143797 397:0.128607 398:0.122387 399:0.130326 400:0.0903523 401:0.0647812 402:0.0543536 403:0.0421458 404:0.0204853 405:0.00626279 406:-0.0041376 407:-0.0118566 408:-0.0218403 409:-0.0329398 410:-0.0417002 411:-0.0545917 412:-0.0837236 413:-0.0759837 414:-0.0527038 415:-0.0217949 416:0.036847 417:0.0808664 418:0.114925 419:0.14491 420:0.183984 421:0.192017 422:0.202421 423:0.144385 424:0.0964862 425:0.0990342 426:0.0883179 427:0.0784064 428:0.073175 429:0.0668746 430:0.0800499 431:0.0935152 432:0.0648115 433:0.0220816 434:0.0262434 435:0.0520599 436:0.0251152 437:-0.0132607 438:-0.0511451 439:-0.0343509 440:-0.0155708 441:-0.00869404 442:0.0176029 443:0.0340149 444:0.0404669 445:0.0522967 446:0.0679074 447:0.0789877 448:0.086339 449:0.0941594 450:0.103469 451:0.104299 452:0.117475 453:0.138626 454:0.139222 455:0.142525 456:0.110445 457:0.0926417 458:0.0393922 459:-0.0333541 460:-0.0832163 461:-0.114217 462:-0.156765 463:-0.135405 464:-0.0843749 465:-0.0397972 466:0.000712263 467:-0.00641523 468:0.00209227 469:0.00393907 470:0.0101023 471:0.0111053 472:0.00514279 473:-0.0037509 474:0.0211401 475:0.0643124 476:0.0699871 477:0.0848469 478:0.106097 479:0.100892 480:0.0784358 481:0.0639285 482:0.0988016 483:0.0975075 484:0.0741929 485:0.0610902 486:0.0479201 487:0.0336604 488:0.0156773 489:0.00481044 490:-0.00897094 491:-0.0136567 492:-0.0274534 493:-0.035773 494:-0.04478 495:-0.0773473 496:-0.0779042 497:-0.0672404 498:-0.0268528 499:0.00449042 500:0.0704594 501:0.111325 502:0.136381 503:0.167467 504:0.181786 505:0.211079 506:0.150429 507:0.0946867 508:0.0939108 509:0.0934537 510:0.0770392 511:0.0741902 512:0.065614 513:0.072999 514:0.0879151 515:0.099632 516:0.0818745 517:0.0470815 518:0.0525401 519:0.0376045 520:0.00529039 521:-0.0322958 522:-0.0373951 523:-0.0113738 524:-0.00108911 525:0.0187555 526:0.0350035 527:0.043329 528:0.0500511 529:0.0696688 530:0.0810874 531:0.0866776 532:0.0994846 533:0.0988988 534:0.107285 535:0.115193 536:0.127504 537:0.133054 538:0.14095 539:0.122107 540:0.0955313 541:0.0573839 542:-0.0204002 543:-0.07249 544:-0.110544 545:-0.148812 546:-0.152369 547:-0.0951112 548:-0.0529654 549:0.00236945 550:-0.00468851 551:-0.000724944 552:0.00472103 553:0.00839366 554:0.0139767 555:0.00865208 556:0.0031364 557:-0.0105024 558:0.0220155 559:0.0297614 560:0.0283639 561:0.0402157 562:0.0494764 563:0.0343685 564:0.0395329 565:0.0738294 566:0.093451 567:0.0659886 568:0.0491059 569:0.0442564 570:0.0330062 571:0.0192936 572:0.00301553 573:-0.0025253 574:-0.0119777 575:-0.023692 576:-0.030746 577:-0.0424343 578:-0.0571844 579:-0.0770118 580:-0.0727804 581:-0.0379503 582:-0.000541983 583:0.0177124 584:0.0608992 585:0.107276 586:0.148997 587:0.178017 588:0.202932 589:0.160066 590:0.107857 591:0.0932909 592:0.0989485 593:0.0844648 594:0.0796111 595:0.0692567 596:0.0726442 597:0.0823662 598:0.100203 599:0.0977471 600:0.0553838 601:0.0196963 602:0.00529694 603:0.00570902 604:-0.0327022 605:-0.050911 606:-0.0178 607:-0.00223311 608:0.0126739 609:0.033407 610:0.046816 611:0.0543922 612:0.0653184 613:0.0795454 614:0.091412 615:0.0978383 616:0.097285 617:0.103592 618:0.107787 619:0.517504 620:0.312884 621:0.138867 622:0.129907 623:0.0982384 624:0.0815423 625:0.0103776 626:-0.0463032 627:-0.086655 628:-0.1295 629:-0.162387 630:-0.110449 631:-0.0578433 632:-0.00718223 633:-0.0021831 634:-0.00401304 635:0.00704729 636:0.00654246 637:0.0124013 638:0.00813073 639:0.00324084 640:-0.0124413 641:-0.00683659 642:-0.00455362 643:0.0203496 644:0.0138978 645:0.0116172 646:0.0527685 647:0.0461093 648:0.0528749 649:0.094884 650:0.0738936 651:0.0508875 652:0.0377823 653:0.0270457 654:0.0096082 655:0.420473 656:0.47903 657:-0.00893605 658:-0.0193003 659:-0.0323059 660:-0.0398002 661:-0.046727 662:-0.0790791 663:-0.0752309 664:-0.0501424 665:-0.0316471 666:0.0298207 667:0.0831789 668:0.0780212 669:0.151714 670:0.187487 671:0.206887 672:0.182485 673:0.125853 674:0.0903705 675:0.0951343 676:0.0895484 677:0.0816114 678:-0.25582 679:0.457743 680:0.495436 681:0.0911856 682:0.12678 683:0.21848 684:0.324132 685:-0.0261171 686:-0.00973966 687:-0.026812 688:-0.0502403 689:-0.0130038 690:0.00524742 691:0.0108573 692:0.0274534 693:0.042155 694:-0.318401 695:0.058777 696:0.0706313 697:0.074642 698:0.456527 699:0.0675089 700:0.101953 701:0.113756 702:0.12406 703:0.139635 704:0.323775 705:0.146748 706:0.116194 707:0.0977911 708:0.0398053 709:-0.0329954 710:-0.0692986 711:-0.110453 712:-0.147897 713:-0.128709 714:-0.0666443 715:-0.0249004 716:-0.000599221 717:-0.112543 718:0.00176058 719:0.00472777 720:0.0101416 721:0.0120265 722:0.00748545 723:0.00331994 724:0.0597949 725:0.0416737 726:0.24731 727:0.376083 728:0.560534 729:0.23241 730:0.0401677 731:0.100708 732:0.0990702 733:0.0878349 734:-0.27376 735:0.0575776 736:0.0481467 737:0.0395928 738:0.0237485 739:0.0104268 740:0.00120856 741:-0.00656673 742:-0.0295508 743:-0.0319082 744:-0.0416365 745:0.0687568 746:-0.0261465 747:-0.00353975 748:0.00536572 749:0.0466908 750:0.164692 751:0.262279 752:0.247672 753:0.213436 754:0.19886 755:0.166574 756:-0.203906 757:0.0854877 758:-0.31397 759:0.0545585 760:0.0759379 761:0.0747291 762:0.0133358 763:0.0792863 764:0.516079 765:0.0972488 766:0.109908 767:0.185549 768:0.293739 769:0.474479 770:0.0802485 771:0.0460192 772:-0.0563934 773:0.508425 774:0.576974 775:0.0176022 776:0.0363259 777:0.041874 778:0.0461733 779:0.06222 780:0.0766687 781:0.0897173 782:0.102422 783:0.189162 784:0.110017 785:0.115234 786:0.051274 787:0.226297 788:-0.375304 789:-0.0502767 790:0.114258 791:0.100069 792:0.0670144 793:0.0334406 794:0.0123338 795:0.0196772 796:0.00193332 797:-0.0214952 798:0.0383636 799:0.0323653 800:0.409841 801:-0.00195056 802:-0.0014636 803:0.0428077 804:0.060573 805:0.0518909 806:0.0539393 807:0.088831 808:0.0624871 809:0.12874 810:0.0924394 811:0.126371 812:0.138556 813:-0.054702 814:-0.327735 815:0.159973 816:0.474719 817:0.415176 818:-0.0526425 819:0.456786 820:-0.107078 821:0.206893 822:0.0341731 823:0.0207608 824:0.00323482 825:0.000106501 826:-0.0293285 827:-0.0557615 828:0.129688 829:-0.101726 830:-0.0800253 831:-0.0400271 832:0.473526 833:-0.0198566 834:0.575915 835:0.587334 836:0.190589 837:0.225138 838:0.170992 839:-0.0713127 840:0.0284837 841:0.0300609 842:0.0392706 843:-0.138024 844:0.173077 845:0.0264759 846:0.0240309 847:0.0277566 848:0.033638 849:-0.164316 850:-0.0554331 851:0.247172 852:0.258362 853:-0.085059 854:-0.15395 855:-0.11581 856:-0.0732159 857:-0.0486744 858:-0.0297011 859:-0.00568047 860:0.0137414 861:0.0238757 862:0.0389812 863:0.131569 864:0.0676782 865:0.0858912 866:0.0979143 867:0.115765 868:0.123033 869:0.132382 870:0.607748 871:0.193361 872:0.155427 873:0.161818 874:0.0442694 875:-0.276994 876:0.15618 877:0.130258 878:0.0772455 879:0.0621593 880:0.047728 881:0.0551897 882:0.470156 883:0.160263 884:0.0475095 885:0.0546211 886:0.0545308 887:0.058337 888:0.0590336 889:0.0574 890:0.139784 891:0.353834 892:0.627128 893:0.276154 894:0.150475 895:0.26579 896:0.140861 897:0.202953 898:0.165456 899:0.140922 900:0.115374 901:0.0898834 902:0.0778311 903:0.0718353 904:0.0490544 905:0.0317902 906:0.0126555 907:-0.0118322 908:-0.0329581 909:-0.0543653 910:-0.0671307 911:-0.0803719 912:-0.155903 913:-0.132686 914:-0.139328 915:-0.103113 916:-0.073972 917:-0.05843 918:0.426214 919:0.287796 920:-0.0638375 921:0.0199835 922:0.107388 923:0.218263 924:0.296815 925:0.415702 926:0.505293 927:0.413054 928:0.370003 929:0.332073 930:0.236706 931:0.0616376 932:0.031452 933:-0.0174965 934:-0.0646374 935:-0.135689 936:-0.200676 937:-0.105196 938:-0.10075 939:-0.0500177 940:-0.0408967 941:0.0319598 942:0.151082 943:0.183961 944:-0.0714027 945:0.0633595 946:0.0874662 947:0.0761172 948:0.0986017 949:0.0677961 950:0.0303955 951:0.15783 952:-0.705453 953:-0.179896 954:0.460116 955:0.524972 956:0.554286 957:0.497589 958:0.530359 959:0.525016 960:0.413847 961:0.362664 962:0.293915 963:0.291927 964:0.310574 965:0.344524 966:0.327766 967:0.264217 968:0.305561 969:0.293989 970:0.297655 971:0.314691 972:0.274011 973:0.273974 974:0.287669 975:0.345656 976:0.404114 977:0.296289 978:0.230252 979:0.340748 980:0.324924 981:0.293341 982:0.335975 983:0.486732 984:0.394913 985:0.263801 986:0.296194 987:0.248686 988:0.223973 989:0.201948 990:0.19426 991:0.201948 992:0.144609 993:0.223272 994:0.279909 995:0.284587 996:0.158485 997:0.0409522 998:0.130274 999:0.206473 1000:0.162585 
